dense
Weight Shape:
(784, 128)
Bias Shape:
(128,)
weights:
[[ 6.64973930e-02  2.72005722e-02 -4.87659723e-02 -2.78364010e-02
  -7.37819597e-02  3.21431458e-03  1.39005482e-03 -1.96402296e-02
   1.35925263e-02 -6.19626567e-02  3.80150005e-02 -1.74359307e-02
   2.47007683e-02 -7.47741684e-02 -6.56118765e-02 -4.20811474e-02
  -6.42051473e-02 -8.05422366e-02  3.66166234e-02 -6.92797303e-02
   5.96506894e-03  1.42861679e-02  7.37614259e-02  6.86131194e-02
  -5.33707291e-02 -3.43222171e-03 -1.81104317e-02  6.01200759e-03
   5.20890281e-02  3.82666290e-02 -4.47335690e-02 -5.35876080e-02
   7.82257318e-03  1.64901540e-02  1.60935074e-02 -1.74058601e-02
  -4.98540588e-02 -8.66491348e-03 -5.21165058e-02 -6.58511296e-02
   1.82976499e-02  2.76880190e-02  7.52353594e-02  3.70238125e-02
  -6.54180869e-02 -2.65189968e-02 -1.55825093e-02  5.48656955e-02
  -2.29954235e-02 -3.55145186e-02 -7.21145123e-02  4.77963462e-02
  -6.68186396e-02  2.98349559e-03 -9.74965841e-03  5.47884777e-02
  -1.38052553e-03  3.79022136e-02  1.83617324e-02  5.78726307e-02
   7.26059079e-04 -6.61853477e-02 -4.90864366e-03  2.89596245e-02
   2.20381990e-02 -3.98631580e-02  4.63353917e-02 -7.72970393e-02
  -5.91003001e-02 -7.18679279e-02 -5.95238656e-02 -4.06590067e-02
   2.69258395e-02  2.35348046e-02  7.44392648e-02 -4.84502539e-02
   2.56762132e-02  3.12613845e-02 -6.47444576e-02  4.09689024e-02
   2.20558494e-02  5.86914495e-02  9.72633064e-03  6.73253015e-02
  -6.79928809e-03  6.95369914e-02  3.86062860e-02 -8.04782659e-02
  -2.79221460e-02  3.22422087e-02 -7.18720257e-02 -5.76551482e-02
  -7.25702941e-02  4.19902056e-03  6.24260679e-02 -4.98821773e-02
   6.43614158e-02 -2.21101567e-02  3.82008404e-03 -3.37326676e-02
   6.07095137e-02  4.31195945e-02 -6.47766143e-02 -1.32369101e-02
  -2.21781880e-02 -4.69795950e-02 -4.74136434e-02 -7.05502778e-02
  -7.66419172e-02  2.98273563e-02  5.62113151e-02 -8.84298235e-03
   3.30666974e-02  2.38487870e-02  5.25163636e-02  2.98516452e-02
   2.95613781e-02  7.24884793e-02  2.89751589e-03  4.38946113e-02
  -4.05549295e-02  3.76872718e-03  7.40336403e-02 -2.39216909e-02
   6.95860162e-02 -3.98546495e-02 -5.46425320e-02 -7.43461698e-02]
 [-7.77309909e-02 -5.18817976e-02 -6.23467341e-02 -7.00538605e-02
   1.56500936e-03  4.49493602e-02  1.64881647e-02 -3.34056169e-02
  -6.70776367e-02 -5.47508262e-02 -2.35374570e-02 -1.79806724e-02
   4.43955585e-02  5.29644862e-02  5.16854972e-03  5.33241779e-03
  -3.12457234e-02  4.50395420e-02  4.67619374e-02 -2.06473283e-02
   2.88031027e-02  4.41805944e-02  1.68818310e-02 -5.13792522e-02
  -3.84781323e-02 -3.84246781e-02  1.57292113e-02 -1.28059611e-02
   3.27864438e-02 -2.41291113e-02  1.94678679e-02 -8.07521194e-02
  -4.96541597e-02 -2.10709535e-02  2.24565789e-02 -3.59820388e-02
   3.91865671e-02 -1.47513524e-02  3.25290486e-02 -5.55650070e-02
   1.14920586e-02  2.79794633e-02  5.49608245e-02  2.02385336e-02
   1.54292360e-02 -6.47065938e-02 -5.90883866e-02 -4.71539870e-02
   2.52535194e-03 -7.47463554e-02  5.57665154e-02 -5.35011292e-02
  -6.20910078e-02 -5.58806658e-02 -7.10670128e-02 -3.45769376e-02
  -5.34150153e-02 -7.24879950e-02 -7.49880075e-02  7.51784518e-02
  -2.89901793e-02  5.30999973e-02  7.72231147e-02 -3.27331685e-02
  -6.01484925e-02  5.07350266e-03 -7.12426454e-02  6.15431741e-02
  -6.30719438e-02 -2.79828906e-03  9.15639848e-03  2.99036652e-02
  -1.96189582e-02  1.59009919e-02 -3.06128785e-02 -6.34164363e-03
   5.95608875e-02  4.58675995e-02  8.18986446e-03  4.02767882e-02
   1.41356587e-02 -4.24692035e-03  6.73829764e-03 -1.68940574e-02
  -3.80704403e-02 -5.56242988e-02 -1.98082961e-02 -2.34727710e-02
   2.81546861e-02 -3.77272442e-02  5.33760265e-02 -7.68314749e-02
  -7.79635385e-02 -7.02423751e-02  7.11242035e-02 -5.72203472e-02
  -1.37702227e-02 -2.21122056e-03 -7.75004998e-02  3.22578475e-02
  -4.60028388e-02  2.63436362e-02 -2.03035697e-02 -4.91819382e-02
  -5.62903658e-02  4.32406738e-02 -1.76645145e-02  7.44935051e-02
  -8.51120800e-03 -2.16377005e-02  5.05479053e-02  2.21204609e-02
   5.78531548e-02  1.17512271e-02  1.82154402e-02 -3.63786519e-03
   7.54544511e-02  3.43766287e-02 -6.32541627e-02  7.62834400e-03
   4.65174764e-03 -3.02292444e-02  6.86218813e-02  6.90929219e-02
   5.74145541e-02 -1.97568201e-02  2.24983171e-02 -2.55946070e-03]
 [-4.45475914e-02  3.43972668e-02  7.68487379e-02 -2.32857093e-02
   8.00620690e-02  7.16707930e-02  6.44379184e-02 -6.69720918e-02
   5.70794269e-02 -7.70441517e-02 -3.52541059e-02  7.03787878e-02
  -1.14129633e-02 -7.80279189e-03 -4.58397754e-02  6.76858798e-02
   4.12302241e-02 -3.92038971e-02 -2.47693472e-02 -3.51324677e-03
  -7.97976404e-02 -1.24042034e-02 -2.30177604e-02 -3.78816798e-02
   3.14601809e-02  5.63469753e-02 -7.69680589e-02 -6.84805512e-02
  -5.19928560e-02 -1.01415440e-02 -5.21322079e-02  6.19851053e-04
  -4.02096063e-02  6.90460131e-02 -5.27450778e-02  4.69411835e-02
   2.85820663e-02 -7.46363848e-02 -6.98144138e-02 -1.89469904e-02
   6.19047359e-02  7.85221234e-02  3.34484726e-02 -4.82674874e-02
   3.27225029e-03  4.93806526e-02 -7.04848915e-02  6.90562502e-02
   1.32642388e-02  8.33275914e-03  6.30402640e-02  2.49422491e-02
  -3.41434702e-02  4.93514314e-02  6.38196990e-02  5.79720065e-02
  -7.69672096e-02 -4.48146164e-02  7.47720078e-02  7.98360258e-03
   8.47934186e-03 -1.06190443e-02  6.49792030e-02 -6.64782301e-02
   3.63874063e-02  6.98824227e-03 -3.29848342e-02 -6.64259791e-02
   2.11036578e-02 -2.15518214e-02  1.49290338e-02 -4.77339067e-02
   7.57722482e-02  6.45932034e-02 -2.62743682e-02  5.15006706e-02
  -1.62391067e-02  5.74044660e-02 -3.68079394e-02  1.42943114e-03
  -6.52038902e-02  1.68515891e-02 -1.92330219e-02 -6.13614321e-02
  -7.97691718e-02  4.85210642e-02  4.31642830e-02 -1.47798657e-03
  -2.07890011e-02 -5.34340218e-02  6.47071823e-02 -1.21838450e-02
  -6.98288381e-02  2.36784890e-02 -5.64945787e-02  6.41263947e-02
   3.57360989e-02  4.96138409e-02 -4.48410884e-02 -7.83964023e-02
  -9.39978659e-03 -6.09864593e-02 -2.75509283e-02  6.63134530e-02
  -6.67695776e-02  3.78594175e-02  8.21897388e-03  1.15230754e-02
  -2.63839774e-02  3.71270031e-02  2.07008421e-03 -5.55417240e-02
  -6.17837161e-03 -3.02209295e-02  6.92644939e-02  4.66064438e-02
  -6.87682331e-02 -2.87843645e-02  4.71180603e-02 -3.15090902e-02
  -5.24284691e-03  5.85651472e-02  5.26810810e-02  6.82815090e-02
   2.40400583e-02  4.10411134e-02  6.47937283e-02 -4.19187993e-02]
 [ 2.68659294e-02 -5.50646335e-03  1.75896958e-02 -6.43024743e-02
  -3.38817053e-02  6.12194836e-03  1.56770349e-02  6.40819222e-03
  -2.39058137e-02  5.43514714e-02  5.96000925e-02 -5.80710173e-02
  -6.10497557e-02  7.65802637e-02  7.79007003e-02 -3.05796936e-02
  -4.87282239e-02  1.46055222e-02  3.30968797e-02 -1.24687701e-03
   2.51528248e-02 -4.15643305e-02 -5.86122572e-02 -8.10598135e-02
  -7.63526931e-02 -8.78208131e-03  6.22119233e-02  6.14025220e-02
  -1.61147043e-02 -4.51573879e-02 -7.65238404e-02  7.98096135e-02
   1.33969188e-02 -7.64951557e-02 -5.89689352e-02 -7.51356781e-03
   3.68204340e-02  6.04829118e-02 -2.30340436e-02 -5.78456298e-02
  -3.52173634e-02  3.99852991e-02 -3.68430391e-02  5.49327061e-02
   5.84372357e-02  9.37211514e-03 -6.48091584e-02  1.86023414e-02
  -2.35782042e-02  3.99921238e-02  3.31667736e-02  3.31924707e-02
   6.43857792e-02 -4.72203009e-02 -8.06989521e-03 -8.42556357e-03
   1.10128522e-02 -4.87525128e-02  1.97945461e-02 -7.49566257e-02
   7.37722963e-03  6.09090552e-02 -4.27003577e-02  6.90798238e-02
  -5.57405800e-02 -1.57600790e-02  7.30721578e-02 -3.20917331e-02
  -5.16584218e-02 -7.32520074e-02  6.82867691e-02  2.33398601e-02
  -9.49230045e-03 -1.15433186e-02 -1.42458901e-02 -2.45719217e-02
   3.69437560e-02 -8.41378421e-03 -6.58408552e-02 -5.79424948e-02
  -1.27919018e-02 -1.77130699e-02 -2.03878842e-02 -6.34875000e-02
  -7.37585872e-03 -5.49380034e-02  1.35264248e-02 -2.04811543e-02
  -5.18182702e-02 -5.83438575e-03 -6.60877898e-02 -9.08350945e-03
  -2.06251107e-02  1.71732828e-02  3.70097160e-02 -6.54293224e-02
  -1.64797157e-02  3.39321047e-03  5.14277592e-02  4.15680408e-02
   7.23295137e-02  2.78918445e-02  3.65376472e-04 -1.55873448e-02
   3.99016589e-02 -1.21479481e-03  1.20622665e-03 -3.35855223e-02
  -3.14351209e-02  7.23458752e-02  3.55935916e-02 -3.87560986e-02
   2.60728598e-02  7.76058212e-02  7.75696859e-02  7.31647238e-02
  -2.30079740e-02 -4.45450768e-02  2.26755440e-03 -5.88436425e-02
   4.64386716e-02  2.20989361e-02 -3.75397988e-02 -1.23299807e-02
   1.03993043e-02  2.04420686e-02 -3.32707725e-02 -6.19570911e-02]
 [ 5.31959161e-02  2.44847015e-02 -3.57907079e-02 -4.58326600e-02
   3.42228562e-02  4.59120423e-03  2.11991891e-02 -3.81414704e-02
  -2.69725174e-03  5.61783984e-02 -8.04493800e-02 -5.97220436e-02
   5.16878888e-02  2.60851830e-02  1.62070245e-02 -9.68512148e-03
   6.19796589e-02  3.68565321e-04  4.59605083e-02 -3.79736125e-02
  -7.59161860e-02  6.29412010e-02  2.79171765e-03 -3.67655680e-02
  -6.61350340e-02  7.01101348e-02  4.79998961e-02 -9.61332023e-03
   6.33579716e-02 -1.66172683e-02 -8.41137022e-03  3.80011350e-02
  -1.91981569e-02  1.33018494e-02 -6.43775910e-02 -6.53720200e-02
  -3.99554819e-02  4.44813445e-02  5.14135137e-02  3.20790857e-02
  -6.01707697e-02  6.64069876e-02 -7.94935971e-03 -1.81791782e-02
  -5.19278422e-02  3.35567072e-02  1.50540918e-02  6.87463209e-02
  -3.64377089e-02 -1.60521641e-02  3.52361798e-02 -3.65543962e-02
  -3.72936204e-02  3.20448205e-02  4.75459173e-02  4.06351686e-03
  -1.43544376e-03  7.43426755e-02  6.24711588e-02  6.93523064e-02
   6.62476346e-02 -2.84552053e-02  6.54669777e-02  1.37873963e-02
  -7.97267258e-02 -5.91940917e-02  2.08956748e-02  4.11810800e-02
  -4.21002321e-02 -4.79218550e-02  4.13902104e-02  4.04126793e-02
  -2.22117379e-02 -2.37473547e-02 -4.81917001e-02  5.13096079e-02
  -6.02457263e-02  5.43094948e-02 -2.25977711e-02  7.59018436e-02
   8.90261680e-03 -5.27064577e-02  3.49126533e-02  4.66290489e-02
   7.24970028e-02 -2.05911137e-02 -7.93827325e-02 -4.19903137e-02
   6.02719709e-02 -1.26903132e-02 -7.15690851e-03 -4.10387143e-02
   1.27820745e-02  4.57615331e-02 -7.97767341e-02  7.14169964e-02
  -6.60108775e-02 -7.32795447e-02  4.26138937e-02  6.99543878e-02
   3.38393152e-02 -7.27038085e-02  7.58494958e-02 -3.25533003e-02
   5.78194335e-02  2.99319401e-02  5.78076318e-02 -1.06915236e-02
   7.96305016e-02  1.95795447e-02  5.73696122e-02 -2.16917694e-03
  -2.25238204e-02 -7.83738494e-03  4.43048701e-02  7.69814774e-02
   3.66145149e-02 -5.92138357e-02 -7.03114867e-02 -1.64012164e-02
  -2.24322341e-02  3.84132117e-02  1.33620128e-02 -5.21596484e-02
   4.28989232e-02  3.30429524e-03 -7.15271905e-02  1.56322271e-02]
 [-5.25108911e-02  2.90248543e-02 -5.56765310e-02 -2.83168778e-02
  -1.22154802e-02  6.56987727e-03  2.73016021e-02 -4.26867604e-03
  -7.67621249e-02 -7.87301436e-02 -1.50493532e-02 -7.30071068e-02
   7.90045932e-02  1.03895217e-02  4.00044844e-02  7.31352195e-02
   3.84816676e-02  7.51737133e-02  2.32540816e-03  7.01086596e-02
  -4.36687805e-02 -5.97563386e-03  3.37011442e-02 -4.59504128e-02
   1.03018209e-02 -4.26206738e-03  4.29041088e-02 -6.34265691e-02
  -5.21343574e-02  5.69129661e-02  6.56020865e-02  3.77563462e-02
   1.46838427e-02  4.24863398e-02 -3.12151685e-02 -6.05725832e-02
  -7.62511045e-03 -3.83003540e-02  5.39044514e-02  2.14946195e-02
   5.85304126e-02  2.00779289e-02 -6.34995922e-02 -3.02037187e-02
  -5.17389439e-02 -2.56857686e-02  6.13413975e-02 -4.32515964e-02
  -1.46954060e-02 -4.02387679e-02 -5.94519861e-02  2.19433829e-02
  -3.71179730e-02 -1.13934651e-02 -1.27248466e-04  5.45152053e-02
   6.75388798e-02 -7.97289833e-02  2.87333876e-02  5.13631478e-02
  -7.63298199e-02  6.54456988e-02 -3.69384736e-02 -7.95719400e-02
  -2.41827369e-02  1.79109946e-02 -6.73252270e-02  1.27027482e-02
   6.35543987e-02 -1.20477378e-03  1.09327883e-02 -7.29516298e-02
  -2.52750814e-02  6.52333349e-03 -7.17456341e-02 -5.16695604e-02
  -5.68705164e-02  3.10136452e-02 -5.53644523e-02 -2.44967341e-02
   1.22832209e-02 -2.86507346e-02 -5.00160567e-02 -4.08254154e-02
   7.45264962e-02 -6.67789951e-02 -6.42236918e-02  4.89831790e-02
  -5.90074211e-02 -2.01967843e-02  1.75449252e-02 -4.85581420e-02
   1.93012878e-02  4.89913002e-02 -2.11706422e-02 -3.89872305e-02
   2.76434422e-02 -5.96116818e-02 -8.75893235e-03 -2.14388855e-02
  -7.80961365e-02 -4.53754254e-02 -3.92456874e-02 -3.81329618e-02
  -2.80895755e-02  2.91659459e-02  2.54221261e-04  5.87423891e-03
  -6.66505322e-02  4.95859236e-03 -7.41906464e-03 -1.73515007e-02
   7.98678920e-02 -2.21798904e-02  3.44439894e-02  4.19857502e-02
  -1.55032426e-02 -1.24131963e-02 -6.75301924e-02 -3.35524715e-02
  -3.66768055e-02 -5.42081147e-02 -5.06656319e-02 -3.09549272e-04
  -5.84514812e-02  2.52102762e-02  1.91536993e-02 -6.66351989e-02]
 [-3.94657999e-03 -5.83231449e-03 -1.35178193e-02  3.58523801e-02
  -1.49471313e-03  2.37576589e-02 -5.86477816e-02 -3.51063907e-04
   5.13348728e-03 -6.96413368e-02 -4.47338000e-02  4.53004166e-02
   1.54176503e-02  3.92908230e-02  1.20504871e-02 -7.44711161e-02
   4.66613695e-02  3.63724381e-02 -7.41692483e-02  4.24691141e-02
  -1.13225952e-02 -4.71542776e-02  6.99270442e-02 -7.32411444e-02
   2.16305107e-02  4.04429585e-02  2.67344639e-02 -3.18941735e-02
  -1.34861842e-02 -2.19419487e-02 -4.16431725e-02  4.20650020e-02
  -3.97361442e-02 -7.73023590e-02 -8.05420056e-02  2.89363787e-02
  -2.40688920e-02 -3.23845930e-02 -3.82737815e-03 -5.14402837e-02
  -5.69660664e-02  6.54319152e-02  1.63597390e-02  2.90958062e-02
   4.83351573e-02 -2.18844973e-02 -5.55556491e-02  7.51456097e-02
  -4.93074246e-02  2.31448859e-02 -6.08250834e-02  6.84361160e-03
   1.22580677e-02 -3.49991135e-02  6.54814020e-02 -6.35840371e-02
  -4.57969233e-02  5.08603677e-02  5.89931235e-02 -3.84479612e-02
   2.94748396e-02  5.77692613e-02  6.73903748e-02 -3.87359411e-03
  -6.02843091e-02  3.19252908e-02 -3.67823541e-02 -2.87271030e-02
  -6.58569261e-02 -4.20996919e-02  1.69421509e-02 -1.34599805e-02
  -4.33714762e-02 -2.34678201e-02 -3.30305509e-02 -9.80813056e-03
  -7.35729262e-02 -5.13605699e-02  4.50113192e-02  5.36308363e-02
  -5.72888032e-02 -4.58772331e-02  3.11304629e-02  3.73449624e-02
   1.85135975e-02 -3.74562964e-02  1.55290589e-02 -4.85711768e-02
  -1.17229372e-02 -6.28315881e-02  5.86170927e-02  8.32324475e-03
  -4.49788533e-02 -4.06782106e-02  2.77008414e-02  5.13919368e-02
  -2.20795237e-02 -2.10373625e-02  2.08112821e-02  5.78611270e-02
   2.13360265e-02 -6.10949695e-02 -3.99326235e-02  6.99330196e-02
  -5.68843633e-02  5.61733469e-02  1.81625336e-02  1.83618143e-02
   6.90707192e-02 -7.50676841e-02  3.22027504e-03  4.12700176e-02
   8.84618610e-03 -1.96865946e-03  2.33225301e-02 -5.47862053e-03
  -7.29143620e-02 -6.19060770e-02 -7.05092177e-02 -3.27496827e-02
   5.73650971e-02 -1.96960568e-03  2.08350420e-02  1.30625740e-02
  -3.17311138e-02 -1.83930248e-02  2.98784301e-02  2.22156420e-02]
 [-3.16343643e-02 -6.60038218e-02  1.94313526e-02  4.25838679e-02
  -5.37428781e-02 -7.07805157e-02  7.51842931e-02 -5.78344539e-02
   6.89355806e-02 -4.42428775e-02 -3.79169919e-02  8.97927582e-03
  -1.41334385e-02 -1.94213949e-02 -2.33579203e-02  3.91704962e-02
  -1.92291737e-02 -3.90584357e-02  5.18458113e-02  6.97028115e-02
   6.97472319e-02 -5.70882671e-02 -1.71552598e-02  9.17810947e-03
  -1.10856444e-03 -4.30049375e-02  2.11064816e-02 -1.65270492e-02
  -4.28690836e-02 -2.64545046e-02  6.29736856e-02 -3.77858952e-02
   1.88583806e-02  2.47129127e-02 -3.42224278e-02  5.32344952e-02
  -6.21736422e-02 -1.60428435e-02  7.82370344e-02  6.03505448e-02
  -6.05594739e-02  4.40762565e-02 -4.91990149e-02 -6.52014390e-02
   6.23565167e-03  2.61033401e-02  3.38406935e-02  1.57530755e-02
  -3.74235921e-02 -9.48959589e-03 -3.32799181e-02 -2.75698788e-02
   2.16351077e-02  4.39888462e-02  4.33680713e-02  1.34717375e-02
  -7.55504817e-02  2.40193307e-03  3.33184972e-02 -4.99690250e-02
   6.44044057e-02 -5.86369932e-02 -8.03494975e-02 -2.32024789e-02
   5.76739088e-02  4.18019369e-02  1.58380494e-02  7.96959326e-02
   2.80426219e-02 -9.48421657e-03 -9.46526974e-03  6.46342412e-02
   7.12655410e-02 -3.49429548e-02  4.72467169e-02 -5.86524084e-02
  -7.51471072e-02  4.87151667e-02  3.76201645e-02  3.28257978e-02
   4.80627194e-02  6.57286420e-02 -4.59167250e-02 -4.49148826e-02
  -4.47367206e-02 -1.67237818e-02  4.23400849e-02 -8.10988247e-03
  -7.27153122e-02 -1.64274573e-02 -2.31163278e-02 -3.07146944e-02
  -7.70901442e-02 -2.48973072e-03  3.55099365e-02  4.63026538e-02
  -7.87289441e-03 -6.75078183e-02 -1.04636028e-02 -2.70733982e-03
   7.83408806e-02 -3.82752344e-02  7.42465779e-02 -4.09253351e-02
  -7.93454871e-02 -4.39708456e-02 -1.59739554e-02 -4.91546132e-02
  -4.40723337e-02 -4.99745011e-02 -6.96425587e-02  8.09164569e-02
   7.59477168e-03 -5.10987714e-02  3.10635716e-02 -2.98330002e-02
   5.21676913e-02 -7.29174167e-03  2.20649987e-02  2.60336474e-02
  -7.77988732e-02 -2.21651532e-02  2.60039568e-02  6.47293255e-02
   3.24585438e-02 -5.58711737e-02  1.23371407e-02 -9.61832702e-04]
 [-5.53406626e-02 -2.25658044e-02  4.54950109e-02  7.97990039e-02
   4.18960974e-02  3.20215747e-02 -5.77797443e-02 -7.31888711e-02
   3.83951515e-02  4.74079028e-02 -6.15782514e-02  5.27100191e-02
   4.50060889e-02  1.32483244e-02 -2.76237726e-03  7.73017630e-02
  -7.89221153e-02 -6.72557652e-02  2.79101953e-02  4.26312536e-03
  -7.85461217e-02  5.04409596e-02  1.87503546e-02 -2.71511860e-02
   3.32231596e-02 -7.55522847e-02  7.04041868e-03 -7.11672753e-03
   1.37514621e-02  7.07154050e-02  5.54763451e-02  9.63084400e-03
  -7.45204836e-02  1.09243989e-02 -1.58890411e-02 -2.26380117e-02
   1.07120275e-02  5.35448641e-03  7.81602636e-02  6.22304603e-02
   1.71700120e-02 -2.34354101e-02 -6.66522756e-02  4.05189618e-02
  -7.80215338e-02  3.58563587e-02 -6.29668012e-02 -3.14588100e-02
  -4.73044999e-02 -4.40324955e-02  7.54829124e-02  8.10974017e-02
  -7.34434202e-02  4.33926284e-03  4.34644744e-02  4.75223884e-02
   5.68084642e-02 -1.61344111e-02  6.94730207e-02 -9.93833691e-03
  -3.51393148e-02 -5.09090200e-02 -1.90272033e-02 -4.25739251e-02
  -5.98514192e-02 -6.16200790e-02 -3.54019888e-02 -5.51673919e-02
   5.04385680e-03 -3.56384367e-02  6.46487549e-02 -1.91787407e-02
   5.82248047e-02 -8.09472203e-02  1.94147229e-03  6.00022599e-02
  -7.03820884e-02 -6.27247393e-02  5.63246533e-02 -2.06299126e-04
   3.77576426e-02 -1.60596296e-02 -6.41019195e-02 -8.08337480e-02
   2.64509469e-02 -4.42211628e-02 -6.02915585e-02 -2.40798779e-02
   6.01719394e-02 -4.30991128e-02  3.66635621e-04  4.53653112e-02
  -7.76794329e-02 -4.51434255e-02 -7.24466071e-02 -2.82064751e-02
   8.64524394e-03  2.36682445e-02  6.95337728e-02 -3.48672271e-02
   1.86034292e-03 -2.13041753e-02  7.15469643e-02  3.92564014e-02
   1.62810683e-02 -6.13500997e-02 -4.08702381e-02  3.50253358e-02
   3.27063799e-02  7.82319680e-02 -8.36064667e-03  5.40237501e-02
  -6.54631630e-02 -7.52192736e-02  6.05788156e-02  4.28744033e-02
  -4.85345498e-02 -3.19207050e-02  5.83051667e-02  5.64094111e-02
  -4.81528305e-02 -1.56202018e-02 -5.07988036e-03  1.56353638e-02
  -1.80744827e-02  4.54401299e-02 -5.80434799e-02 -3.04936357e-02]
 [ 5.73721305e-02 -5.37504256e-03 -3.30699421e-02  6.27248362e-02
  -9.47611779e-03  6.10471517e-03  6.05304763e-02  2.42398605e-02
   1.02233887e-03  5.16307279e-02  4.60445657e-02  7.66065717e-03
   1.66814029e-03 -6.68581277e-02  2.53328234e-02  5.18542156e-02
   6.73569962e-02  6.47846833e-02  4.48908135e-02  5.66174164e-02
   4.00241539e-02 -7.96839669e-02 -9.54124331e-03  3.84511948e-02
  -6.75972551e-02  1.93516240e-02 -1.78692862e-02 -1.02285296e-02
  -1.69090629e-02 -3.66481878e-02 -1.73357576e-02 -5.35697415e-02
   3.06225568e-03  6.45368174e-02 -5.78330979e-02  6.14831075e-02
   7.84860626e-02  3.42940018e-02 -2.66508274e-02 -9.39378887e-03
   6.83756396e-02  6.57705441e-02  9.92505252e-03  6.02171570e-03
   4.45807725e-03  6.25678822e-02 -3.43706571e-02 -7.16120079e-02
   1.19546056e-02  6.72541037e-02  6.02870658e-02 -3.56379524e-02
   4.81596962e-02  7.44480714e-02 -3.53555381e-02 -3.87582444e-02
  -2.92988010e-02  2.24759802e-02 -4.02008072e-02 -7.08181113e-02
  -6.35702908e-02  2.53670886e-02 -6.37712777e-02 -2.93163806e-02
   8.07879493e-02  4.69627902e-02 -7.36831203e-02  7.69209936e-02
  -7.91545585e-02  2.08747387e-03  5.22528589e-03  1.96120366e-02
  -6.11029938e-02 -7.40650520e-02  3.22707072e-02 -6.14086352e-02
  -5.01513258e-02 -6.51092529e-02 -8.00842866e-02  2.17163488e-02
   4.36130315e-02 -7.01418892e-02  2.75499448e-02  1.39804333e-02
   2.61525586e-02 -5.53991422e-02  6.82301298e-02  2.89190561e-02
  -1.14033148e-02  3.88225242e-02 -2.73116753e-02 -6.80402815e-02
   2.07796618e-02 -6.70217499e-02  1.70883685e-02  4.75012437e-02
  -8.03955942e-02  3.16292197e-02  4.05106619e-02  3.14825177e-02
   6.97840378e-02  7.30497465e-02 -1.45494193e-02 -7.51905590e-02
   3.92690897e-02 -4.59788591e-02 -1.87722854e-02  4.19185683e-02
   1.15435719e-02 -2.41766833e-02 -3.12950537e-02  5.64465448e-02
  -7.51142278e-02  1.38074905e-02  5.50385639e-02  2.73276493e-02
  -2.25456543e-02  1.88571066e-02 -3.03349867e-02  7.70248696e-02
   7.43917301e-02 -1.77152380e-02  1.76571459e-02  2.53774151e-02
  -5.62295876e-02 -5.06687835e-02 -6.57038689e-02 -7.43946433e-03]
 [-6.30891323e-02  2.50260532e-03 -3.61800194e-04  6.14182428e-02
  -4.91891056e-03  2.37736180e-02  6.96530938e-03 -4.66033705e-02
  -2.12082565e-02  7.94687346e-02 -3.55906524e-02  4.79417220e-02
   6.47060052e-02 -4.22850288e-02 -1.26907974e-02 -7.59739354e-02
  -4.05873023e-02  1.01021752e-02  5.31487688e-02 -7.51584768e-04
   4.94206324e-02 -3.74209844e-02  3.64478230e-02  2.72052586e-02
   4.01863605e-02  8.36313516e-03  7.79463425e-02 -7.26971030e-03
  -4.21875082e-02  8.02176669e-02  4.73509356e-02 -5.86584210e-02
  -5.18942326e-02 -6.16139919e-02  7.19352290e-02 -4.39853705e-02
  -4.80573960e-02  1.47362053e-03  2.21761987e-02  7.49483332e-02
  -7.00490922e-03 -2.66960002e-02 -7.31542557e-02  5.57708815e-02
  -1.46066993e-02 -1.90223306e-02  6.26483336e-02 -4.07245271e-02
   5.71481511e-02 -2.10862681e-02  4.87045124e-02 -3.22046503e-02
   2.27361917e-02 -2.23774686e-02 -6.76455498e-02  5.49594834e-02
   1.89938098e-02 -4.78378274e-02  6.56705424e-02  3.38102132e-02
  -3.83209474e-02  4.39895466e-02  5.61069623e-02  7.86794201e-02
  -2.56256051e-02  7.30748698e-02  5.23324236e-02  1.67122558e-02
   4.69477102e-02  4.13898602e-02  5.62587753e-02  2.84969807e-04
   7.19570592e-02 -2.32839882e-02  5.15450463e-02 -4.04403508e-02
   4.27517816e-02 -3.10207903e-03 -5.48784956e-02 -7.03668147e-02
   6.22828081e-02 -2.49385163e-02  4.51520085e-03  2.78574601e-02
  -6.79428130e-02 -3.57605517e-03  6.90393373e-02 -8.12359154e-03
  -4.81170341e-02 -7.06932992e-02  4.39064205e-03  5.57865277e-02
   7.97471330e-02  1.55683011e-02 -3.27503197e-02 -5.23294508e-03
  -1.33966282e-02  8.69710743e-03 -6.59922585e-02 -2.77787335e-02
  -5.77305295e-02  1.67045593e-02  3.47415060e-02 -2.11727507e-02
  -4.14974391e-02 -1.61746144e-02 -5.88431209e-02  6.06858805e-02
  -3.53496186e-02  4.58993986e-02 -1.53519064e-02 -4.42241207e-02
  -7.93477148e-02  1.31509528e-02 -4.04247642e-02 -5.44671714e-02
   1.33637339e-03 -1.59299225e-02 -8.10646862e-02 -2.36060508e-02
  -6.92354664e-02 -5.20145521e-02  6.84186742e-02 -2.86530554e-02
   3.44121158e-02 -1.26107559e-02 -7.00475201e-02 -3.62550952e-02]
 [-5.70617728e-02  3.24142575e-02 -7.29546472e-02 -4.88267913e-02
  -6.26667887e-02 -5.46977818e-02 -7.06603676e-02  3.30862254e-02
  -7.81820193e-02 -2.85232179e-02 -4.70927618e-02  2.56877765e-02
  -6.83925077e-02  6.83041736e-02 -6.82318658e-02 -5.32624163e-02
   3.84211615e-02 -2.40761824e-02  3.98981199e-02  4.45704237e-02
   1.66789964e-02 -6.82279989e-02  2.07544267e-02 -4.61865328e-02
  -2.11582854e-02 -5.48976809e-02 -2.88953073e-02  8.02309439e-02
   3.53206694e-02  3.38861346e-03  7.00575784e-02  9.16820765e-03
  -4.15481627e-03  6.95058182e-02 -6.42804354e-02  4.54723313e-02
  -2.20345408e-02  1.09127387e-02  2.46421397e-02 -4.30569761e-02
  -1.58154219e-02  3.93609628e-02  4.45859954e-02  8.07084143e-03
  -1.49518922e-02 -3.27934437e-02 -2.99605578e-02 -4.84301820e-02
  -1.30773336e-03 -1.41899809e-02 -3.85588408e-03  5.49548194e-02
  -6.36335835e-02  3.32356170e-02 -2.64168903e-02 -2.08403841e-02
   1.67643502e-02 -7.09355697e-02 -2.72003822e-02 -8.55988264e-03
  -1.53466240e-02 -4.28901650e-02  4.51787040e-02  1.27373636e-02
  -4.91923206e-02  6.47980645e-02 -6.35197982e-02  4.98825237e-02
   6.50879666e-02 -2.33807415e-03  4.65394780e-02 -3.06208432e-03
   7.66068175e-02 -4.26395386e-02 -5.74896485e-03 -4.88635711e-02
   1.54927596e-02 -1.64999813e-03  7.26376548e-02  1.23185515e-02
  -4.91871387e-02 -4.50033359e-02  7.75820240e-02  2.25560963e-02
   6.21096268e-02  5.50184473e-02  5.76399341e-02  4.58602533e-02
   7.44244084e-02  3.47133279e-02  3.54970545e-02 -1.82145089e-02
  -2.38559395e-03  3.03954184e-02  3.44965309e-02  5.60337082e-02
   5.49919158e-03  5.35054579e-02  4.54940721e-02  5.11833802e-02
   6.98693097e-04  5.91663048e-02  1.57511830e-02  1.43255442e-02
   2.61186361e-02  3.53282318e-02 -3.28011997e-02  4.77255359e-02
  -4.75924462e-02  1.17075220e-02 -7.94932321e-02  3.58755067e-02
  -7.70311207e-02  6.65264651e-02  8.93329084e-03  3.68095189e-03
   3.23083848e-02  4.75741178e-03  5.17964885e-02 -2.89936624e-02
  -7.07802847e-02 -7.65606612e-02 -1.56530216e-02  4.01484743e-02
  -2.14645267e-03  2.73711979e-04 -5.39475307e-02 -2.74167769e-02]
 [ 2.93531362e-02  7.04322681e-02  3.19697261e-02 -5.15965335e-02
   4.81276773e-02  6.27106577e-02  3.51794027e-02 -1.80164278e-02
   2.51639597e-02  6.07307106e-02 -3.37618664e-02  1.14834242e-01
  -9.35993716e-03  5.39955087e-02  2.34928709e-02  5.39713679e-03
   4.49519157e-02 -1.19454591e-02 -6.86448365e-02 -6.06112070e-02
  -6.39741868e-02 -7.13419095e-02  2.13738736e-02 -5.14810532e-03
   2.92642750e-02  7.57045439e-03  3.41990627e-02  3.29212695e-02
  -1.61913261e-02  6.51248544e-03 -6.85151294e-02  8.84664580e-02
  -2.50937825e-04  1.35116264e-01  1.71737547e-03 -3.28577422e-02
   6.08338937e-02  5.44564053e-03  1.16696106e-02 -3.01944483e-02
   5.70957139e-02  1.30066991e-01 -2.46261172e-02  3.28284092e-02
  -9.44556668e-02  2.25058943e-02 -3.69541929e-03 -1.50005883e-02
  -7.73807168e-02  5.49303330e-02 -2.34929603e-02  1.97860450e-02
   9.92411301e-02 -4.32770103e-02  2.34889034e-02 -7.63215348e-02
  -3.23886238e-03  7.29352282e-03 -5.92486486e-02  2.39236429e-02
  -4.74811345e-02  3.41879353e-02 -2.69570630e-02  4.95147519e-02
   4.98493016e-03  1.03302658e-01 -4.58541065e-02  5.24835251e-02
  -1.75531916e-02 -2.06207708e-02 -4.82044891e-02  8.88827369e-02
  -6.47935495e-02  3.93613568e-03  2.42098235e-02 -4.36987057e-02
   8.52686539e-03  5.62732341e-03 -1.93591602e-02 -7.28450790e-02
  -5.80197759e-02 -3.85191031e-02 -1.35927364e-01  6.42197430e-02
  -9.74138752e-02  7.86667019e-02 -7.36724809e-02  1.06633373e-01
  -2.06684414e-02  4.15272266e-02 -1.01357223e-02  5.30242501e-03
   7.70545378e-02  8.00950378e-02  2.12491602e-02  6.58838525e-02
  -4.25908715e-03  5.41854138e-03  2.61176489e-02 -4.95613739e-03
   8.04397017e-02  5.53626604e-02 -1.95039101e-02 -9.10700634e-02
  -4.49511632e-02 -3.38094607e-02  4.73012552e-02  9.20384750e-02
  -3.83271649e-02 -9.54502597e-02  9.23274923e-03  1.61705799e-02
  -6.31999457e-03  1.67695954e-02  5.41131087e-02  8.71396139e-02
   7.37898946e-02 -2.00313646e-02 -3.50735337e-02 -7.25415349e-02
  -2.77699586e-02  2.55849678e-02  9.73721817e-02  4.56762537e-02
  -5.47758974e-02 -2.07731538e-02 -3.49105559e-02 -5.74899837e-02]
 [ 5.69806620e-02  5.57251386e-02 -8.56961384e-02 -2.85856593e-02
  -6.02480315e-04  4.09406498e-02  6.23619929e-02 -7.81657174e-02
   8.05785821e-04  2.36216728e-02  3.18905301e-02  7.30913803e-02
   4.27917577e-02 -2.52973456e-02  4.71290685e-02 -1.30910659e-02
  -6.36706501e-02 -4.36432697e-02 -7.39689916e-03  2.46749073e-02
   6.73041865e-02 -5.07303327e-03 -5.16627096e-02 -7.25463927e-02
   4.43920270e-02  3.79930972e-03 -1.21634756e-03  1.02645747e-01
  -1.71354841e-02  9.72598791e-04  5.50046656e-03  4.48012073e-03
   2.92390119e-02 -1.06949173e-02 -3.83682549e-02  4.82684150e-02
   5.23184240e-02 -6.46881312e-02 -7.33610764e-02 -5.53348400e-02
   3.31600979e-02  7.13120252e-02 -3.37150395e-02  1.53914671e-02
  -5.11037074e-02  6.82403520e-02 -1.41637251e-02  5.08062840e-02
   4.03134599e-02  8.52533057e-02 -3.21070813e-02  3.29335108e-02
  -3.84210348e-02 -1.19273178e-01  1.64596383e-02  4.04884256e-02
   3.49115906e-03  2.79184580e-02  1.58137493e-02 -1.87624246e-03
   8.10372010e-02  1.52691547e-02  2.45322334e-03 -6.86984658e-02
  -1.87236145e-02  2.13298644e-03  6.31996766e-02 -1.64050236e-02
  -1.07027136e-01  3.89743224e-02  8.62272680e-02  3.66799370e-03
   1.16057349e-02 -5.99699952e-02  2.56157834e-02  3.68128493e-02
  -8.36082622e-02  9.93777439e-02 -8.01477283e-02 -8.56266823e-03
  -2.99614742e-02 -1.06846273e-01 -3.35921980e-02 -6.29342580e-03
  -4.03541066e-02 -6.73982874e-02  1.15569904e-02  5.91219924e-02
   1.20643787e-01 -2.10521035e-02  1.19041763e-01 -1.25623420e-02
   4.14347053e-02 -1.49982618e-02 -3.75239551e-02 -4.86536734e-02
  -9.42666829e-03 -1.67751648e-02 -2.78365053e-02  5.90231419e-02
  -1.17733432e-02  1.26241833e-01  1.49757080e-02 -8.38440210e-02
  -4.94035929e-02 -5.97933382e-02 -5.28082363e-02  6.69968501e-02
  -1.92707423e-02 -8.90463814e-02 -2.85829362e-02 -6.15575816e-03
   3.83200720e-02  2.29771975e-02  1.77682657e-02  7.24716634e-02
   8.93465057e-02 -1.92112047e-02  6.81573451e-02 -1.14125805e-02
   5.71231917e-02  2.02498175e-02  6.25403523e-02 -7.64289424e-02
   2.75807772e-02  3.48129794e-02  3.34287100e-02 -3.81292365e-02]
 [-3.58651020e-02 -1.37249544e-01 -1.12161338e-02  3.06861587e-02
   1.41993482e-02  5.50020337e-02  1.02532975e-01 -2.59616859e-02
   5.03288768e-02 -6.26431629e-02  5.46057262e-02 -2.02548392e-02
  -3.64236012e-02 -2.57505160e-02  4.69933636e-02  2.12143976e-04
  -3.74562815e-02  1.70553569e-02  1.38051510e-02 -2.88603408e-03
  -3.34551036e-02  2.32226104e-02 -6.47329018e-02 -3.83149832e-03
  -3.06768660e-02  6.14060983e-02  6.64368197e-02  1.03314975e-02
  -7.62716830e-02 -5.91855422e-02 -2.52183713e-02  2.01403350e-02
  -2.00197492e-02  5.47583476e-02  4.25534397e-02 -6.63986728e-02
   8.30296651e-02 -5.62900230e-02 -4.84151989e-02  4.42245826e-02
  -6.43074289e-02 -7.58699551e-02  7.63757154e-02  9.29849818e-02
  -2.50499193e-02 -7.27869123e-02 -1.05690677e-02  7.43402317e-02
  -5.34749739e-02 -8.20935741e-02  1.62118059e-02 -3.17592993e-02
   5.83156124e-02  6.17140457e-02  7.66634271e-02  2.98150145e-02
  -7.87828639e-02  1.55908801e-02 -8.97003338e-02  7.81981722e-02
  -3.03026512e-02  2.26743030e-03  2.84611285e-02  1.72359906e-02
   2.91664526e-02 -7.95819536e-02 -4.27951738e-02 -3.57823260e-02
   2.72849612e-02 -4.71121930e-02  8.77422094e-02  8.23947862e-02
   1.83390956e-02  3.81564945e-02  8.91223270e-03 -1.36174336e-02
   1.61705092e-02  5.87672479e-02 -8.67468566e-02 -2.27698218e-02
   2.81620547e-02 -1.96450334e-02  2.14950163e-02  2.33192053e-02
   5.69704920e-02 -1.73234697e-02  7.80094042e-02  2.48845164e-02
   4.34313975e-02  7.53939971e-02  3.15771028e-02 -4.03307192e-02
  -2.15156246e-02  1.08141743e-01 -3.23571786e-02  2.71165520e-02
   2.36996636e-02  1.07200429e-01 -1.03742525e-01  4.05762345e-03
   1.21026812e-02  4.56683598e-02  2.35127714e-02 -1.96015723e-02
   8.05874839e-02  5.85322566e-02  6.28307462e-05  3.74882147e-02
   5.51337413e-02 -6.00079633e-02 -5.32845035e-02 -1.64269712e-02
  -5.39154969e-02  2.72580422e-02  6.65107071e-02  1.24189280e-01
   6.49270639e-02  7.99433365e-02 -4.77439240e-02 -1.66976526e-02
   8.00707862e-02 -6.09066486e-02  8.98665935e-02  4.67535630e-02
   3.09910811e-03 -9.06610787e-02 -3.92815433e-02 -5.44591285e-02]
 [-4.75288630e-02  2.59576067e-02 -7.07458407e-02  7.25214779e-02
  -9.19649005e-02  3.16076428e-02  7.34463036e-02 -5.35611734e-02
  -5.22687174e-02  5.28834909e-02 -9.77379177e-03  4.49231789e-02
  -3.71111073e-02 -5.14965653e-02 -8.07332546e-02 -4.20777351e-02
   7.85180274e-03  1.29554598e-02 -5.73542044e-02 -5.79342805e-02
   1.88668147e-02  3.30275297e-03 -9.52359214e-02 -6.03693724e-03
   2.59291306e-02  5.35956323e-02  7.10123777e-02  8.01919177e-02
   7.57638067e-02 -9.98596847e-03 -3.06139537e-03 -7.28334039e-02
  -1.40083889e-02 -4.92490791e-02  8.00584850e-04 -2.29599774e-02
   5.36146387e-02  5.39200492e-02  3.34135816e-02  5.09472266e-02
   3.50130945e-02  6.51125535e-02  4.16258611e-02  8.09817240e-02
   5.44697531e-02 -5.25933784e-03  4.23385389e-03  6.71149120e-02
   8.95713514e-04  5.50555252e-02  3.75549644e-02 -3.01768780e-02
  -7.99364969e-03  8.97196680e-03  1.52297728e-02 -2.84061395e-02
   3.46848443e-02  2.89533250e-02 -2.62257978e-02  1.62270367e-02
  -3.23655456e-02 -4.85868193e-02  6.14606179e-02 -7.21006393e-02
   5.03833070e-02 -6.12204410e-02  6.16676882e-02  3.56625132e-02
   6.23431019e-02 -7.52811804e-02  9.91294906e-03 -6.93765730e-02
  -3.08144502e-02 -7.34153613e-02 -7.77356997e-02  6.07424304e-02
   7.23133162e-02  2.74447240e-02 -3.46980942e-03  6.40773997e-02
  -6.31197840e-02  1.05325552e-02 -6.09750077e-02 -9.02204588e-02
   2.64342427e-02  6.75790990e-03  3.99422124e-02  3.92052904e-03
  -2.61457395e-02 -7.12725222e-02 -4.28929068e-02 -4.31006402e-03
  -7.64368176e-02 -1.15452521e-02  5.77534325e-02 -1.98982581e-02
  -3.67924683e-02  5.80633171e-02 -8.05914998e-02  7.53457025e-02
   4.46006507e-02 -2.92264186e-02 -3.21674184e-03  7.44517148e-03
  -5.27452901e-02 -6.57875761e-02 -9.89871472e-03  4.34922948e-02
   4.95605841e-02 -4.87179980e-02 -2.53633298e-02  2.23546289e-02
   2.94247214e-02 -5.37604392e-02  1.79291163e-02  5.48810549e-02
   1.85336266e-02  7.15589002e-02  2.28791684e-03  9.55598056e-03
  -3.83299887e-02  3.38800512e-02 -3.51356454e-02 -4.58406284e-02
  -1.11141205e-02 -2.59794779e-02  2.52847280e-02  3.74203995e-02]
 [-3.91137600e-02  2.11355835e-02 -4.01736945e-02  5.55490479e-02
   7.17476383e-02  4.25022840e-03 -2.66745351e-02 -2.62348019e-02
   1.73268244e-02  6.05312213e-02 -5.94045110e-02 -8.06697533e-02
  -1.76312774e-03 -5.41365817e-02  5.00613227e-02  4.25997972e-02
   2.64414102e-02  5.08377478e-02 -6.12360612e-02 -3.38689052e-02
   3.85318175e-02  1.85588300e-02 -7.39324316e-02  6.01352677e-02
  -5.73332608e-03 -4.70583886e-03  2.08368823e-02 -1.15803704e-02
   8.04720595e-02 -2.15627253e-02  2.18611583e-02  3.17831337e-02
  -5.59201166e-02 -2.26337016e-02 -5.75403124e-03 -4.16130051e-02
   1.04341358e-02  2.12666988e-02  4.70382646e-02 -4.16722186e-02
  -4.79064211e-02  4.64827344e-02 -7.33102560e-02 -9.61523503e-03
  -2.46672593e-02  5.14911115e-03  7.72764608e-02  3.35845128e-02
   1.98932514e-02  2.20568776e-02 -2.57760771e-02 -5.37836552e-03
   6.58126846e-02  7.89448544e-02 -2.57167481e-02  7.52318725e-02
   1.24048442e-02  2.84839049e-02  1.22290552e-02  4.13296968e-02
  -3.66572551e-02  2.43092477e-02 -9.26636904e-03 -7.77166784e-02
  -3.62497978e-02  4.43734154e-02  5.41348234e-02 -6.80290237e-02
   6.30937517e-03 -1.52984336e-02  4.24992219e-02 -2.12775655e-02
   7.83860683e-04  5.52344397e-02  3.76081616e-02 -1.21820495e-02
  -2.21147947e-02  7.85674155e-03 -5.80515862e-02 -6.77501261e-02
  -5.37365712e-02  8.12985748e-03  2.71281898e-02 -6.95313960e-02
   7.35738501e-02 -4.43495102e-02 -4.09990326e-02  3.51800397e-02
  -1.78478658e-03  6.30589798e-02  6.26616552e-02 -4.77007590e-02
   2.17428654e-02  5.76143190e-02 -3.78466956e-02  4.13820893e-02
   6.38223663e-02  5.89370802e-02  3.47238332e-02  1.79211125e-02
  -2.13828012e-02  2.91041210e-02 -4.49830145e-02 -1.78837925e-02
   7.31700584e-02  7.38629475e-02  2.19199806e-03  1.43583193e-02
   2.60932446e-02 -1.91228837e-03 -7.38090724e-02 -4.54436317e-02
  -7.68471360e-02  7.28653446e-02 -4.68554646e-02 -1.61867589e-02
  -7.56106079e-02 -7.74200484e-02 -2.49060877e-02 -1.18900016e-02
   1.25798509e-02  2.73749307e-02  5.85558265e-03  6.46081194e-02
  -5.77295646e-02  7.55662397e-02  4.20252234e-02  3.96007374e-02]
 [ 2.27140710e-02  4.22188118e-02  7.23178685e-03  5.98656163e-02
  -8.39568675e-03 -7.45037198e-03 -2.62993723e-02 -8.05333853e-02
   1.42365471e-02 -9.46959853e-03 -4.27080952e-02 -2.30497122e-03
   1.69121772e-02 -6.09967485e-02 -1.93926580e-02  6.04564026e-02
  -3.32033373e-02 -6.80207089e-02  1.49203464e-02  7.41525367e-02
  -2.46325471e-02 -3.44598442e-02 -2.77733579e-02 -5.68334833e-02
  -2.04690471e-02  8.07809085e-03 -1.02941692e-03 -5.12121692e-02
  -1.20109245e-02  4.15149182e-02 -2.63791047e-02  5.43400571e-02
  -5.95806055e-02  3.35433632e-02  5.27747795e-02 -2.46418267e-02
   4.55726683e-03  3.28977183e-02  7.22787902e-02 -2.38235854e-02
   2.54414976e-04 -3.99383865e-02 -6.74359947e-02 -6.15900010e-03
   2.81964988e-02  3.13695669e-02  5.08112684e-02 -3.04529294e-02
   1.52107105e-02 -3.43290977e-02 -7.32508674e-02  3.78007889e-02
  -7.19307959e-02  7.07665607e-02 -2.51682959e-02  6.85357675e-02
   1.69622824e-02 -7.43167177e-02  1.84533969e-02  1.77229121e-02
   5.59224561e-02 -1.30368546e-02  1.79954693e-02 -6.86776713e-02
   3.42930108e-03  1.24305487e-04  1.76219642e-02  1.93313584e-02
  -6.20037727e-02  2.59010419e-02 -5.89397550e-02 -1.37212574e-02
   1.09470412e-02 -3.40995342e-02 -1.14116818e-02 -6.26916364e-02
   6.60443231e-02  2.87036076e-02 -3.06184255e-02  1.23611763e-02
  -6.42765239e-02  5.58695421e-02  4.65642288e-02 -5.47944158e-02
   1.55965909e-02  7.92795643e-02  5.37349060e-02  2.78443694e-02
   3.08395028e-02  1.59108937e-02 -7.54655898e-02 -3.13120931e-02
   1.73672810e-02  3.93997133e-02 -6.46816790e-02  2.61632130e-02
  -8.06970596e-02 -7.94296116e-02  6.46591559e-02 -1.73824653e-02
  -6.18623905e-02  4.85400930e-02 -7.81665519e-02  2.09233090e-02
  -7.22142756e-02  6.18177578e-02  6.45071268e-04  2.09366083e-02
  -9.12225991e-03  5.56318089e-02  4.70114425e-02 -7.50634074e-02
   1.53805241e-02  8.01103935e-02  7.27959797e-02 -1.72478855e-02
   9.25585628e-04 -6.71069548e-02  2.94164717e-02  1.66492090e-02
  -2.07991526e-02 -7.53587633e-02 -4.94060703e-02 -6.96906149e-02
  -1.83945894e-03 -6.57401085e-02  1.34072825e-02 -5.98664843e-02]
 [ 2.86163315e-02 -7.81007409e-02 -7.79186189e-03  1.64319575e-03
   2.98850387e-02  1.77789181e-02  4.16672677e-02  5.50349280e-02
  -3.88959534e-02  2.40686536e-03 -9.13435221e-03  6.49662390e-02
   4.28158268e-02  3.99144664e-02 -9.13148373e-03  5.58649078e-02
  -6.24781772e-02  2.08697990e-02  2.63173729e-02  5.17903492e-02
  -5.19371815e-02 -9.70853865e-03 -5.33837639e-02  3.34272385e-02
   3.75509784e-02  6.14151582e-02  6.39758185e-02  1.55288503e-02
  -4.06158827e-02  3.48721445e-03 -7.86460415e-02 -2.62073018e-02
   4.93682250e-02  9.35465097e-03  7.42756501e-02 -2.88469233e-02
  -5.92453554e-02 -3.48004326e-02  7.38198087e-02  3.72251421e-02
   6.17717281e-02 -1.33261383e-02 -5.18886819e-02 -2.89830044e-02
   3.69112268e-02  9.35683399e-03  3.09733823e-02  3.45405787e-02
  -6.06683455e-02  3.90407965e-02 -6.91206753e-03  6.53420016e-02
  -4.63278554e-02  8.02329555e-02  8.00180212e-02 -2.26144977e-02
  -1.44049451e-02  2.34057829e-02 -3.74228582e-02  3.50329578e-02
  -7.86810070e-02  4.76076677e-02  2.47132257e-02 -2.69654617e-02
  -3.48077789e-02 -7.31130838e-02  2.34360844e-02 -3.24483514e-02
  -2.04896070e-02  4.38742340e-02 -1.66417062e-02  3.50953564e-02
   9.27986950e-03 -2.89385878e-02 -3.36557776e-02 -7.37178922e-02
   1.89351290e-03 -3.27730216e-02 -5.84751293e-02 -4.09479029e-02
  -2.46791132e-02  5.07043526e-02 -4.59043458e-02  9.83142108e-03
  -7.71815106e-02  2.05993503e-02  2.56117806e-02 -7.45918676e-02
  -2.39492841e-02 -6.00304157e-02 -2.91242339e-02 -3.75934020e-02
   3.08826044e-02 -5.17787822e-02  6.66760281e-02  3.13139483e-02
   7.79581442e-02 -3.09866294e-02 -5.08022383e-02  5.45885339e-02
   4.18122858e-02 -6.04822487e-03 -5.43062016e-02 -4.41626236e-02
  -5.97190484e-02 -4.11072485e-02  5.10329977e-02  1.02693364e-02
  -4.38992679e-03 -6.00779653e-02  3.91696841e-02  4.15957570e-02
  -9.80161875e-03 -3.91622223e-02 -2.06839554e-02  8.14179331e-03
  -3.12352180e-03  5.40791452e-03 -7.84164742e-02 -7.52364099e-02
   5.31994551e-03  2.16837823e-02 -4.52032164e-02  4.70452234e-02
  -4.85063158e-02  1.61430910e-02  4.15291935e-02  7.19908401e-02]
 [-2.60055661e-02  7.68299401e-03  1.17001757e-02 -2.94363499e-03
   1.84267089e-02  2.10945234e-02  1.69636160e-02  4.42827493e-03
   2.15637907e-02 -5.30507788e-02  1.42266825e-02  8.46847147e-03
  -6.61971495e-02  1.58479661e-02  5.30332252e-02  8.10659155e-02
   5.06339893e-02 -7.76472166e-02  7.39466473e-02 -7.80581161e-02
  -4.63992916e-02 -4.25989479e-02 -7.32955784e-02 -8.07151645e-02
   4.09621522e-02  1.21051148e-02 -1.81256160e-02 -3.65032256e-02
   3.74135748e-02 -4.89677452e-02 -2.26475261e-02 -7.79430196e-02
   2.95787603e-02 -1.18282437e-03 -4.79547679e-02  5.57009950e-02
   1.35721192e-02  7.73914382e-02 -1.88791752e-03  2.74730921e-02
  -2.61488222e-02 -3.64043675e-02 -3.99276316e-02 -7.26501644e-02
   3.33548933e-02  1.91194266e-02  4.15963158e-02  4.14677337e-02
   4.42164615e-02  2.14259252e-02  6.13865480e-02  6.93184659e-02
  -4.70671989e-02 -6.81290030e-03  4.66019437e-02 -4.15254980e-02
  -2.81646289e-02 -3.61201912e-02  6.28300235e-02 -4.39182445e-02
  -5.05208634e-02 -7.19507933e-02 -1.97075307e-04  7.08616152e-02
  -2.66658328e-02  1.18123367e-02  1.36355534e-02 -7.67846182e-02
  -1.01377591e-02 -1.85411945e-02  5.89497313e-02 -4.01030332e-02
   5.39800152e-02  5.42994067e-02  5.95938489e-02  1.02756023e-02
   1.00841522e-02 -4.61054444e-02 -4.56531234e-02  4.46364954e-02
   3.33431140e-02 -1.30789578e-02 -1.19185820e-02  5.15011773e-02
  -4.21734490e-02 -4.87912260e-02 -1.95601471e-02  7.14833513e-02
   2.60286182e-02  3.94692943e-02 -3.85912023e-02 -7.49221444e-02
   7.24790320e-02 -6.25635758e-02 -6.06934726e-03 -1.83042884e-03
   6.39320090e-02  7.72041157e-02  2.72286534e-02  7.87360743e-02
   4.70372960e-02  4.28681970e-02 -4.75240089e-02  2.35158727e-02
  -1.13844201e-02  2.29915529e-02 -3.83919217e-02  6.71389922e-02
   1.49939507e-02 -2.14885250e-02 -3.86296213e-03 -3.56043614e-02
  -2.30439045e-02  8.49373639e-04  5.42452112e-02  4.50575873e-02
  -3.23127918e-02  3.22646201e-02  4.78828326e-02  4.38615829e-02
  -4.25677560e-02  3.25920358e-02  6.74454495e-02  8.00880268e-02
  -5.64489812e-02 -2.31454521e-03 -3.25388536e-02 -1.97513476e-02]
 [-5.27060553e-02 -3.58839557e-02  2.34520957e-02 -3.99185047e-02
  -1.28831565e-02 -5.02586737e-02 -1.61769539e-02 -4.24660370e-02
  -7.78166801e-02 -6.80154860e-02  3.46793756e-02  7.95378610e-02
   4.57352400e-03  5.76374009e-02  4.15854678e-02  1.71550661e-02
  -2.78818272e-02 -4.36066277e-02  8.09439272e-03  6.75114021e-02
   7.89464191e-02 -1.20637342e-02 -1.55952945e-02  5.38222715e-02
  -6.71429932e-03 -3.26496437e-02  7.89534375e-02 -6.29574060e-03
  -3.76424827e-02  9.25457478e-03  3.12962756e-02  1.66085437e-02
   4.79250327e-02 -7.73554444e-02 -6.50087148e-02  6.01022691e-03
   7.07778111e-02 -1.19910017e-02 -6.60377443e-02  5.93174994e-03
   4.62085530e-02 -5.97532988e-02  5.47211841e-02  1.02491230e-02
  -5.01929075e-02  2.37163007e-02  4.49701175e-02 -5.53890318e-02
   1.04222000e-02 -1.40086561e-03 -7.65060112e-02 -7.38102868e-02
  -1.77887604e-02  4.84173819e-02 -7.35268444e-02  3.97076011e-02
   2.51065120e-02 -4.02735174e-02  5.95140383e-02 -1.12487376e-03
   4.28328067e-02  1.97316706e-03 -6.00029901e-02  1.38205588e-02
  -3.54161039e-02  6.64274916e-02  6.24933615e-02 -4.51565944e-02
  -6.75591603e-02 -6.85475618e-02 -3.75824757e-02  3.76244634e-02
  -2.30043381e-02  2.00591385e-02  5.84556535e-02 -7.07145929e-02
  -5.56062944e-02 -2.31831223e-02  6.31077513e-02 -3.89674269e-02
  -8.05349648e-03  4.10467759e-02 -2.43459344e-02 -3.66764776e-02
  -2.68798694e-02  7.68213794e-02  5.10152802e-02 -5.75871952e-02
   2.56682932e-03 -3.89955081e-02  2.95578018e-02 -2.07035467e-02
  -5.69477528e-02 -4.78562973e-02  6.75720647e-02  7.42208585e-02
   4.58278432e-02  2.38105878e-02 -2.38006711e-02 -7.50534534e-02
  -4.44294140e-02  3.43280733e-02  5.51694632e-03 -6.35541975e-02
   2.88904458e-03  7.01987073e-02  3.45820934e-03  5.93856946e-02
   2.19883993e-02 -4.70054522e-02 -2.35630795e-02  5.12413904e-02
   4.57144454e-02 -6.29921108e-02 -2.41272934e-02  7.63028041e-02
   3.78314406e-02 -8.83539766e-03  2.31722891e-02  3.84128615e-02
  -3.70198116e-02  3.54391336e-02  7.16491789e-03  4.56037000e-02
  -5.81377745e-02  4.49288264e-02 -5.94218373e-02  3.55820656e-02]
 [-5.08496910e-03 -1.97236538e-02 -1.06778741e-02  1.63575560e-02
  -1.51633546e-02  2.91441679e-02 -1.26428008e-02 -7.38824159e-02
   3.95735279e-02 -5.81640378e-02  5.85925579e-03  3.76731157e-02
   4.80230972e-02 -5.56092560e-02  7.94039890e-02 -1.76570490e-02
   5.82730994e-02  5.19309118e-02 -5.32054454e-02  6.90312907e-02
  -1.09039769e-02 -3.80527638e-02 -3.39211188e-02  6.82351738e-03
  -7.60602057e-02 -5.26458323e-02 -6.80244789e-02 -7.61677623e-02
  -1.34427473e-02  6.92036077e-02 -2.50697471e-02  2.77285278e-02
   5.82962856e-02  2.27928162e-02 -4.45899218e-02  4.98108193e-02
  -1.68375671e-04 -3.32401767e-02  6.31994829e-02  2.24734098e-03
   4.57383022e-02 -4.73927185e-02  4.76033017e-02 -1.70575082e-03
   3.67504060e-02 -6.44069239e-02 -5.43000698e-02  2.33218148e-02
   6.77952245e-02  3.16734090e-02 -7.25706071e-02  3.35884392e-02
  -7.11163878e-02 -3.77659388e-02  7.88923874e-02 -6.74146414e-03
  -5.07158339e-02  7.39098266e-02 -5.41937090e-02 -2.77303495e-02
  -2.35729665e-03 -6.44631386e-02 -7.91326910e-02  1.60453543e-02
   2.74821594e-02  2.54287049e-02  2.12308019e-02  2.39479542e-02
   5.94838336e-02  4.12018895e-02 -4.18581553e-02  4.05169502e-02
  -6.68810681e-02 -5.73275983e-03 -7.48432800e-02 -3.10071856e-02
   7.85189942e-02  6.45768270e-02  2.06282213e-02  8.03989097e-02
  -6.75789639e-02  5.19526973e-02  1.11172423e-02 -7.08606541e-02
  -2.66950727e-02 -1.33795291e-02 -3.10753509e-02  1.65050626e-02
  -5.64058945e-02 -8.03578272e-02  4.66709957e-02 -1.10786036e-02
  -1.64608359e-02 -4.51018661e-02  6.99707195e-02 -6.38023019e-03
  -6.98722973e-02  6.63960204e-02  6.38690814e-02  5.25005236e-02
  -7.22308457e-03 -3.49524878e-02 -4.03720476e-02  7.94254914e-02
  -7.40769655e-02 -3.93179730e-02  6.03851750e-02 -5.31620681e-02
   7.12673590e-02 -2.73600183e-02  1.90087557e-02  5.82771003e-03
  -4.99568135e-03 -3.66116352e-02  6.84941635e-02 -9.46391374e-03
   3.84861156e-02 -1.72992498e-02 -5.61176389e-02 -7.36575350e-02
   3.61608714e-03  5.33487871e-02  2.89806500e-02  4.89418730e-02
  -6.79078549e-02  7.81881437e-02 -9.62521136e-03  1.69388205e-03]
 [-7.86190480e-03 -3.11046094e-02 -1.99546516e-02  5.18657267e-03
  -5.50344028e-02  6.25601336e-02 -4.06088233e-02 -4.24470454e-02
  -2.15489976e-02 -4.15005311e-02  1.25129595e-02  2.24816650e-02
  -6.99902996e-02  5.05829379e-02  3.62639502e-02 -5.88296987e-02
  -3.50975655e-02 -1.33151561e-03  1.51337832e-02 -6.17116094e-02
  -4.96744439e-02 -6.74732402e-02  1.02724433e-02 -2.01056637e-02
  -3.76717746e-03 -5.01946285e-02  3.91985402e-02 -3.24398428e-02
   1.80833787e-02 -2.79053003e-02  2.73545831e-03  3.82306799e-02
  -4.74987179e-03  6.87656775e-02  4.01600376e-02 -3.54511067e-02
   3.36299092e-03 -3.90656851e-02  2.30541900e-02  1.09390542e-02
  -1.48072615e-02 -4.62194458e-02 -2.05694139e-02  4.33600843e-02
  -2.98552997e-02  4.88083065e-03  2.18126327e-02  4.19722497e-03
  -7.91187584e-03 -7.74163604e-02  7.27378502e-02 -1.46689340e-02
  -3.45238745e-02  7.53315315e-02  2.17481032e-02  1.48087069e-02
   1.64080039e-02 -6.57884330e-02 -2.17734352e-02  4.58988026e-02
  -6.87553361e-02  3.13714966e-02 -3.72782350e-03  3.92768607e-02
  -9.18903947e-03  3.52419987e-02 -2.79894620e-02 -7.66621232e-02
  -7.91309699e-02  8.85264575e-03 -6.19496442e-02 -2.71494277e-02
   6.03999197e-03 -6.12726063e-03 -1.33223832e-02  7.30966777e-03
   6.41245022e-02 -7.27015287e-02  4.80869189e-02  3.25515643e-02
   1.11757591e-02 -2.04723962e-02 -5.06026819e-02 -7.81741664e-02
   8.23666900e-03  7.96823427e-02  4.10479382e-02  2.20522955e-02
  -1.05143711e-02 -2.04749666e-02  6.15517423e-02 -5.41397370e-02
  -4.31964807e-02 -4.22372818e-02  7.40002319e-02 -5.37613444e-02
  -4.44455631e-02 -3.29656117e-02 -3.74304019e-02  7.66076893e-03
   1.20531917e-02  2.28871107e-02 -6.02681413e-02  2.35755891e-02
  -3.96991894e-02  4.68738899e-02  2.47236118e-02  5.09793535e-02
  -8.03111494e-03  9.26285237e-03 -1.82107016e-02  5.02567813e-02
  -4.30815555e-02  4.37105745e-02  2.00512260e-02 -6.31802529e-02
   5.15482500e-02  2.04313174e-02  1.39705837e-03  3.16338018e-02
   7.28477538e-03 -7.62662888e-02 -7.04704076e-02  3.45739201e-02
   5.65292761e-02  5.18416092e-02  3.48696783e-02  7.92572722e-02]
 [ 2.88974494e-03  6.39583841e-02 -5.48259169e-02  3.69025394e-02
   1.62015706e-02 -1.38738602e-02 -4.88125570e-02  4.88560423e-02
  -1.72020942e-02 -4.26005572e-03 -6.03213385e-02 -6.47011399e-03
  -5.80619872e-02 -2.56794058e-02  6.48370907e-02 -2.74310894e-02
   3.32680270e-02  3.80883664e-02 -6.54399395e-02 -3.59454118e-02
  -8.64282995e-03  6.26274273e-02 -1.63189173e-02  5.82099035e-02
   2.99177393e-02  5.12354150e-02 -1.10778660e-02  3.17042693e-02
   7.53299519e-02  5.34754321e-02  8.80639255e-03  6.77982047e-02
   4.91356626e-02  6.79996386e-02 -1.51928663e-02 -4.06441540e-02
  -5.98181561e-02  2.51043439e-02  4.63640019e-02  2.10161284e-02
   8.01969692e-02  8.05041566e-02 -3.11886929e-02 -2.08163261e-03
  -5.68952709e-02  1.14642829e-02 -1.72289386e-02  5.51854819e-03
  -3.41446698e-03  1.79164484e-02  4.27385718e-02  9.23736393e-03
  -6.17740527e-02  2.07010731e-02 -8.03102553e-02  5.84457144e-02
  -4.39956971e-02 -5.23598194e-02 -3.79987918e-02 -3.81703414e-02
   2.62471363e-02 -5.76157570e-02  3.33743691e-02 -7.37761334e-02
   6.80207238e-02 -6.59331381e-02 -4.35334519e-02  1.13673806e-02
   5.68028912e-02 -3.83763537e-02 -5.17516881e-02  2.20620409e-02
  -2.81169228e-02  6.60605058e-02 -2.63495743e-02  2.69774497e-02
   3.65443751e-02  4.77995202e-02  2.41508260e-02  9.94621217e-03
  -2.31237523e-02  2.95161828e-02  4.05336916e-03 -3.62845100e-02
   2.24070549e-02 -5.95735833e-02 -3.34086157e-02  4.66213599e-02
   6.05033115e-02 -4.72595766e-02 -3.13084163e-02 -1.26817673e-02
   1.42024755e-02 -3.73866595e-02  7.47286901e-02  5.97068891e-02
   3.79436016e-02  6.01863936e-02 -1.34591013e-03  6.21610358e-02
  -8.98739696e-03  1.14477351e-02 -5.01420274e-02  3.71508300e-02
   6.18989989e-02  7.54746720e-02  6.55203834e-02  5.12537882e-02
   4.91911843e-02  6.41869679e-02  2.88046300e-02  6.41103759e-02
   6.57175556e-02 -7.91132152e-02 -1.94465183e-02 -2.00347491e-02
   6.85068965e-03 -6.22074045e-02 -3.17044258e-02 -7.47427344e-04
   7.30237141e-02  2.44964212e-02 -3.91682386e-02 -1.42580122e-02
   5.35183027e-02  7.56826922e-02 -6.77675754e-03  7.82993063e-02]
 [-3.40997837e-02  7.59940818e-02 -1.36604980e-02  4.86784205e-02
   6.71331361e-02 -1.19131878e-02  5.64249828e-02  6.77087903e-03
  -1.41523853e-02 -2.72437930e-04 -8.11076313e-02 -7.18723238e-03
  -7.36453086e-02  9.08970833e-06  6.34928420e-02 -4.18290719e-02
  -3.40558104e-02 -1.42345726e-02 -6.88638538e-03  1.79000348e-02
  -5.26798889e-02 -5.99865355e-02  6.66690841e-02 -7.55152851e-03
  -5.84776066e-02  2.21903324e-02 -5.83377145e-02  7.39100352e-02
   6.06294349e-02 -1.84874162e-02  5.49063012e-02  6.74929246e-02
  -1.64854750e-02 -6.07286990e-02  6.70086965e-02  3.89179960e-02
   2.85141841e-02 -7.49066174e-02 -6.17295541e-02  2.50284821e-02
  -1.46464780e-02 -7.21751153e-02  2.74180770e-02 -4.79105785e-02
   3.44066843e-02 -4.73296382e-02  4.48999777e-02  7.96408951e-03
  -6.66498393e-02  2.68628150e-02 -3.03429514e-02 -5.09054251e-02
  -4.38364632e-02 -4.81332615e-02  5.15876487e-02  5.97687289e-02
  -3.77970934e-02  2.68273875e-02  5.62870502e-03 -1.19424611e-02
   3.25716883e-02  4.05522212e-02  5.87637946e-02 -5.89289218e-02
   3.65043432e-03  1.43397972e-02 -4.33713384e-02  7.82006755e-02
   5.26736751e-02 -3.84146236e-02  6.71008602e-02  1.73349306e-02
   6.00985065e-02 -3.67053114e-02 -3.88441868e-02 -7.72244260e-02
  -2.03108601e-02  3.38760987e-02  2.35310197e-03 -4.33160514e-02
   5.01643643e-02  1.00916699e-02 -4.87182438e-02  4.26957384e-02
   3.00873220e-02  7.78071657e-02  4.23890129e-02 -5.03414236e-02
   1.61903352e-02 -6.64606541e-02  5.66023365e-02  7.92766288e-02
   5.32403663e-02 -8.08618069e-02 -8.15652311e-04  1.83924437e-02
  -8.54711980e-03 -3.83239463e-02 -3.85240018e-02  1.72327459e-03
  -2.04474665e-02  2.05267966e-03  6.32911548e-02 -4.92447093e-02
  -7.52153099e-02  8.24087858e-03 -6.90198839e-02 -3.36998701e-02
   1.96247771e-02 -4.68466841e-02 -7.64390975e-02 -3.49049531e-02
   8.16699117e-03 -7.90448785e-02  4.29752544e-02  3.06817368e-02
  -4.75634374e-02 -3.95421423e-02 -1.48965418e-02 -7.13392422e-02
  -5.25694080e-02  1.64791197e-03 -2.57603824e-03  2.13827267e-02
  -4.34308052e-02  5.29653654e-02 -6.33338243e-02  8.64319503e-03]
 [ 5.70673570e-02  6.54942021e-02  6.16838709e-02 -5.38355038e-02
   3.98351774e-02 -6.16926402e-02 -3.47184576e-02 -1.14668161e-03
   2.79564336e-02 -5.63873276e-02  1.81906521e-02  6.96070120e-02
  -1.37686729e-03  4.45430651e-02  3.84451225e-02 -2.64719278e-02
  -7.99621716e-02 -1.18867308e-02  4.97379154e-03  8.08543637e-02
   2.49580294e-03  3.42528671e-02 -1.85725242e-02 -5.81357032e-02
  -1.17725357e-02 -5.08491695e-02 -1.12328231e-02 -2.15697475e-02
  -2.67925188e-02  1.79579109e-03  3.97430658e-02  5.60651496e-02
   7.08150864e-03 -4.23937887e-02 -8.74216855e-03 -3.06570828e-02
  -5.40899597e-02  6.67237863e-02 -4.20387164e-02  4.20344844e-02
   9.65248048e-03  6.79754391e-02  1.72366202e-03  7.49145970e-02
   7.43932649e-02 -3.11734565e-02  5.18296584e-02  1.74604133e-02
  -2.84286551e-02  8.15602392e-03  6.66901991e-02  9.99900699e-03
  -1.11917481e-02 -5.91560714e-02  3.15576494e-02  2.04509124e-02
  -5.45468479e-02  5.25247976e-02  2.91322023e-02 -4.35594246e-02
  -9.54066962e-03 -3.37638222e-02  1.10936165e-03 -1.22130290e-02
  -4.84721251e-02  4.84414771e-02 -7.58088976e-02 -2.78841071e-02
  -2.21138671e-02  2.25314423e-02 -4.21227999e-02  3.52777019e-02
   3.72839943e-02 -3.35422903e-03  8.33987445e-03  7.12224320e-02
   2.20809579e-02 -4.79508825e-02 -1.34826079e-02 -7.91711733e-02
  -6.33343011e-02 -5.42904586e-02  8.39529932e-03 -2.43117623e-02
  -1.19942129e-02 -7.95724988e-02 -7.94266909e-02 -2.06302926e-02
  -3.03833522e-02  1.54564232e-02 -7.13402256e-02 -4.94788773e-02
   4.05414850e-02  6.54956624e-02  5.08153215e-02  5.92602119e-02
  -7.56862387e-02 -3.48655879e-03  6.04947284e-02  6.75739124e-02
   2.68795043e-02  3.93417180e-02  6.30018860e-03 -4.30998690e-02
  -3.80162932e-02  6.78451881e-02  5.85770383e-02 -7.03866929e-02
   6.42232820e-02 -3.15313898e-02  2.77965665e-02  5.89322522e-02
   6.13139346e-02  4.60719094e-02  7.29305297e-03  5.40004671e-03
  -5.53203002e-02 -9.55238193e-03 -3.18559222e-02  1.27257034e-02
  -1.10020414e-02 -2.93090492e-02 -5.53045571e-02  2.49863565e-02
   5.92564419e-02 -5.09930253e-02 -5.38472086e-02  8.93160701e-04]
 [ 4.79501858e-02 -1.93597861e-02  5.64530417e-02  6.02775142e-02
   5.25185093e-02 -2.59132050e-02 -5.49687296e-02 -5.38123772e-02
  -5.64436615e-02 -5.72144985e-04  3.04317176e-02 -1.55362934e-02
   5.34275398e-02  7.77826384e-02 -7.60683268e-02  5.51217720e-02
  -7.89852142e-02  5.93788177e-03  7.71151111e-02  4.24113870e-03
  -1.31927207e-02 -6.77567720e-03 -4.15483937e-02 -2.65055373e-02
  -2.88865678e-02  6.73237815e-02 -2.97647752e-02  4.11072522e-02
  -3.82860452e-02 -6.90806583e-02  2.86285952e-02 -7.32570365e-02
  -3.63563336e-02 -1.31279379e-02 -2.71662101e-02  7.49545172e-02
   6.41481206e-02 -7.25785568e-02  5.39009050e-02 -4.84269336e-02
   3.25560570e-04  5.17334267e-02  1.89338401e-02 -4.01923954e-02
  -4.57280017e-02 -4.27847505e-02 -5.48991710e-02  3.32342386e-02
   7.17507303e-03 -6.42699525e-02 -4.64757346e-02 -7.03306496e-02
  -5.07214591e-02 -7.47297630e-02  3.21455300e-02 -6.77912012e-02
   1.91813335e-02  4.48984876e-02  6.26616850e-02 -5.22875711e-02
   4.28592190e-02  7.57027194e-02 -6.97968006e-02 -7.66590238e-04
  -8.05568770e-02  5.51551506e-02  3.11596319e-02  4.18039486e-02
  -5.30041717e-02 -6.33886307e-02 -2.05087326e-02  5.10787293e-02
  -3.93006280e-02  1.33771896e-02 -3.58766466e-02 -6.28714040e-02
  -5.06897271e-02 -5.57173565e-02  3.60783637e-02  1.04261488e-02
   4.47627082e-02 -6.78811446e-02  2.92320475e-02 -6.43186048e-02
  -7.66287073e-02  6.26820251e-02 -3.09874974e-02  5.88794723e-02
  -1.27825886e-03  3.76660377e-02 -6.33068830e-02  5.03145084e-02
   5.41729853e-02  2.56177709e-02  5.08535430e-02 -3.45421471e-02
  -3.21983844e-02 -1.11174732e-02 -3.69847678e-02 -2.97685079e-02
   4.66406867e-02  4.01141867e-02  3.27001587e-02  6.66147545e-02
   2.24940553e-02  2.22358182e-02  2.75214538e-02  7.95915499e-02
   2.55469382e-02  6.62234053e-02  7.39359111e-03 -3.84995751e-02
  -2.74515674e-02 -5.30106500e-02  4.88330349e-02 -7.17709064e-02
   4.67524603e-02 -6.40598983e-02 -3.17656919e-02  3.47166583e-02
   1.89900920e-02  6.59748912e-04  8.09989348e-02 -9.08046961e-03
   2.97389627e-02  5.92456013e-03 -2.28337944e-02 -6.57652095e-02]
 [-5.74799031e-02 -4.01047133e-02  7.82608017e-02  4.57196012e-02
  -4.34140787e-02  3.31316143e-02  5.02984971e-03 -6.83973208e-02
   2.87972391e-03  1.70948654e-02  6.30704686e-02  2.20315084e-02
  -1.01768970e-02  3.67535576e-02  5.85902482e-03 -4.92422134e-02
   3.14778835e-03  1.28611848e-02  1.66700184e-02  6.03991523e-02
  -5.73907755e-02 -1.80250928e-02 -2.26645842e-02  7.73504749e-02
  -7.67947510e-02  1.66721120e-02 -6.19429350e-02 -7.42865726e-02
   2.52806693e-02 -1.73518509e-02 -7.43199512e-02 -7.92669505e-03
   2.77822316e-02 -3.07291001e-02  1.67499036e-02  5.88450953e-02
   7.74589851e-02 -5.83317950e-02  7.87822232e-02  5.90835586e-02
  -7.97435865e-02  2.60075405e-02  5.26498631e-02  2.89271027e-02
   2.55221128e-03 -5.05468734e-02  2.28821412e-02  7.39683732e-02
  -3.04783396e-02 -6.82834983e-02 -3.94042991e-02  6.96307346e-02
  -2.37503648e-03  5.82897738e-02  2.63882354e-02  7.41137788e-02
  -7.74572790e-02  7.25467578e-02  7.93205276e-02 -5.73968887e-02
   6.06593713e-02  7.56181106e-02 -3.56941111e-02  5.56310937e-02
   7.86289051e-02 -3.97731215e-02  7.42155090e-02  3.76034752e-02
   3.85437086e-02 -1.86856091e-03 -2.54002176e-02  8.04365203e-02
   4.45777997e-02  4.87744585e-02 -5.58991134e-02 -2.11700238e-02
   5.93002364e-02 -3.76050659e-02 -7.96263963e-02 -1.65220052e-02
   1.07055828e-02  7.54470453e-02  5.21734729e-02  4.80545536e-02
  -6.01444319e-02 -8.10684562e-02 -4.44650948e-02 -3.32451276e-02
   5.82958534e-02 -7.22490251e-03  5.44016883e-02  4.41239402e-02
   5.77862486e-02  3.61087620e-02 -7.70763904e-02 -2.44930796e-02
  -8.05246830e-02 -1.10518411e-02 -2.07155533e-02 -7.37145469e-02
  -4.17141058e-02 -3.97285633e-02 -1.38387084e-03 -4.35176902e-02
  -2.60222554e-02  6.45788386e-02  6.71582446e-02 -9.66868550e-03
   6.40779957e-02 -5.88022582e-02 -6.65332675e-02  7.99454823e-02
  -6.34416342e-02 -1.60799101e-02 -3.52469124e-02  1.19152516e-02
  -5.45517579e-02 -4.42038141e-02 -3.06652635e-02 -2.38565020e-02
   3.82683501e-02  2.09510922e-02  2.41232738e-02 -3.08300853e-02
  -1.32966042e-03 -2.23255455e-02  5.75057343e-02  7.05635026e-02]
 [ 1.63394958e-03  1.21880770e-02  1.83491483e-02  1.61580741e-02
   4.21538949e-02  6.19931296e-02  5.63317761e-02  3.62419263e-02
  -5.05423695e-02  7.08589479e-02  4.34399918e-02 -5.53532541e-02
  -2.31539197e-02 -5.90743683e-02 -1.58961117e-03 -2.79080682e-02
   1.88793242e-02  4.56736609e-02  7.26768747e-02  2.41613686e-02
  -1.66813508e-02 -7.60708749e-03 -2.99046114e-02 -4.67612259e-02
  -3.44064124e-02  3.00782174e-03  2.64196768e-02 -5.15661165e-02
   7.49813765e-03 -9.50726867e-03  2.89486647e-02  7.79344514e-02
   2.92507634e-02  5.41625544e-02 -4.26805764e-03  4.36156988e-04
   2.95519605e-02  4.54589799e-02  5.65440431e-02  1.16113722e-02
  -1.98299773e-02  4.11195904e-02 -2.31377147e-02  4.05565724e-02
  -6.60366789e-02 -4.94681448e-02 -5.69944009e-02 -5.72363958e-02
  -6.65438473e-02 -7.51980245e-02  3.89517099e-02 -1.04659870e-02
   8.10431018e-02 -2.71199755e-02  6.33024946e-02 -7.11705089e-02
  -2.14357302e-02  2.30309889e-02 -2.59058774e-02 -2.35255249e-02
   7.51898214e-02  5.96597567e-02 -4.35761698e-02 -1.99399516e-02
   8.79622251e-03  7.24827722e-02 -4.58580330e-02 -3.18958387e-02
  -6.27365187e-02 -1.84894651e-02 -8.04645568e-02  7.45431557e-02
   3.18261981e-03  5.98956272e-02  5.70860431e-02  5.85210994e-02
  -6.18568957e-02 -1.10998750e-04 -3.08705419e-02 -2.72973068e-02
   6.35199323e-02  5.04142269e-02  7.04660043e-02  3.40466201e-03
  -8.60929489e-03  7.92889968e-02  3.45602334e-02 -2.74310298e-02
  -2.35070176e-02  1.38891563e-02 -7.68809617e-02  2.10448056e-02
   5.30999228e-02 -1.54989287e-02 -7.95544013e-02  2.10927501e-02
  -5.28094918e-02 -5.65804429e-02 -4.42428216e-02 -8.03707838e-02
  -1.67719945e-02  5.95002621e-03  2.07506344e-02 -6.75638989e-02
   4.93694618e-02  6.91847578e-02  4.79134396e-02  3.09525505e-02
   1.33743137e-02 -5.90309501e-03  7.65398145e-03 -3.99083123e-02
   3.10900882e-02 -4.06056903e-02 -4.01283838e-02 -6.65652901e-02
   2.04875767e-02  6.98218271e-02  7.40737393e-02 -2.80590989e-02
   7.83097520e-02 -7.95629844e-02  6.85744956e-02  5.94621226e-02
   3.95601243e-02 -3.64504009e-03  4.15583774e-02  7.64664635e-02]
 [ 3.65718603e-02 -2.16091760e-02  5.90230897e-02 -2.70094350e-02
  -6.73674196e-02 -4.06566262e-03  3.05997580e-03  3.59048992e-02
   3.37008387e-03 -3.05098817e-02  5.43205664e-02  7.15547279e-02
   6.87600002e-02 -5.23556992e-02 -3.47729698e-02  1.44699439e-02
   2.47321576e-02 -4.42031026e-03  1.43848360e-02 -1.61233246e-02
   7.27539137e-02  7.02434704e-02 -2.50957161e-02 -6.19601831e-02
  -1.67527869e-02  5.47745004e-02  5.33084944e-02 -6.25094697e-02
   4.50430736e-02  3.46554518e-02 -2.55224556e-02 -5.12729585e-03
   4.49280962e-02  5.94508871e-02  1.74326077e-02 -5.46692573e-02
  -4.54287231e-02 -7.69035518e-03  1.03237107e-02  3.72453779e-03
  -3.63588333e-06  5.03298417e-02 -3.20836715e-02 -5.27511090e-02
   1.73930824e-02 -3.06174792e-02 -6.23921603e-02  2.60612816e-02
   7.92022869e-02  2.75012106e-02  7.83953741e-02 -5.42540103e-03
  -2.44612284e-02  2.01582462e-02 -1.46887526e-02  3.46884429e-02
   6.19213656e-02 -5.69330379e-02  6.07950166e-02  4.49587777e-02
  -6.45125881e-02  1.26550049e-02 -6.78241178e-02 -1.08607113e-04
  -7.52663836e-02  6.59145787e-02  9.50183719e-03  5.70597425e-02
   4.58279252e-03  4.67576757e-02  3.67102027e-02 -9.53350961e-03
  -6.53540343e-02  8.25795531e-03 -7.30130449e-02  4.20899466e-02
   2.64500380e-02 -6.24331087e-03 -2.44345032e-02 -8.01135600e-03
   7.76305050e-03 -5.46059050e-02 -1.78949684e-02 -4.99897376e-02
   2.77573243e-02  3.43041942e-02 -2.51093321e-02  7.57461861e-02
   4.07977179e-02  5.93112782e-02  3.91153693e-02 -7.69505575e-02
   2.94044837e-02 -3.43684703e-02  5.92663214e-02 -7.42914602e-02
   2.75390372e-02 -5.39380163e-02  2.69131139e-02  3.01509053e-02
  -5.93386814e-02 -2.95612030e-02 -1.45686269e-02  3.38313878e-02
  -5.87405115e-02  5.49864694e-02  3.07134539e-02 -7.19222277e-02
  -6.71561062e-03  7.98440054e-02 -6.19494095e-02 -2.46357359e-02
  -4.21976596e-02  3.32520306e-02 -4.14241850e-02 -5.56415096e-02
   2.68505886e-02 -4.19394933e-02 -3.90781611e-02 -6.10812195e-02
   7.74428770e-02  4.81901392e-02  1.24002397e-02  1.20636150e-02
   3.81769910e-02  5.05220219e-02  9.60183144e-03  7.43791983e-02]
 [ 2.88904458e-03  1.67763457e-02  1.62464902e-02  7.92806819e-02
   1.96711347e-02 -4.02201451e-02  6.50682673e-02  5.17058149e-02
   9.87792760e-03  6.42856285e-02 -7.85380155e-02  1.03295371e-02
   1.25875100e-02 -7.52347112e-02 -7.64695331e-02  2.99480632e-02
   6.50675222e-02  1.42260492e-02  6.02335110e-02 -1.72274113e-02
  -5.39693832e-02  2.10073665e-02 -1.60827935e-02  7.06202015e-02
   6.78352788e-02  7.11615756e-02 -7.56429583e-02  5.32028154e-02
   6.48340061e-02  2.50836313e-02 -3.42227519e-04 -3.39675099e-02
  -1.16987824e-02 -2.43771262e-02 -4.21031527e-02  1.67198479e-04
  -3.97117585e-02  3.08317319e-02  4.86114398e-02 -5.26922643e-02
  -5.42252697e-02  7.95333609e-02  2.41877437e-02  4.46774065e-04
  -3.61612290e-02  7.19804391e-02  2.31076404e-02  1.10235065e-02
  -7.21035674e-02  4.58458439e-02  7.69838691e-03  2.73682550e-02
  -9.29626822e-03 -6.43457025e-02  7.45075718e-02  9.12895054e-03
  -7.92822242e-03 -6.12812154e-02  5.82925752e-02 -8.83585960e-03
  -2.69107707e-02  3.41894925e-02 -5.58823869e-02  6.89605623e-03
  -2.30053812e-02  4.03880551e-02  1.59936622e-02 -4.31248918e-02
   5.19111753e-03  7.66599849e-02 -1.27654225e-02  2.01938674e-02
  -1.68125406e-02 -7.03665614e-02 -4.75203507e-02  7.80417547e-02
   3.56464237e-02 -5.69234639e-02  2.20706090e-02 -8.06899816e-02
  -6.45983368e-02  3.39209661e-02  4.93076220e-02 -5.28960899e-02
   3.26783806e-02  6.09751418e-02  5.83212748e-02 -6.79378435e-02
   6.15420192e-03 -3.73366475e-03 -3.57667357e-03 -3.07224095e-02
  -5.62361442e-02  4.34182361e-02  2.10899636e-02  4.98234108e-02
   5.27361110e-02 -1.60549879e-02 -5.41694760e-02  6.87625632e-02
  -3.73903140e-02 -5.76195493e-02  7.11075738e-02  7.15699866e-02
   5.13710901e-02  3.35707068e-02  4.82395291e-04  1.60039514e-02
   7.08692446e-02 -7.37562776e-03 -5.73173277e-02 -6.70501813e-02
   4.84585688e-02 -4.28449139e-02 -2.69470103e-02  1.98851898e-02
   5.82013056e-02  3.93521264e-02 -6.33507818e-02  3.56051326e-03
   5.43087795e-02 -2.87087709e-02  6.58774599e-02  6.11058101e-02
   1.35429576e-02  3.31400633e-02 -5.69377951e-02  6.73528835e-02]
 [ 1.77472010e-02 -3.20565403e-02 -5.00347950e-02 -2.14078464e-02
  -4.82648574e-02 -1.32885799e-02 -5.54163158e-02  3.39520797e-02
  -3.07112932e-05  7.21854195e-02  1.21298507e-02  7.28842393e-02
  -3.75649966e-02  6.09359816e-02 -8.01034570e-02 -4.75107618e-02
   2.08043382e-02  3.29262763e-02  7.54069015e-02  5.17050251e-02
   4.46258560e-02 -2.91806050e-02 -7.12509230e-02 -6.05194271e-03
   3.64462137e-02 -2.13676021e-02 -7.52975792e-02  5.12345508e-02
   7.68747553e-02 -7.27529675e-02  4.96293828e-02  1.36268511e-02
   2.71809846e-02 -6.84610233e-02  3.49212587e-02  2.10836008e-02
   7.49382004e-02  6.40182570e-02 -2.73374729e-02  5.51535860e-02
   4.04257327e-02  4.95859608e-02 -4.74354774e-02  5.01130894e-02
  -8.10411274e-02  4.93716076e-02  6.33433983e-02 -4.33734655e-02
  -6.92331791e-02 -1.54045820e-02  7.03018680e-02  6.06460646e-02
  -4.63359021e-02 -2.66276784e-02  6.30403385e-02  8.33544880e-03
   2.67119706e-02  7.99317285e-02  3.16942781e-02 -3.51957642e-02
  -3.45438719e-04  3.32438946e-02 -1.11915544e-02 -4.95929532e-02
  -7.03568310e-02 -7.89938048e-02  3.56467068e-03 -6.37336820e-02
   5.08621708e-02  1.42575800e-03 -6.74873963e-02 -4.78644185e-02
  -5.30111119e-02  7.25592896e-02 -4.13388461e-02  6.97446093e-02
  -5.21316379e-03 -1.11194029e-02 -3.51132490e-02 -3.79937626e-02
   3.19867432e-02 -7.37833306e-02 -3.25198248e-02 -3.51854749e-02
  -6.73141852e-02 -5.47415242e-02  3.19596156e-02  4.76632938e-02
   6.99773431e-03  2.44014934e-02 -7.11641908e-02  3.25828791e-04
  -7.32532665e-02 -2.19610743e-02  2.58885324e-03  1.35810524e-02
   6.00434840e-03 -6.19465858e-03 -2.38763429e-02 -4.85866293e-02
  -6.76633418e-02  2.95081586e-02  3.96029651e-02 -1.04176775e-02
   4.27716747e-02  6.58113137e-02 -7.49631226e-02 -9.36826319e-03
  -3.36669944e-02 -4.44904864e-02 -6.36968166e-02 -3.84525470e-02
   6.19268641e-02 -4.28234264e-02 -1.78865120e-02  7.00292811e-02
  -7.73496926e-03  6.45420030e-02 -5.64080477e-03 -1.13202333e-02
   2.28683129e-02 -1.36535391e-02  6.53822497e-02  6.18243739e-02
   2.63843834e-02 -7.85054117e-02 -3.77172269e-02 -6.68723062e-02]
 [ 5.97028993e-03  7.74284452e-02  2.20282972e-02 -7.43234856e-03
  -4.58877943e-02 -4.13838811e-02 -7.00018704e-02  7.18337372e-02
   3.13235745e-02 -6.84799766e-03  6.01557419e-02 -4.41106111e-02
   6.74464256e-02  5.72065338e-02 -5.27632255e-05  7.72120431e-02
   4.76442801e-04 -5.91407046e-02 -2.86366008e-02  6.79586828e-02
  -5.76019101e-02  2.69547086e-02 -6.47907481e-02  7.13404492e-02
   4.90956642e-02 -2.79061459e-02  3.89608368e-02  2.73551084e-02
   5.92225939e-02  7.79353753e-02 -8.94556660e-03  6.12738682e-03
  -1.69121064e-02 -1.61545370e-02  2.60144863e-02  9.98049974e-03
   3.24978121e-02  3.67587321e-02  6.20990545e-02 -7.96522647e-02
   4.89054844e-02  6.40661344e-02 -6.39244542e-03  2.37643160e-02
   7.46921971e-02  7.36204116e-03 -4.10560071e-02  7.63811171e-02
   5.24476580e-02  4.84653339e-02  2.93518812e-03  1.36375602e-03
   6.74196333e-02  1.74954571e-02 -5.29550128e-02 -3.25277932e-02
   2.91767865e-02 -6.35442324e-03 -5.72324134e-02  1.94862932e-02
  -1.58363581e-03  3.42089124e-02  7.61242285e-02  1.11024370e-02
   3.98699865e-02  1.77790169e-02  4.84965518e-02  5.78948669e-03
  -3.64372432e-02  2.05910280e-02  5.48829958e-02  4.66016345e-02
  -5.14301695e-02  2.63387774e-04 -1.00021921e-02 -1.34417973e-02
  -6.25905991e-02  3.66806053e-02  3.63674411e-03 -5.35807908e-02
   4.71938923e-02  6.83730170e-02  2.77828332e-02  4.66125682e-02
   2.06231326e-02 -1.47469332e-02 -5.78926615e-02  5.71795776e-02
   2.18532886e-03  1.26585960e-02  7.97554031e-02 -7.08694980e-02
  -6.39477968e-02 -5.74874580e-02 -3.70713808e-02 -2.28780992e-02
  -8.06958228e-03 -8.76984000e-03  3.63049023e-02 -3.06403060e-02
   6.25270456e-02  5.16808182e-02  5.10568097e-02  2.79910173e-02
   6.34444728e-02  7.43839890e-02 -4.27418016e-02 -5.55957034e-02
   6.02908954e-02  1.38065591e-02 -8.18688273e-02 -1.18564749e-02
  -5.56703918e-02  1.43075585e-02  2.32226476e-02  3.98397222e-02
   5.49598150e-02 -3.01601663e-02  7.94435218e-02 -4.85742427e-02
  -7.59573653e-02  5.13934717e-02 -5.04096225e-02 -5.58297858e-02
  -3.96491066e-02  7.85217062e-02  4.44776751e-02 -1.77540909e-02]
 [-2.38107629e-02 -4.16558348e-02 -6.75076246e-02 -6.26115650e-02
   5.62499389e-02  8.39819983e-02  2.38551199e-02 -7.39254653e-02
   5.28697856e-02 -4.82587665e-02 -2.87312232e-02  2.83714905e-02
  -6.17062524e-02 -8.10709074e-02  8.13383609e-02  4.40471806e-02
  -8.38271528e-02  3.04388348e-03  1.26854435e-03 -6.81279898e-02
  -4.77606878e-02 -1.55732883e-02  2.12159511e-02  1.66265871e-02
  -5.82383163e-02  1.33723989e-02  5.07067963e-02 -4.61825579e-02
  -4.79635503e-03 -2.36063972e-02 -4.25363556e-02  8.42342079e-02
   1.65795945e-02  7.86615163e-02 -7.07701817e-02  5.30093089e-02
   5.14052361e-02 -6.19079499e-03 -5.98483905e-02 -6.35018125e-02
   2.73402557e-02 -1.67575888e-02  1.15458153e-01  5.48462048e-02
   2.09572585e-03  6.24921219e-03  1.01727486e-01 -1.22367609e-02
   2.48924252e-02  4.17941958e-02 -5.28611382e-03 -3.66098844e-02
  -5.92681132e-02 -5.79068922e-02 -2.03251187e-02  2.63319779e-02
  -2.31249165e-02 -6.76338524e-02 -5.28639667e-02 -5.78240305e-02
  -6.32591173e-02  5.53520657e-02 -6.30549416e-02 -1.99372210e-02
   1.53274238e-02 -4.32235375e-02  4.31146622e-02 -1.89176165e-02
  -6.00686558e-02  5.41707091e-02 -2.67760549e-02 -9.32847091e-04
   7.01687708e-02 -2.57265680e-02  1.00778751e-01  7.90065303e-02
  -5.16848974e-02 -6.73869699e-02  4.99939993e-02  1.73280183e-02
  -6.74549863e-02 -4.68440391e-02  5.86205870e-02 -6.16656393e-02
  -5.81143126e-02 -3.78126502e-02  3.96780670e-04 -1.09223258e-02
   1.63781587e-02  6.98887743e-03  6.03136607e-02  2.81948298e-02
  -2.38729976e-02  2.33099535e-02 -9.99522135e-02  2.84635574e-02
  -3.10602114e-02  7.77940080e-02  6.63257614e-02 -5.31132817e-02
   9.51587930e-02 -4.79772016e-02  6.31992891e-02 -1.68212852e-03
  -4.25431579e-02 -2.97521558e-02 -4.07734811e-02  6.26179874e-02
  -8.62894356e-02 -8.93700123e-02 -9.81069878e-02  4.59011644e-02
   1.70845632e-02  3.98429595e-02  4.92231660e-02 -4.48374264e-02
   2.14256067e-02 -6.12783730e-02 -4.28295955e-02 -7.72406347e-03
  -1.24836937e-02  6.08117618e-02  5.79349808e-02  2.84116697e-02
  -7.25668147e-02  9.05206874e-02  1.06750978e-02 -1.92810409e-02]
 [ 6.18451200e-02  6.31778613e-02 -1.47107616e-01 -3.85529697e-02
  -2.97719557e-02  1.19462579e-01  8.22734609e-02 -3.50073576e-02
  -5.59264608e-02  4.90319282e-02  6.44822642e-02  1.34414494e-01
   7.03988448e-02 -4.96226922e-03  1.50419608e-01  6.31458759e-02
  -1.12162314e-01 -7.76077658e-02  3.66814956e-02 -2.55597103e-02
  -3.43899950e-02 -7.40373805e-02 -4.62679751e-02  1.56605244e-02
   5.68320975e-02  1.11501083e-01 -2.21885294e-02  1.53807402e-02
  -2.98680924e-02  2.03993674e-02 -2.59355269e-02  6.85193539e-02
  -6.17475584e-02 -6.28815666e-02  8.08095559e-02  1.74699686e-02
  -3.59524749e-02 -8.19540024e-02  2.94522066e-02  2.12423168e-02
  -3.99090424e-02  1.25919208e-02  3.35539803e-02  2.30864827e-02
  -7.95294344e-02 -7.35961422e-02 -9.16214567e-03  5.78715503e-02
  -5.71443774e-02 -3.68080959e-02  3.97831053e-02 -5.80000542e-02
   3.35075520e-02 -9.89835188e-02  3.90304805e-04 -1.35562629e-01
   8.48096516e-03 -5.40451407e-02 -2.07579583e-02  9.54167545e-03
  -1.34864934e-02 -2.39261575e-02 -2.51874253e-02 -7.76148960e-02
   5.95114306e-02 -6.28388897e-02 -1.67956054e-02  1.08282261e-01
  -3.53652537e-02  2.69437507e-02 -1.61482766e-03  6.56181797e-02
  -4.53222468e-02 -9.61595308e-03  6.26959354e-02  1.01976283e-01
  -6.31765351e-02  4.60384339e-02 -1.07280128e-01 -1.33564785e-01
  -7.27945799e-03 -3.44185010e-02 -1.44293457e-01 -1.02158710e-02
   2.45358218e-02  2.59621047e-05 -1.23709016e-01  6.17248975e-02
   1.85178313e-02  4.96399775e-02  1.03187591e-01 -2.04759371e-02
   1.31360561e-01 -5.62563259e-03 -1.60406735e-02 -1.49692148e-02
  -4.24414389e-02  6.87580779e-02 -3.98490429e-02 -1.17179744e-01
   8.14510882e-02  1.66876446e-02  8.70511029e-03 -2.85971388e-02
  -4.97118644e-02 -2.39592679e-02  2.11488344e-02  8.34235623e-02
   1.05099827e-02 -1.09140627e-01 -3.76327662e-03 -4.39372733e-02
   5.87762669e-02 -3.84053402e-02 -1.14894852e-01  1.17929414e-01
   8.24997276e-02  1.81535650e-02 -8.75946571e-05  4.97185737e-02
   5.90246245e-02 -3.29603106e-02  1.16735481e-01  4.53364179e-02
   6.19943603e-04  1.20927662e-01  8.74342397e-02 -1.35116681e-01]
 [ 8.17645565e-02  1.01537973e-01 -3.97012942e-02  8.87132660e-02
  -1.34584144e-01  5.31375296e-02  3.98447588e-02 -8.17456618e-02
   3.58523726e-02  3.89906578e-02 -4.57670577e-02  1.05811923e-03
   7.67963827e-02  6.44424781e-02  4.81571397e-03 -7.18455715e-03
  -1.37156382e-01 -7.53239170e-02  4.10354347e-04  2.14758236e-02
  -5.22130877e-02 -3.21167782e-02 -9.97119173e-02  3.83345643e-03
   6.77422853e-03 -9.94489901e-03 -4.06514779e-02  6.52172416e-02
  -2.15205997e-02  9.00112316e-02 -4.45575826e-02  1.15654599e-02
  -5.55162132e-03  6.27061427e-02  6.20659590e-02 -7.88834691e-02
   3.82968187e-02 -3.02750990e-03  2.70981118e-02 -7.19657093e-02
   6.40918389e-02  6.22915328e-02  8.50039050e-02  8.34448934e-02
  -2.34224405e-02 -5.32777868e-02  1.42413974e-01  1.56239852e-01
   5.65038156e-03  9.11022872e-02  1.52019542e-02  1.61002530e-03
   1.01163648e-02 -1.26376286e-01  2.73368992e-02 -1.34594530e-01
  -6.74533546e-02 -2.49935184e-02 -7.54835531e-02 -5.84134236e-02
  -4.92012203e-02 -6.93297535e-02 -6.32588565e-02  1.38269011e-02
   2.32097283e-02 -6.40172586e-02 -4.42813821e-02  1.35466561e-01
  -8.99469107e-02  2.67120861e-02  7.73313548e-03  4.59238142e-02
  -9.59616378e-02 -1.20284438e-01  9.63856801e-02  7.66975619e-03
  -1.20843515e-01 -2.56121755e-02 -1.00269979e-02 -1.16266899e-01
  -7.44657591e-02 -1.21833630e-01 -4.60139848e-02 -5.32100769e-03
  -9.81772318e-02 -3.24047059e-02 -9.86306965e-02 -3.81079689e-03
   5.29096834e-02 -4.66462113e-02  1.12131149e-01  7.80927986e-02
   8.53919759e-02  3.49636860e-02 -1.50574967e-01  1.06499633e-02
  -2.30235979e-02  7.85509474e-04  2.09635366e-02 -6.81529492e-02
   6.54889718e-02  1.02538979e-02 -2.26673689e-02  2.13592928e-02
   3.48476917e-02 -6.13872707e-03 -3.08278333e-02  1.48380145e-01
  -2.79245805e-02 -1.43645465e-01 -7.30722845e-02 -1.00095561e-02
   1.11103632e-01 -1.42037710e-02 -3.93574461e-02  1.35843307e-01
   2.70778593e-02 -8.41765404e-02 -6.54744506e-02  5.87336207e-03
  -4.78591956e-02  6.83330558e-03  4.69140932e-02  6.40534684e-02
   1.40725940e-01  9.22308788e-02 -5.27203307e-02 -7.17049837e-02]
 [-6.58827722e-02  1.08727649e-01 -6.41680956e-02 -1.29472045e-02
  -3.48267257e-02  8.89968127e-02  1.17323630e-01 -2.27402840e-02
  -1.95376351e-02 -6.79877866e-03  3.43172550e-02  1.23332562e-02
   5.86305931e-02 -1.01041533e-01  9.98847559e-03 -4.55126539e-02
  -3.87359299e-02  6.45173714e-02  4.69286405e-02 -4.58490290e-02
  -3.94311771e-02  8.20049345e-02  1.65187381e-02  2.29800846e-02
   8.47652480e-02 -1.73772424e-02  2.61754226e-02  9.23735497e-04
  -1.05515927e-01  5.47258835e-03 -4.63381745e-02  1.32045522e-01
  -2.67738849e-02  1.20641351e-01  8.80066156e-02 -1.50624532e-02
   2.63298920e-04  6.30402565e-02 -3.05006988e-02 -9.33849886e-02
  -4.23285104e-02  7.75716687e-03  5.17140850e-02  1.03650592e-01
  -1.25964224e-01  2.68635675e-02  8.49673375e-02  1.99813973e-02
  -6.78399876e-02  5.49743958e-02 -4.66642678e-02  2.63691302e-02
   4.50056680e-02 -1.18997565e-03 -3.80205996e-02 -1.27904505e-01
   6.56078011e-02 -5.89436404e-02 -1.11280596e-02 -1.64186060e-02
  -4.72852103e-02  1.63658615e-02  4.42036800e-02 -1.42958593e-02
   4.33446690e-02  3.87196802e-02  3.46896797e-02  9.59203541e-02
   2.47552544e-02 -4.48710332e-03  5.66289686e-02 -1.75118707e-02
  -1.21102333e-02 -1.12705573e-01  1.06764264e-01 -1.24044819e-02
  -4.74858955e-02  3.74085340e-03 -6.52918741e-02 -9.42911878e-02
  -7.50499517e-02 -3.20298085e-03  5.43992082e-03  5.13495645e-03
  -2.18856018e-02 -1.23282723e-01  6.51266007e-03  6.51869699e-02
   1.51093761e-02 -5.49270771e-02  7.85151571e-02  1.46099120e-01
   3.16719897e-02  2.08455212e-02  1.25918770e-02  6.46668896e-02
   7.64311478e-02  3.46335284e-02  1.01096295e-01 -3.67464242e-03
   6.05645403e-03 -2.39154929e-03  7.19078332e-02 -2.77309511e-02
  -4.33496647e-02 -1.54256830e-02 -1.07939228e-01  1.40658878e-02
  -1.88469011e-02 -7.42014870e-02 -2.51667248e-03  1.59448944e-02
   1.22753963e-01  3.92657891e-02 -1.36175156e-01  2.97911204e-02
   6.09881729e-02 -1.08697675e-02 -8.61059502e-02 -1.91681609e-02
   7.19134789e-03  3.03514712e-02  6.98564500e-02  1.38333470e-01
   1.75193623e-02  1.25653436e-02  5.13178669e-03 -8.62391219e-02]
 [-3.60851735e-02  3.67144682e-02 -1.50565714e-01 -1.23008369e-02
   4.41906676e-02  6.04036525e-02  1.83124598e-02 -1.36368424e-02
  -3.30065861e-02  9.56353843e-02 -7.44016282e-03  8.81799534e-02
   5.64220287e-02 -2.68797111e-02  5.30156381e-02  7.94708878e-02
  -1.84940845e-02  4.33622412e-02  3.89123941e-03  3.02439965e-02
  -5.81434518e-02 -2.66546924e-02 -6.49699718e-02 -4.71250042e-02
   5.88555634e-03  1.22829862e-02 -3.93455699e-02  7.55387694e-02
   3.29660960e-02 -4.69454527e-02 -1.12310059e-01  9.54691507e-03
   7.05274241e-03  1.08639829e-01  7.11938590e-02  3.30614597e-02
  -2.97525246e-02 -2.19081640e-02 -5.11432514e-02 -1.84109360e-02
  -5.91129214e-02  6.46541566e-02  8.14305469e-02  1.39232248e-01
  -4.45413729e-03 -6.16501309e-02  5.53985760e-02  7.36785904e-02
  -9.43585038e-02  1.02024049e-01 -5.78979962e-02  5.85886231e-03
  -6.06054207e-03 -5.22381738e-02 -8.78097024e-03 -1.29815772e-01
  -9.28219184e-02 -6.03865162e-02 -7.82160163e-02 -1.01986155e-02
   1.25680994e-02  2.61983369e-02 -1.42282592e-02 -9.39437523e-02
  -5.16894981e-02 -5.86519316e-02 -6.14241660e-02  8.04912746e-02
  -5.91685101e-02 -7.84011111e-02  7.49045610e-02 -5.02092466e-02
  -5.22402301e-02 -1.00787774e-01  7.73825347e-02  1.07377157e-01
   8.76122341e-03  9.14587826e-02 -2.61357278e-02 -8.61356184e-02
   2.09678710e-02 -1.04346506e-01 -3.51995341e-02  2.07794532e-02
   3.83822294e-03 -2.33317204e-02 -9.83159058e-03  1.52904904e-02
   6.13246448e-02  7.36241639e-02 -4.11323830e-02  6.79548234e-02
   7.70078897e-02  7.04426765e-02 -1.31638870e-01 -4.26179767e-02
   1.34165706e-02  1.46384671e-01  4.98521365e-02 -9.51295346e-02
   7.70867765e-02  8.14687163e-02  6.80187196e-02  4.79142033e-02
   6.87067360e-02  2.31584031e-02 -6.48181215e-02  6.80746138e-02
  -2.73977555e-02 -4.10545468e-02 -8.50384012e-02 -4.22151806e-03
   1.01054125e-01 -2.91344970e-02 -1.34893686e-01  1.27521902e-01
   5.17212749e-02  1.12569304e-02  4.45067324e-02 -1.89049728e-02
   1.05207466e-01  1.78495760e-03 -1.73239987e-02  7.68890902e-02
   2.45947996e-03  7.43834898e-02  1.02589689e-01 -7.78072998e-02]
 [ 9.67131034e-02  2.12023944e-01 -2.29057912e-02 -1.52104069e-02
   1.06996864e-01 -5.18465601e-02  4.35291305e-02 -1.02098718e-01
   3.67311835e-02  1.88249536e-02 -2.48630357e-04  1.80637315e-01
  -4.51315045e-02  4.51635122e-02  1.96649954e-01  4.93726432e-02
  -6.91689700e-02 -7.54221082e-02 -4.41810526e-02 -4.16933373e-02
   4.11082432e-02 -6.76578134e-02 -6.01407215e-02 -5.49143851e-02
   1.03948116e-02  1.95368957e-02  4.11701668e-03  6.38306215e-02
  -5.81359044e-02  8.07939321e-02 -1.69655770e-01  4.30913270e-03
  -1.10421658e-01  1.47127872e-02 -1.48625541e-02  2.95452438e-02
   1.07921280e-01 -1.22075066e-01 -4.89802137e-02 -1.30818814e-01
   4.91725467e-02  1.11359231e-01  1.10227749e-01 -1.66877434e-02
  -4.48617302e-02  4.12082113e-03  9.37341973e-02  1.27203479e-01
  -4.80140597e-02  6.05693460e-02  2.65869405e-02 -5.67677245e-02
   3.69885936e-02 -3.09114326e-02  2.38043126e-02 -1.26176581e-01
   1.07831880e-02  9.63595975e-03 -6.70180470e-02  6.51208386e-02
   5.02415150e-02  2.49098241e-02 -3.99308316e-02 -6.76930845e-02
  -9.13204625e-02  3.88884321e-02 -5.01948595e-02  1.20118365e-01
  -2.00154141e-01 -8.63113925e-02  1.27955467e-01 -6.12905808e-02
   2.88084857e-02 -1.45755276e-01  1.27431020e-01 -5.15672704e-03
  -3.82300727e-02 -9.94873233e-03  7.88185373e-03 -2.73731574e-02
   4.98256497e-02 -9.23198648e-03  3.65073904e-02 -5.80900302e-03
  -2.16344954e-04  4.10915390e-02 -8.90527070e-02  1.97957419e-02
   1.05469197e-01 -3.16295400e-02 -1.05910040e-02  6.29015034e-03
   9.88089740e-02 -2.88164709e-02 -5.88021427e-02  1.00443743e-01
  -6.93338178e-03  1.65971816e-02  8.93130228e-02  1.18028941e-02
   1.07914589e-01  8.15213993e-02 -8.43624119e-03 -8.21494758e-02
  -5.62126562e-02 -7.03764241e-03 -1.10944003e-01  7.81508237e-02
  -1.08235694e-01 -3.71463224e-02 -8.59634653e-02 -4.54070121e-02
   6.56137764e-02 -8.07159543e-02 -1.34633675e-01  3.62715907e-02
   9.73812714e-02 -9.00077596e-02  3.19415070e-02 -1.10299639e-01
   6.35301927e-03 -1.48197651e-01  7.59287253e-02  1.03554539e-01
  -5.91349639e-02  6.16988800e-02  3.52822915e-02 -6.70727193e-02]
 [ 1.07097052e-01  7.29518831e-02 -9.80552379e-03 -9.89881624e-03
   1.17125764e-01  7.97232017e-02  3.61077935e-02 -9.90942344e-02
   2.51500923e-02  4.42650691e-02 -8.10199901e-02  4.02273908e-02
   1.80724487e-02  3.13028693e-02  1.85192041e-02  8.17821547e-02
  -7.27653950e-02 -2.74261720e-02 -1.60284881e-02 -5.10830656e-02
  -8.58886018e-02 -4.97542322e-03  4.83200178e-02  1.81987844e-02
   9.38406512e-02  3.22038792e-02 -1.29569480e-02 -2.45612301e-02
  -2.80041713e-02 -2.70127561e-02 -8.39505494e-02  2.87027974e-02
  -8.59100148e-02  2.78055277e-02 -5.43716503e-03 -7.20773488e-02
   5.22642024e-02 -2.09551081e-02 -1.16044685e-01  4.11843270e-04
  -2.61587389e-02  8.43801349e-03  1.92027226e-01  3.50589417e-02
  -6.43558279e-02 -1.18128419e-01  1.06045090e-01  1.07248239e-01
  -6.42459318e-02  1.12399019e-01  1.00178413e-01 -7.43861049e-02
   5.76682761e-02  3.16449776e-02 -3.73011157e-02 -1.49782792e-01
  -5.46779074e-02 -8.12004656e-02  9.91639332e-04 -1.63896531e-02
   5.33067435e-02 -1.29032955e-01 -4.09231614e-03 -4.71657421e-03
   5.94991632e-02  3.13650705e-02  5.84922843e-02  6.11430332e-02
  -2.09697247e-01  6.33586422e-02  2.61999480e-02  7.05441646e-03
   9.83936414e-02 -7.89277926e-02 -1.46704074e-02  1.07600279e-01
  -1.35901660e-01  2.49037780e-02 -1.02048770e-01 -1.36644393e-02
   6.99989945e-02 -2.89504081e-02  7.81087056e-02  4.88513801e-03
  -6.37781471e-02  3.04467306e-02 -8.08588341e-02  3.93645465e-02
   8.34090412e-02  8.67511183e-02  1.91767979e-02  2.23433040e-02
   6.43210039e-02  1.26333430e-01 -4.08167876e-02 -2.64446493e-02
   3.46731059e-02 -4.09040488e-02  4.57600364e-03 -1.02484375e-01
  -1.11824311e-02  7.85450041e-02  1.73080117e-02  6.27225079e-03
  -4.91282716e-02  1.48651853e-01 -1.38649255e-01  5.78211360e-02
  -2.63141654e-02  2.95535084e-02  1.64502431e-02 -1.15694448e-01
   1.86832603e-02  1.98295135e-02 -1.72864154e-01  4.55133766e-02
   1.29237115e-01 -8.36556256e-02  1.22777373e-02  5.75563917e-03
   3.17257978e-02  1.62704643e-02  2.01118253e-02  8.39157961e-03
   4.99057472e-02  7.82570057e-03  1.34832542e-02 -5.87030910e-02]
 [ 4.05081622e-02  1.15600690e-01 -5.85499480e-02  1.01804910e-02
  -5.47693521e-02 -4.32067104e-02  6.71196729e-02 -1.49809554e-01
  -1.01882659e-01  1.19277947e-01  2.44408585e-02  1.84244230e-01
   1.40740387e-02 -5.42921387e-03  8.31037667e-03 -1.07821170e-02
  -6.55155927e-02  1.92215052e-02  7.15132058e-02 -2.26323735e-02
   4.70236642e-03  3.80934332e-03  7.13834912e-02 -6.13025054e-02
   8.01281258e-03 -5.96743599e-02 -7.57676736e-02 -4.51351888e-02
  -1.97990425e-03  1.06665976e-01 -1.45719945e-01  1.10382758e-01
  -3.22475620e-02  1.44256979e-01 -9.86007825e-02  3.00663225e-02
  -5.03254347e-02  2.13404298e-02 -7.82829709e-03 -3.76821458e-02
   5.41157238e-02  3.51413898e-02  6.91077486e-02  1.47248268e-01
  -1.72920495e-01 -1.16095237e-01  4.45325747e-02  2.83636730e-02
  -6.46334440e-02  3.16819027e-02 -4.20591384e-02 -8.93999636e-02
   9.18602198e-02  4.47211042e-03 -1.50816321e-01 -3.91011573e-02
   2.75520911e-03 -6.50722831e-02 -4.13167402e-02  1.19117722e-02
   6.04229718e-02 -2.44490039e-02 -5.65522499e-02  2.72605810e-02
  -6.48889318e-02 -1.57418649e-03  1.42102493e-02  3.67562510e-02
  -1.55758947e-01 -4.91299806e-03  9.92340520e-02  3.40495743e-02
   1.20482340e-01 -1.26715332e-01  1.11508131e-01  6.72246665e-02
  -1.69635341e-01 -5.33323921e-02 -5.73077751e-03 -4.19159792e-02
   9.61329564e-02 -8.06919858e-03  1.88079495e-02 -8.61440673e-02
  -2.85463072e-02 -6.59343675e-02 -5.26172407e-02  5.33586219e-02
  -2.03596652e-02  1.09629765e-01  1.93618070e-02  1.18722230e-01
   1.22534245e-01  1.41741425e-01 -1.02734484e-01  1.20367393e-01
   5.71193732e-02  7.34905228e-02 -3.09675559e-02 -8.60964805e-02
   1.15055710e-01  2.01010302e-01  3.93376574e-02 -1.87565889e-02
   5.66060543e-02  1.10536620e-01 -9.14248303e-02  7.02220574e-02
  -2.03895196e-02  6.08128347e-02 -4.76333052e-02 -6.82962919e-03
   1.19058497e-01 -1.14186026e-01 -1.01616398e-01  1.26979992e-01
   2.61465479e-02 -1.24402037e-02 -9.31198373e-02  1.52165489e-02
   1.22458590e-02 -5.54808825e-02  7.50699863e-02 -6.04444556e-02
   8.83990317e-04  1.26087919e-01  2.86708642e-02 -1.29595593e-01]
 [ 4.99765202e-02  1.23050719e-01 -1.54549897e-01 -5.30687422e-02
  -6.59025786e-03 -3.45703103e-02  1.65838227e-01 -1.36148795e-01
  -5.11318296e-02  1.59833401e-01 -4.00156202e-03  1.98297083e-01
  -4.37961146e-02 -1.00147739e-01 -4.62633558e-03  4.54939008e-02
   5.32532902e-03  5.64568713e-02 -3.57676037e-02 -8.32879618e-02
   1.85293835e-02  1.27346739e-01  1.90826263e-02 -2.93838661e-02
   4.88326587e-02  3.30711715e-02 -1.14719070e-01  6.19973987e-02
  -8.12971070e-02  8.89505446e-02 -1.24096222e-01 -1.27980777e-03
   8.00788030e-03  1.33149266e-01 -3.51121165e-02 -2.04090402e-02
   3.94297838e-02 -1.30222306e-01 -3.23955342e-02 -1.40110672e-01
   7.06029609e-02 -3.15060131e-02  1.82845429e-01  1.35499656e-01
  -1.14551321e-01 -1.42018393e-01  1.71640068e-01  6.36906698e-02
  -1.76955789e-01  9.86315161e-02  3.40898857e-02 -2.26972229e-03
   4.91995141e-02 -1.03037335e-01 -1.53187513e-02 -1.79014489e-01
  -6.30568042e-02  4.53997031e-02 -7.25722983e-02  6.38763607e-03
  -2.29659248e-02  2.32196636e-02 -4.78501320e-02 -3.60197239e-02
   1.35463253e-02  7.12507814e-02 -2.44567133e-02  1.02083579e-01
  -1.46345735e-01 -6.57634810e-02  1.68721005e-02  3.58471125e-02
   1.92040820e-02 -1.51628777e-01  3.70845199e-02  3.99324894e-02
  -3.46498303e-02  4.40856144e-02 -3.21622081e-02 -5.78535199e-02
   4.03967649e-02 -2.75385808e-02 -3.22392732e-02 -6.57229349e-02
  -7.06023276e-02 -3.03844325e-02 -3.22529450e-02 -4.85423841e-02
   1.22025214e-01  4.63471748e-02 -2.12435741e-02 -2.54168790e-02
  -1.05163427e-02  1.15248293e-01 -1.56953007e-01  7.44078029e-03
   2.43023988e-02  5.76423444e-02 -4.30792430e-03 -3.55203934e-02
   1.31763473e-01  7.55561069e-02  4.68351133e-02 -7.83911943e-02
   8.38296674e-03  1.48684025e-01 -7.10451156e-02  2.47266125e-02
   1.46295959e-02  4.00423855e-02 -1.00984447e-01  5.34770302e-02
   1.34082884e-01 -1.71197936e-01 -7.83134773e-02  4.71505076e-02
   8.60583708e-02 -8.51304159e-02  5.15256450e-02 -3.95382643e-02
   4.04404588e-02 -3.37204710e-02  8.56633782e-02 -8.19454491e-02
   5.52568138e-02  1.44346982e-01  1.86913162e-01 -8.97682607e-02]
 [-9.87441391e-02  1.67262942e-01 -6.83732405e-02  4.93291914e-02
  -9.28163603e-02 -1.43227903e-02 -3.38815935e-02 -7.99001157e-02
   4.24613804e-02 -1.21248821e-02  2.71278024e-02  1.28174722e-01
   3.65947336e-02  6.52749762e-02 -6.68198243e-02 -2.27870531e-02
  -4.61303703e-02  2.71794066e-04 -1.09054878e-01 -1.05211467e-01
   4.15938459e-02  1.48632899e-01  9.84808505e-02 -1.97833665e-02
   3.69400457e-02  4.58207205e-02  5.23958961e-03  7.47914053e-03
   3.96694839e-02  5.73649034e-02 -2.49952469e-02 -6.03059381e-02
  -1.61268972e-02  1.32147193e-01  1.34549186e-01  1.69053320e-02
  -8.54167715e-02 -4.48776633e-02  1.24117382e-01 -1.26931146e-01
  -2.25612316e-02  6.37040753e-03  3.94725688e-02  1.89122781e-01
   3.63884941e-02  9.67172384e-02  2.10433435e-02 -1.33380331e-02
  -3.65644768e-02  4.19217087e-02 -6.48478046e-02  2.77110934e-02
  -4.76235822e-02  5.34950309e-02 -2.78645251e-02  2.16498915e-02
   3.58343273e-02  4.20761369e-02 -1.44021641e-02  1.89161077e-02
  -1.27418712e-01  8.95551071e-02  1.06624231e-01 -1.03850458e-02
   5.91170453e-02  6.09251969e-02  6.28590360e-02 -5.72007708e-02
  -2.49878932e-02  2.28811009e-03 -1.55675905e-02  1.90468580e-02
  -9.82945785e-02 -1.05398580e-01  6.06831722e-02 -1.58478692e-02
  -1.09557929e-02  3.02332062e-02  8.72023255e-02  2.81536803e-02
  -8.27050656e-02 -4.98247221e-02  2.02900022e-02 -6.48446679e-02
   1.44237235e-01  1.49596501e-02  2.23552510e-02  4.47914489e-02
   3.31323370e-02  7.94514492e-02  6.02892265e-02 -6.73098443e-03
  -1.28946826e-01  1.23295054e-01 -1.08964376e-01  5.50581031e-02
  -5.65461465e-04 -3.51550989e-02 -4.88975421e-02  8.78890157e-02
  -9.58754942e-02  4.93575772e-03 -1.86437350e-02  6.08821511e-02
   1.49856240e-01 -4.97500263e-02  6.52617030e-03 -1.36822715e-01
  -1.39560208e-01  1.81183647e-02  4.66451012e-02  1.23771071e-01
  -1.32049739e-01 -1.27347857e-01  4.93859686e-02 -8.11229497e-02
  -8.34047049e-02 -4.60111126e-02 -1.50308423e-02 -1.37588263e-01
   5.32806627e-02  1.17803961e-01  2.35237479e-02  2.09948495e-01
   4.41642525e-03 -3.70262377e-02  4.10894379e-02 -3.70850712e-02]
 [-1.10781789e-01  2.09257603e-01 -1.59275398e-01  8.66749510e-02
  -9.31089967e-02 -4.86487225e-02 -3.17353718e-02  1.89999640e-02
   5.88269606e-02  6.32534996e-02  4.25800756e-02  3.14679891e-02
   7.89228082e-03 -5.49025610e-02  2.15117224e-02  1.01250298e-01
  -4.64440836e-03  5.77550195e-02 -4.56352420e-02 -1.13555603e-01
   2.82888524e-02 -2.58643460e-02 -3.38426977e-01  3.19291279e-02
  -6.78258091e-02  9.07765403e-02 -1.35450006e-01 -5.81816621e-02
   2.18951632e-03 -1.10285664e-02 -6.74426854e-02  7.74337500e-02
  -1.01592794e-01  1.63071483e-01  3.73223517e-03 -1.59153622e-02
  -9.03711095e-02  8.92679766e-02 -3.13261300e-02 -1.82317302e-01
   8.62617642e-02 -3.71157452e-02  2.01331750e-01  1.53635815e-01
  -1.96813792e-01  3.04610971e-02  1.22469559e-01  9.79595333e-02
  -6.64913952e-02 -1.94111262e-02  5.61718717e-02 -1.10215113e-01
   8.79823491e-02  5.74133210e-02 -2.60589551e-02 -1.79231837e-01
   4.81129438e-02  5.17012998e-02  2.24189702e-02  8.03587809e-02
  -4.46918095e-03 -2.49960683e-02 -3.45325135e-02 -1.53441550e-02
  -6.94319885e-03  1.54586043e-02  1.30519852e-01  2.67064162e-02
  -5.43944631e-03 -2.41757296e-02  1.25256971e-01  1.16315201e-01
   3.58423516e-02 -1.46100661e-02  9.89558399e-02 -4.88424003e-02
  -8.94356966e-02  4.34723459e-02 -1.04027487e-01 -6.36846498e-02
  -5.69547042e-02 -5.28518781e-02 -2.43964549e-02 -5.44427857e-02
   1.59526616e-01 -3.21971136e-03  2.45203953e-02 -9.01411939e-03
  -6.66880757e-02  8.47271904e-02  3.95261450e-03  4.96072359e-02
   1.15243040e-01  1.28550425e-01 -8.34249407e-02 -7.21071884e-02
   2.22145058e-02 -7.50543922e-02  1.16217665e-01 -1.56135354e-02
  -6.35349303e-02 -5.24875037e-02 -8.09511021e-02  4.84982021e-02
   1.93333849e-01  2.98751541e-03 -9.16633308e-02 -5.85830249e-02
  -7.51053542e-02 -7.24427477e-02 -6.90604374e-02 -6.98015243e-02
  -5.95141761e-02 -1.76167607e-01 -7.85235018e-02 -5.62124560e-03
   7.89154787e-03 -5.76422215e-02 -8.52702111e-02 -8.93562064e-02
   4.03035656e-02  6.51824176e-02 -5.51244244e-03  2.05567375e-01
  -7.02624097e-02  1.91061541e-01 -2.32706610e-02 -1.34798899e-01]
 [-6.03114069e-02  5.81584871e-02 -1.16661556e-01  9.04316828e-02
  -2.09705293e-01 -1.08896576e-01  1.39790252e-01 -3.77486944e-02
   3.92660275e-02  6.50160536e-02  1.31366951e-02  4.45350260e-02
   5.73443957e-02 -2.28654981e-01 -1.15517497e-01  1.63361013e-01
   6.19903998e-03  7.42362365e-02  1.10194914e-01  3.06120217e-02
   6.18316866e-02 -5.93102835e-02 -3.10833991e-01 -1.90748256e-02
   9.46675017e-02 -8.26191716e-03 -5.03405333e-02  3.99006270e-02
  -1.33385941e-01  3.56055088e-02 -1.36749831e-03 -9.53336135e-02
   1.56714797e-01  1.80295080e-01 -3.80256251e-02 -8.21389183e-02
   6.46016076e-02 -1.02823423e-02 -4.83554080e-02 -1.26930863e-01
  -4.04656827e-02 -8.99122953e-02  2.05898911e-01  1.80497050e-01
  -1.04411371e-01 -1.70385629e-01  1.13075472e-01  2.98147127e-02
  -8.88476074e-02 -1.38880253e-01  1.16226366e-02  6.21938296e-02
   1.36831291e-02 -7.11957291e-02  2.73754336e-02 -6.74088150e-02
  -2.96758153e-02  3.81197557e-02 -4.52399813e-02 -6.29364029e-02
   8.40596631e-02  1.36435196e-01  1.08696781e-01 -4.27669287e-02
  -3.15784588e-02 -2.91020386e-02 -7.97423422e-02  7.77321681e-02
   1.60697132e-01  3.96498926e-02  4.01451327e-02  8.22715834e-03
  -1.15071852e-02  1.22284591e-01 -8.26322064e-02  2.57714577e-02
  -1.01765893e-01  1.35509044e-01 -1.38123423e-01  3.99923585e-02
   2.24280283e-02 -6.15134500e-02  7.13560507e-02 -1.28163159e-01
   9.55491513e-03 -3.23560871e-02 -9.05350670e-02 -5.24522293e-05
  -1.44887995e-03  6.45276681e-02 -1.44799612e-02  7.13159740e-02
   2.98990514e-02  1.77940845e-01 -9.88659933e-02  4.03343001e-03
  -3.66903245e-02  2.58577820e-02 -1.38624469e-02 -1.07637130e-01
   1.31887302e-01  4.67681512e-02  6.33971542e-02  5.67071848e-02
   2.78742099e-03  2.21271768e-01 -1.88962847e-01  1.13991275e-02
  -1.67767480e-01  3.58606465e-02 -1.86259419e-01 -7.64603689e-02
   7.90079311e-02 -5.84280789e-02 -1.71494141e-01  1.01717815e-01
   1.65848076e-01  3.73139307e-02 -5.83867058e-02 -3.41128036e-02
   1.26361409e-02  9.34382379e-02  5.81203066e-02  1.02121122e-01
   1.28645808e-01  1.78981259e-01  1.06500462e-01 -1.22370370e-01]
 [-1.06862716e-01  6.12623654e-02 -7.47470632e-02  4.47412990e-02
  -1.13311246e-01 -3.81210111e-02  2.24164754e-01 -7.00291842e-02
  -3.36613655e-02  1.57418683e-01  2.65221186e-02  6.82070479e-02
  -4.36876342e-02 -1.77666560e-01 -9.79964137e-02  8.73124227e-02
   9.78649780e-02  2.97380593e-02  6.97507858e-02  1.00484729e-01
  -3.64341140e-02 -8.21896940e-02 -3.20031047e-01  3.29167247e-02
   2.74487399e-02  5.16606420e-02 -3.40297036e-02  1.36562258e-01
  -1.63629884e-03 -8.02862737e-03 -4.63139178e-04  3.98033857e-03
   9.17811319e-02  1.54000685e-01 -5.69337755e-02 -4.72394601e-02
  -2.74744797e-02 -4.30381745e-02 -1.19752055e-02 -2.50886213e-02
  -9.60934460e-02  2.01084819e-02  1.51312649e-01  8.02653730e-02
  -1.13264687e-01 -1.03992730e-01  1.40134037e-01  8.19599554e-02
  -1.12585746e-01 -1.53329149e-01  8.75464603e-02 -2.53060479e-02
   6.80483282e-02  4.06970875e-03 -1.04313500e-01 -1.16627887e-01
  -4.87440452e-02  8.74081776e-02  1.71541590e-02 -1.03904903e-02
   1.64164938e-02  3.75840925e-02  5.66293299e-02 -4.24504355e-02
   2.24601303e-04 -5.46145178e-02  8.88234586e-04  3.25932316e-02
   4.66829278e-02 -5.69261275e-02 -4.35788324e-03  4.39686961e-02
   6.33243769e-02 -2.00424232e-02  2.84243859e-02 -5.17266896e-03
   2.05016509e-02  1.46367207e-01 -1.43887341e-01 -6.27651960e-02
  -1.10229664e-03  1.53315568e-03  2.98593957e-02 -1.51263624e-01
   3.38492021e-02  2.39803270e-03  6.70362338e-02  6.95661753e-02
  -5.60108535e-02 -4.97478545e-02 -3.90123017e-02  6.97051035e-03
   1.45933703e-01  1.87302113e-01 -1.36204004e-01 -4.09760652e-03
  -3.62590998e-02 -9.47192498e-03  9.17935371e-02 -4.63967919e-02
   1.02691524e-01 -4.12504189e-02  9.33068320e-02  5.66342324e-02
   1.30705889e-02  1.40126303e-01 -1.62403092e-01  9.95241925e-02
  -2.16064714e-02  8.42480212e-02 -4.82445769e-02  1.40897296e-02
  -5.20192506e-03 -1.22838929e-01 -8.24747756e-02  1.05606131e-01
   1.74808592e-01  1.18791908e-02 -7.18204677e-02 -2.70846300e-02
   1.89736467e-02  1.38103306e-01  1.06423922e-01  1.33851185e-01
   1.56672657e-01  1.63592085e-01  5.02343699e-02 -6.45157173e-02]
 [ 1.38451844e-01  1.74408808e-01 -5.21470932e-03 -8.17463472e-02
  -8.72234330e-02  6.86835349e-02  5.32850549e-02  7.52439722e-02
  -1.38214931e-01  2.96293087e-02 -3.05218305e-02  1.16532385e-01
  -6.62223473e-02 -2.16766745e-02  2.44483463e-02  5.59195541e-02
  -1.17039919e-01  2.45243832e-02  3.23756598e-03 -5.28561659e-02
  -2.61826422e-02 -1.04909591e-01 -2.14226708e-01 -8.71710256e-02
   1.04215242e-01 -2.06806045e-02 -1.31386879e-03  2.03535473e-03
  -3.26039083e-02  1.11157410e-01 -7.12250471e-02  1.08779185e-01
  -1.80431247e-01  2.00319037e-01 -1.44371361e-01  5.84963616e-03
  -5.39374910e-02 -4.72871624e-02 -5.41097000e-02 -2.63297427e-02
  -1.52396280e-02  1.34395629e-01  4.36732918e-02  1.09942928e-01
  -1.09566092e-01  7.12630823e-02  1.03606410e-01  1.27778217e-01
  -6.09130114e-02  8.50497261e-02 -6.99132681e-02 -4.02654819e-02
   2.00436011e-01  5.05665410e-03 -7.64705986e-02 -5.06939292e-02
   1.49642482e-01 -4.46711667e-03 -2.91955061e-02 -2.56919377e-02
   1.31749466e-01 -1.69495851e-01 -1.46916762e-01 -7.16032311e-02
  -3.69987078e-02  3.39646563e-02 -4.22008969e-02  3.68962735e-02
  -1.35960221e-01 -9.96018127e-02  1.39077276e-01 -1.62438359e-02
   2.00540081e-01 -6.58986270e-02  1.63375989e-01  5.85835055e-02
  -8.27304721e-02 -1.48268312e-01  3.98714729e-02 -2.22098932e-01
   4.64613847e-02 -7.56912008e-02 -1.00873420e-02  2.43923757e-02
  -1.53548624e-02  3.17834094e-02 -7.47485980e-02  7.02790916e-02
   5.62599190e-02  9.18551236e-02  5.17051220e-02  3.48787643e-02
   1.20409369e-01  1.48053244e-01 -9.92084518e-02  1.05927713e-01
   3.64774317e-02 -1.74407866e-02  7.23451003e-02  1.12137042e-01
   6.63158819e-02  9.60661694e-02  9.78170931e-02 -3.02463770e-02
   3.81565467e-02 -1.29222423e-02 -1.60204172e-01  1.73600718e-01
   2.99369618e-02 -1.22238584e-02 -1.57808930e-01 -1.00120388e-01
   1.38496861e-01 -5.36789000e-02 -1.58212274e-01  1.25350356e-01
   1.46021053e-01 -2.62577441e-02  5.20937815e-02 -7.27779344e-02
   3.73045132e-02 -6.77472055e-02  1.34253046e-02  2.68927235e-02
  -1.04938094e-02  1.98722973e-01 -4.70535569e-02 -1.12230524e-01]
 [ 1.25539258e-01  1.56208009e-01 -9.41574723e-02 -4.91737202e-02
   8.60465877e-03  1.44511670e-01  2.59400718e-02 -7.30657279e-02
  -1.12794273e-01  8.62307027e-02 -1.02595203e-01  1.36376927e-02
  -2.93030124e-03  6.44292384e-02  1.27721593e-01  4.87162843e-02
  -1.49515063e-01  1.97027437e-03 -6.71193972e-02 -1.60595864e-01
  -4.78022434e-02  3.58161144e-02 -1.42285079e-01 -5.49297184e-02
  -5.66725396e-02  7.02076331e-02 -5.37832975e-02 -6.98455125e-02
   9.35693011e-02  1.35786086e-01 -1.25877991e-01  1.49558529e-01
  -7.54952058e-02  1.36933640e-01 -1.03042349e-01  4.40282375e-02
