dense
Weight Shape:
(784, 128)
Bias Shape:
(128,)
weights:
[[ 6.64973930e-02  2.72005722e-02 -4.87659723e-02 -2.78364010e-02
  -7.37819597e-02  3.21431458e-03  1.39005482e-03 -1.96402296e-02
   1.35925263e-02 -6.19626567e-02  3.80150005e-02 -1.74359307e-02
   2.47007683e-02 -7.47741684e-02 -6.56118765e-02 -4.20811474e-02
  -6.42051473e-02 -8.05422366e-02  3.66166234e-02 -6.92797303e-02
   5.96506894e-03  1.42861679e-02  7.37614259e-02  6.86131194e-02
  -5.33707291e-02 -3.43222171e-03 -1.81104317e-02  6.01200759e-03
   5.20890281e-02  3.82666290e-02 -4.47335690e-02 -5.35876080e-02
   7.82257318e-03  1.64901540e-02  1.60935074e-02 -1.74058601e-02
  -4.98540588e-02 -8.66491348e-03 -5.21165058e-02 -6.58511296e-02
   1.82976499e-02  2.76880190e-02  7.52353594e-02  3.70238125e-02
  -6.54180869e-02 -2.65189968e-02 -1.55825093e-02  5.48656955e-02
  -2.29954235e-02 -3.55145186e-02 -7.21145123e-02  4.77963462e-02
  -6.68186396e-02  2.98349559e-03 -9.74965841e-03  5.47884777e-02
  -1.38052553e-03  3.79022136e-02  1.83617324e-02  5.78726307e-02
   7.26059079e-04 -6.61853477e-02 -4.90864366e-03  2.89596245e-02
   2.20381990e-02 -3.98631580e-02  4.63353917e-02 -7.72970393e-02
  -5.91003001e-02 -7.18679279e-02 -5.95238656e-02 -4.06590067e-02
   2.69258395e-02  2.35348046e-02  7.44392648e-02 -4.84502539e-02
   2.56762132e-02  3.12613845e-02 -6.47444576e-02  4.09689024e-02
   2.20558494e-02  5.86914495e-02  9.72633064e-03  6.73253015e-02
  -6.79928809e-03  6.95369914e-02  3.86062860e-02 -8.04782659e-02
  -2.79221460e-02  3.22422087e-02 -7.18720257e-02 -5.76551482e-02
  -7.25702941e-02  4.19902056e-03  6.24260679e-02 -4.98821773e-02
   6.43614158e-02 -2.21101567e-02  3.82008404e-03 -3.37326676e-02
   6.07095137e-02  4.31195945e-02 -6.47766143e-02 -1.32369101e-02
  -2.21781880e-02 -4.69795950e-02 -4.74136434e-02 -7.05502778e-02
  -7.66419172e-02  2.98273563e-02  5.62113151e-02 -8.84298235e-03
   3.30666974e-02  2.38487870e-02  5.25163636e-02  2.98516452e-02
   2.95613781e-02  7.24884793e-02  2.89751589e-03  4.38946113e-02
  -4.05549295e-02  3.76872718e-03  7.40336403e-02 -2.39216909e-02
   6.95860162e-02 -3.98546495e-02 -5.46425320e-02 -7.43461698e-02]
 [-7.77309909e-02 -5.18817976e-02 -6.23467341e-02 -7.00538605e-02
   1.56500936e-03  4.49493602e-02  1.64881647e-02 -3.34056169e-02
  -6.70776367e-02 -5.47508262e-02 -2.35374570e-02 -1.79806724e-02
   4.43955585e-02  5.29644862e-02  5.16854972e-03  5.33241779e-03
  -3.12457234e-02  4.50395420e-02  4.67619374e-02 -2.06473283e-02
   2.88031027e-02  4.41805944e-02  1.68818310e-02 -5.13792522e-02
  -3.84781323e-02 -3.84246781e-02  1.57292113e-02 -1.28059611e-02
   3.27864438e-02 -2.41291113e-02  1.94678679e-02 -8.07521194e-02
  -4.96541597e-02 -2.10709535e-02  2.24565789e-02 -3.59820388e-02
   3.91865671e-02 -1.47513524e-02  3.25290486e-02 -5.55650070e-02
   1.14920586e-02  2.79794633e-02  5.49608245e-02  2.02385336e-02
   1.54292360e-02 -6.47065938e-02 -5.90883866e-02 -4.71539870e-02
   2.52535194e-03 -7.47463554e-02  5.57665154e-02 -5.35011292e-02
  -6.20910078e-02 -5.58806658e-02 -7.10670128e-02 -3.45769376e-02
  -5.34150153e-02 -7.24879950e-02 -7.49880075e-02  7.51784518e-02
  -2.89901793e-02  5.30999973e-02  7.72231147e-02 -3.27331685e-02
  -6.01484925e-02  5.07350266e-03 -7.12426454e-02  6.15431741e-02
  -6.30719438e-02 -2.79828906e-03  9.15639848e-03  2.99036652e-02
  -1.96189582e-02  1.59009919e-02 -3.06128785e-02 -6.34164363e-03
   5.95608875e-02  4.58675995e-02  8.18986446e-03  4.02767882e-02
   1.41356587e-02 -4.24692035e-03  6.73829764e-03 -1.68940574e-02
  -3.80704403e-02 -5.56242988e-02 -1.98082961e-02 -2.34727710e-02
   2.81546861e-02 -3.77272442e-02  5.33760265e-02 -7.68314749e-02
  -7.79635385e-02 -7.02423751e-02  7.11242035e-02 -5.72203472e-02
  -1.37702227e-02 -2.21122056e-03 -7.75004998e-02  3.22578475e-02
  -4.60028388e-02  2.63436362e-02 -2.03035697e-02 -4.91819382e-02
  -5.62903658e-02  4.32406738e-02 -1.76645145e-02  7.44935051e-02
  -8.51120800e-03 -2.16377005e-02  5.05479053e-02  2.21204609e-02
   5.78531548e-02  1.17512271e-02  1.82154402e-02 -3.63786519e-03
   7.54544511e-02  3.43766287e-02 -6.32541627e-02  7.62834400e-03
   4.65174764e-03 -3.02292444e-02  6.86218813e-02  6.90929219e-02
   5.74145541e-02 -1.97568201e-02  2.24983171e-02 -2.55946070e-03]
 [-4.45475914e-02  3.43972668e-02  7.68487379e-02 -2.32857093e-02
   8.00620690e-02  7.16707930e-02  6.44379184e-02 -6.69720918e-02
   5.70794269e-02 -7.70441517e-02 -3.52541059e-02  7.03787878e-02
  -1.14129633e-02 -7.80279189e-03 -4.58397754e-02  6.76858798e-02
   4.12302241e-02 -3.92038971e-02 -2.47693472e-02 -3.51324677e-03
  -7.97976404e-02 -1.24042034e-02 -2.30177604e-02 -3.78816798e-02
   3.14601809e-02  5.63469753e-02 -7.69680589e-02 -6.84805512e-02
  -5.19928560e-02 -1.01415440e-02 -5.21322079e-02  6.19851053e-04
  -4.02096063e-02  6.90460131e-02 -5.27450778e-02  4.69411835e-02
   2.85820663e-02 -7.46363848e-02 -6.98144138e-02 -1.89469904e-02
   6.19047359e-02  7.85221234e-02  3.34484726e-02 -4.82674874e-02
   3.27225029e-03  4.93806526e-02 -7.04848915e-02  6.90562502e-02
   1.32642388e-02  8.33275914e-03  6.30402640e-02  2.49422491e-02
  -3.41434702e-02  4.93514314e-02  6.38196990e-02  5.79720065e-02
  -7.69672096e-02 -4.48146164e-02  7.47720078e-02  7.98360258e-03
   8.47934186e-03 -1.06190443e-02  6.49792030e-02 -6.64782301e-02
   3.63874063e-02  6.98824227e-03 -3.29848342e-02 -6.64259791e-02
   2.11036578e-02 -2.15518214e-02  1.49290338e-02 -4.77339067e-02
   7.57722482e-02  6.45932034e-02 -2.62743682e-02  5.15006706e-02
  -1.62391067e-02  5.74044660e-02 -3.68079394e-02  1.42943114e-03
  -6.52038902e-02  1.68515891e-02 -1.92330219e-02 -6.13614321e-02
  -7.97691718e-02  4.85210642e-02  4.31642830e-02 -1.47798657e-03
  -2.07890011e-02 -5.34340218e-02  6.47071823e-02 -1.21838450e-02
  -6.98288381e-02  2.36784890e-02 -5.64945787e-02  6.41263947e-02
   3.57360989e-02  4.96138409e-02 -4.48410884e-02 -7.83964023e-02
  -9.39978659e-03 -6.09864593e-02 -2.75509283e-02  6.63134530e-02
  -6.67695776e-02  3.78594175e-02  8.21897388e-03  1.15230754e-02
  -2.63839774e-02  3.71270031e-02  2.07008421e-03 -5.55417240e-02
  -6.17837161e-03 -3.02209295e-02  6.92644939e-02  4.66064438e-02
  -6.87682331e-02 -2.87843645e-02  4.71180603e-02 -3.15090902e-02
  -5.24284691e-03  5.85651472e-02  5.26810810e-02  6.82815090e-02
   2.40400583e-02  4.10411134e-02  6.47937283e-02 -4.19187993e-02]
 [ 2.68659294e-02 -5.50646335e-03  1.75896958e-02 -6.43024743e-02
  -3.38817053e-02  6.12194836e-03  1.56770349e-02  6.40819222e-03
  -2.39058137e-02  5.43514714e-02  5.96000925e-02 -5.80710173e-02
  -6.10497557e-02  7.65802637e-02  7.79007003e-02 -3.05796936e-02
  -4.87282239e-02  1.46055222e-02  3.30968797e-02 -1.24687701e-03
   2.51528248e-02 -4.15643305e-02 -5.86122572e-02 -8.10598135e-02
  -7.63526931e-02 -8.78208131e-03  6.22119233e-02  6.14025220e-02
  -1.61147043e-02 -4.51573879e-02 -7.65238404e-02  7.98096135e-02
   1.33969188e-02 -7.64951557e-02 -5.89689352e-02 -7.51356781e-03
   3.68204340e-02  6.04829118e-02 -2.30340436e-02 -5.78456298e-02
  -3.52173634e-02  3.99852991e-02 -3.68430391e-02  5.49327061e-02
   5.84372357e-02  9.37211514e-03 -6.48091584e-02  1.86023414e-02
  -2.35782042e-02  3.99921238e-02  3.31667736e-02  3.31924707e-02
   6.43857792e-02 -4.72203009e-02 -8.06989521e-03 -8.42556357e-03
   1.10128522e-02 -4.87525128e-02  1.97945461e-02 -7.49566257e-02
   7.37722963e-03  6.09090552e-02 -4.27003577e-02  6.90798238e-02
  -5.57405800e-02 -1.57600790e-02  7.30721578e-02 -3.20917331e-02
  -5.16584218e-02 -7.32520074e-02  6.82867691e-02  2.33398601e-02
  -9.49230045e-03 -1.15433186e-02 -1.42458901e-02 -2.45719217e-02
   3.69437560e-02 -8.41378421e-03 -6.58408552e-02 -5.79424948e-02
  -1.27919018e-02 -1.77130699e-02 -2.03878842e-02 -6.34875000e-02
  -7.37585872e-03 -5.49380034e-02  1.35264248e-02 -2.04811543e-02
  -5.18182702e-02 -5.83438575e-03 -6.60877898e-02 -9.08350945e-03
  -2.06251107e-02  1.71732828e-02  3.70097160e-02 -6.54293224e-02
  -1.64797157e-02  3.39321047e-03  5.14277592e-02  4.15680408e-02
   7.23295137e-02  2.78918445e-02  3.65376472e-04 -1.55873448e-02
   3.99016589e-02 -1.21479481e-03  1.20622665e-03 -3.35855223e-02
  -3.14351209e-02  7.23458752e-02  3.55935916e-02 -3.87560986e-02
   2.60728598e-02  7.76058212e-02  7.75696859e-02  7.31647238e-02
  -2.30079740e-02 -4.45450768e-02  2.26755440e-03 -5.88436425e-02
   4.64386716e-02  2.20989361e-02 -3.75397988e-02 -1.23299807e-02
   1.03993043e-02  2.04420686e-02 -3.32707725e-02 -6.19570911e-02]
 [ 5.31959161e-02  2.44847015e-02 -3.57907079e-02 -4.58326600e-02
   3.42228562e-02  4.59120423e-03  2.11991891e-02 -3.81414704e-02
  -2.69725174e-03  5.61783984e-02 -8.04493800e-02 -5.97220436e-02
   5.16878888e-02  2.60851830e-02  1.62070245e-02 -9.68512148e-03
   6.19796589e-02  3.68565321e-04  4.59605083e-02 -3.79736125e-02
  -7.59161860e-02  6.29412010e-02  2.79171765e-03 -3.67655680e-02
  -6.61350340e-02  7.01101348e-02  4.79998961e-02 -9.61332023e-03
   6.33579716e-02 -1.66172683e-02 -8.41137022e-03  3.80011350e-02
  -1.91981569e-02  1.33018494e-02 -6.43775910e-02 -6.53720200e-02
  -3.99554819e-02  4.44813445e-02  5.14135137e-02  3.20790857e-02
  -6.01707697e-02  6.64069876e-02 -7.94935971e-03 -1.81791782e-02
  -5.19278422e-02  3.35567072e-02  1.50540918e-02  6.87463209e-02
  -3.64377089e-02 -1.60521641e-02  3.52361798e-02 -3.65543962e-02
  -3.72936204e-02  3.20448205e-02  4.75459173e-02  4.06351686e-03
  -1.43544376e-03  7.43426755e-02  6.24711588e-02  6.93523064e-02
   6.62476346e-02 -2.84552053e-02  6.54669777e-02  1.37873963e-02
  -7.97267258e-02 -5.91940917e-02  2.08956748e-02  4.11810800e-02
  -4.21002321e-02 -4.79218550e-02  4.13902104e-02  4.04126793e-02
  -2.22117379e-02 -2.37473547e-02 -4.81917001e-02  5.13096079e-02
  -6.02457263e-02  5.43094948e-02 -2.25977711e-02  7.59018436e-02
   8.90261680e-03 -5.27064577e-02  3.49126533e-02  4.66290489e-02
   7.24970028e-02 -2.05911137e-02 -7.93827325e-02 -4.19903137e-02
   6.02719709e-02 -1.26903132e-02 -7.15690851e-03 -4.10387143e-02
   1.27820745e-02  4.57615331e-02 -7.97767341e-02  7.14169964e-02
  -6.60108775e-02 -7.32795447e-02  4.26138937e-02  6.99543878e-02
   3.38393152e-02 -7.27038085e-02  7.58494958e-02 -3.25533003e-02
   5.78194335e-02  2.99319401e-02  5.78076318e-02 -1.06915236e-02
   7.96305016e-02  1.95795447e-02  5.73696122e-02 -2.16917694e-03
  -2.25238204e-02 -7.83738494e-03  4.43048701e-02  7.69814774e-02
   3.66145149e-02 -5.92138357e-02 -7.03114867e-02 -1.64012164e-02
  -2.24322341e-02  3.84132117e-02  1.33620128e-02 -5.21596484e-02
   4.28989232e-02  3.30429524e-03 -7.15271905e-02  1.56322271e-02]
 [-5.25108911e-02  2.90248543e-02 -5.56765310e-02 -2.83168778e-02
  -1.22154802e-02  6.56987727e-03  2.73016021e-02 -4.26867604e-03
  -7.67621249e-02 -7.87301436e-02 -1.50493532e-02 -7.30071068e-02
   7.90045932e-02  1.03895217e-02  4.00044844e-02  7.31352195e-02
   3.84816676e-02  7.51737133e-02  2.32540816e-03  7.01086596e-02
  -4.36687805e-02 -5.97563386e-03  3.37011442e-02 -4.59504128e-02
   1.03018209e-02 -4.26206738e-03  4.29041088e-02 -6.34265691e-02
  -5.21343574e-02  5.69129661e-02  6.56020865e-02  3.77563462e-02
   1.46838427e-02  4.24863398e-02 -3.12151685e-02 -6.05725832e-02
  -7.62511045e-03 -3.83003540e-02  5.39044514e-02  2.14946195e-02
   5.85304126e-02  2.00779289e-02 -6.34995922e-02 -3.02037187e-02
  -5.17389439e-02 -2.56857686e-02  6.13413975e-02 -4.32515964e-02
  -1.46954060e-02 -4.02387679e-02 -5.94519861e-02  2.19433829e-02
  -3.71179730e-02 -1.13934651e-02 -1.27248466e-04  5.45152053e-02
   6.75388798e-02 -7.97289833e-02  2.87333876e-02  5.13631478e-02
  -7.63298199e-02  6.54456988e-02 -3.69384736e-02 -7.95719400e-02
  -2.41827369e-02  1.79109946e-02 -6.73252270e-02  1.27027482e-02
   6.35543987e-02 -1.20477378e-03  1.09327883e-02 -7.29516298e-02
  -2.52750814e-02  6.52333349e-03 -7.17456341e-02 -5.16695604e-02
  -5.68705164e-02  3.10136452e-02 -5.53644523e-02 -2.44967341e-02
   1.22832209e-02 -2.86507346e-02 -5.00160567e-02 -4.08254154e-02
   7.45264962e-02 -6.67789951e-02 -6.42236918e-02  4.89831790e-02
  -5.90074211e-02 -2.01967843e-02  1.75449252e-02 -4.85581420e-02
   1.93012878e-02  4.89913002e-02 -2.11706422e-02 -3.89872305e-02
   2.76434422e-02 -5.96116818e-02 -8.75893235e-03 -2.14388855e-02
  -7.80961365e-02 -4.53754254e-02 -3.92456874e-02 -3.81329618e-02
  -2.80895755e-02  2.91659459e-02  2.54221261e-04  5.87423891e-03
  -6.66505322e-02  4.95859236e-03 -7.41906464e-03 -1.73515007e-02
   7.98678920e-02 -2.21798904e-02  3.44439894e-02  4.19857502e-02
  -1.55032426e-02 -1.24131963e-02 -6.75301924e-02 -3.35524715e-02
  -3.66768055e-02 -5.42081147e-02 -5.06656319e-02 -3.09549272e-04
  -5.84514812e-02  2.52102762e-02  1.91536993e-02 -6.66351989e-02]
 [-3.94657999e-03 -5.83231449e-03 -1.35178193e-02  3.58523801e-02
  -1.49471313e-03  2.37576589e-02 -5.86477816e-02 -3.51063907e-04
   5.13348728e-03 -6.96413368e-02 -4.47338000e-02  4.53004166e-02
   1.54176503e-02  3.92908230e-02  1.20504871e-02 -7.44711161e-02
   4.66613695e-02  3.63724381e-02 -7.41692483e-02  4.24691141e-02
  -1.13225952e-02 -4.71542776e-02  6.99270442e-02 -7.32411444e-02
   2.16305107e-02  4.04429585e-02  2.67344639e-02 -3.18941735e-02
  -1.34861842e-02 -2.19419487e-02 -4.16431725e-02  4.20650020e-02
  -3.97361442e-02 -7.73023590e-02 -8.05420056e-02  2.89363787e-02
  -2.40688920e-02 -3.23845930e-02 -3.82737815e-03 -5.14402837e-02
  -5.69660664e-02  6.54319152e-02  1.63597390e-02  2.90958062e-02
   4.83351573e-02 -2.18844973e-02 -5.55556491e-02  7.51456097e-02
  -4.93074246e-02  2.31448859e-02 -6.08250834e-02  6.84361160e-03
   1.22580677e-02 -3.49991135e-02  6.54814020e-02 -6.35840371e-02
  -4.57969233e-02  5.08603677e-02  5.89931235e-02 -3.84479612e-02
   2.94748396e-02  5.77692613e-02  6.73903748e-02 -3.87359411e-03
  -6.02843091e-02  3.19252908e-02 -3.67823541e-02 -2.87271030e-02
  -6.58569261e-02 -4.20996919e-02  1.69421509e-02 -1.34599805e-02
  -4.33714762e-02 -2.34678201e-02 -3.30305509e-02 -9.80813056e-03
  -7.35729262e-02 -5.13605699e-02  4.50113192e-02  5.36308363e-02
  -5.72888032e-02 -4.58772331e-02  3.11304629e-02  3.73449624e-02
   1.85135975e-02 -3.74562964e-02  1.55290589e-02 -4.85711768e-02
  -1.17229372e-02 -6.28315881e-02  5.86170927e-02  8.32324475e-03
  -4.49788533e-02 -4.06782106e-02  2.77008414e-02  5.13919368e-02
  -2.20795237e-02 -2.10373625e-02  2.08112821e-02  5.78611270e-02
   2.13360265e-02 -6.10949695e-02 -3.99326235e-02  6.99330196e-02
  -5.68843633e-02  5.61733469e-02  1.81625336e-02  1.83618143e-02
   6.90707192e-02 -7.50676841e-02  3.22027504e-03  4.12700176e-02
   8.84618610e-03 -1.96865946e-03  2.33225301e-02 -5.47862053e-03
  -7.29143620e-02 -6.19060770e-02 -7.05092177e-02 -3.27496827e-02
   5.73650971e-02 -1.96960568e-03  2.08350420e-02  1.30625740e-02
  -3.17311138e-02 -1.83930248e-02  2.98784301e-02  2.22156420e-02]
 [-3.16343643e-02 -6.60038218e-02  1.94313526e-02  4.25838679e-02
  -5.37428781e-02 -7.07805157e-02  7.51842931e-02 -5.78344539e-02
   6.89355806e-02 -4.42428775e-02 -3.79169919e-02  8.97927582e-03
  -1.41334385e-02 -1.94213949e-02 -2.33579203e-02  3.91704962e-02
  -1.92291737e-02 -3.90584357e-02  5.18458113e-02  6.97028115e-02
   6.97472319e-02 -5.70882671e-02 -1.71552598e-02  9.17810947e-03
  -1.10856444e-03 -4.30049375e-02  2.11064816e-02 -1.65270492e-02
  -4.28690836e-02 -2.64545046e-02  6.29736856e-02 -3.77858952e-02
   1.88583806e-02  2.47129127e-02 -3.42224278e-02  5.32344952e-02
  -6.21736422e-02 -1.60428435e-02  7.82370344e-02  6.03505448e-02
  -6.05594739e-02  4.40762565e-02 -4.91990149e-02 -6.52014390e-02
   6.23565167e-03  2.61033401e-02  3.38406935e-02  1.57530755e-02
  -3.74235921e-02 -9.48959589e-03 -3.32799181e-02 -2.75698788e-02
   2.16351077e-02  4.39888462e-02  4.33680713e-02  1.34717375e-02
  -7.55504817e-02  2.40193307e-03  3.33184972e-02 -4.99690250e-02
   6.44044057e-02 -5.86369932e-02 -8.03494975e-02 -2.32024789e-02
   5.76739088e-02  4.18019369e-02  1.58380494e-02  7.96959326e-02
   2.80426219e-02 -9.48421657e-03 -9.46526974e-03  6.46342412e-02
   7.12655410e-02 -3.49429548e-02  4.72467169e-02 -5.86524084e-02
  -7.51471072e-02  4.87151667e-02  3.76201645e-02  3.28257978e-02
   4.80627194e-02  6.57286420e-02 -4.59167250e-02 -4.49148826e-02
  -4.47367206e-02 -1.67237818e-02  4.23400849e-02 -8.10988247e-03
  -7.27153122e-02 -1.64274573e-02 -2.31163278e-02 -3.07146944e-02
  -7.70901442e-02 -2.48973072e-03  3.55099365e-02  4.63026538e-02
  -7.87289441e-03 -6.75078183e-02 -1.04636028e-02 -2.70733982e-03
   7.83408806e-02 -3.82752344e-02  7.42465779e-02 -4.09253351e-02
  -7.93454871e-02 -4.39708456e-02 -1.59739554e-02 -4.91546132e-02
  -4.40723337e-02 -4.99745011e-02 -6.96425587e-02  8.09164569e-02
   7.59477168e-03 -5.10987714e-02  3.10635716e-02 -2.98330002e-02
   5.21676913e-02 -7.29174167e-03  2.20649987e-02  2.60336474e-02
  -7.77988732e-02 -2.21651532e-02  2.60039568e-02  6.47293255e-02
   3.24585438e-02 -5.58711737e-02  1.23371407e-02 -9.61832702e-04]
 [-5.53406626e-02 -2.25658044e-02  4.54950109e-02  7.97990039e-02
   4.18960974e-02  3.20215747e-02 -5.77797443e-02 -7.31888711e-02
   3.83951515e-02  4.74079028e-02 -6.15782514e-02  5.27100191e-02
   4.50060889e-02  1.32483244e-02 -2.76237726e-03  7.73017630e-02
  -7.89221153e-02 -6.72557652e-02  2.79101953e-02  4.26312536e-03
  -7.85461217e-02  5.04409596e-02  1.87503546e-02 -2.71511860e-02
   3.32231596e-02 -7.55522847e-02  7.04041868e-03 -7.11672753e-03
   1.37514621e-02  7.07154050e-02  5.54763451e-02  9.63084400e-03
  -7.45204836e-02  1.09243989e-02 -1.58890411e-02 -2.26380117e-02
   1.07120275e-02  5.35448641e-03  7.81602636e-02  6.22304603e-02
   1.71700120e-02 -2.34354101e-02 -6.66522756e-02  4.05189618e-02
  -7.80215338e-02  3.58563587e-02 -6.29668012e-02 -3.14588100e-02
  -4.73044999e-02 -4.40324955e-02  7.54829124e-02  8.10974017e-02
  -7.34434202e-02  4.33926284e-03  4.34644744e-02  4.75223884e-02
   5.68084642e-02 -1.61344111e-02  6.94730207e-02 -9.93833691e-03
  -3.51393148e-02 -5.09090200e-02 -1.90272033e-02 -4.25739251e-02
  -5.98514192e-02 -6.16200790e-02 -3.54019888e-02 -5.51673919e-02
   5.04385680e-03 -3.56384367e-02  6.46487549e-02 -1.91787407e-02
   5.82248047e-02 -8.09472203e-02  1.94147229e-03  6.00022599e-02
  -7.03820884e-02 -6.27247393e-02  5.63246533e-02 -2.06299126e-04
   3.77576426e-02 -1.60596296e-02 -6.41019195e-02 -8.08337480e-02
   2.64509469e-02 -4.42211628e-02 -6.02915585e-02 -2.40798779e-02
   6.01719394e-02 -4.30991128e-02  3.66635621e-04  4.53653112e-02
  -7.76794329e-02 -4.51434255e-02 -7.24466071e-02 -2.82064751e-02
   8.64524394e-03  2.36682445e-02  6.95337728e-02 -3.48672271e-02
   1.86034292e-03 -2.13041753e-02  7.15469643e-02  3.92564014e-02
   1.62810683e-02 -6.13500997e-02 -4.08702381e-02  3.50253358e-02
   3.27063799e-02  7.82319680e-02 -8.36064667e-03  5.40237501e-02
  -6.54631630e-02 -7.52192736e-02  6.05788156e-02  4.28744033e-02
  -4.85345498e-02 -3.19207050e-02  5.83051667e-02  5.64094111e-02
  -4.81528305e-02 -1.56202018e-02 -5.07988036e-03  1.56353638e-02
  -1.80744827e-02  4.54401299e-02 -5.80434799e-02 -3.04936357e-02]
 [ 5.73721305e-02 -5.37504256e-03 -3.30699421e-02  6.27248362e-02
  -9.47611779e-03  6.10471517e-03  6.05304763e-02  2.42398605e-02
   1.02233887e-03  5.16307279e-02  4.60445657e-02  7.66065717e-03
   1.66814029e-03 -6.68581277e-02  2.53328234e-02  5.18542156e-02
   6.73569962e-02  6.47846833e-02  4.48908135e-02  5.66174164e-02
   4.00241539e-02 -7.96839669e-02 -9.54124331e-03  3.84511948e-02
  -6.75972551e-02  1.93516240e-02 -1.78692862e-02 -1.02285296e-02
  -1.69090629e-02 -3.66481878e-02 -1.73357576e-02 -5.35697415e-02
   3.06225568e-03  6.45368174e-02 -5.78330979e-02  6.14831075e-02
   7.84860626e-02  3.42940018e-02 -2.66508274e-02 -9.39378887e-03
   6.83756396e-02  6.57705441e-02  9.92505252e-03  6.02171570e-03
   4.45807725e-03  6.25678822e-02 -3.43706571e-02 -7.16120079e-02
   1.19546056e-02  6.72541037e-02  6.02870658e-02 -3.56379524e-02
   4.81596962e-02  7.44480714e-02 -3.53555381e-02 -3.87582444e-02
  -2.92988010e-02  2.24759802e-02 -4.02008072e-02 -7.08181113e-02
  -6.35702908e-02  2.53670886e-02 -6.37712777e-02 -2.93163806e-02
   8.07879493e-02  4.69627902e-02 -7.36831203e-02  7.69209936e-02
  -7.91545585e-02  2.08747387e-03  5.22528589e-03  1.96120366e-02
  -6.11029938e-02 -7.40650520e-02  3.22707072e-02 -6.14086352e-02
  -5.01513258e-02 -6.51092529e-02 -8.00842866e-02  2.17163488e-02
   4.36130315e-02 -7.01418892e-02  2.75499448e-02  1.39804333e-02
   2.61525586e-02 -5.53991422e-02  6.82301298e-02  2.89190561e-02
  -1.14033148e-02  3.88225242e-02 -2.73116753e-02 -6.80402815e-02
   2.07796618e-02 -6.70217499e-02  1.70883685e-02  4.75012437e-02
  -8.03955942e-02  3.16292197e-02  4.05106619e-02  3.14825177e-02
   6.97840378e-02  7.30497465e-02 -1.45494193e-02 -7.51905590e-02
   3.92690897e-02 -4.59788591e-02 -1.87722854e-02  4.19185683e-02
   1.15435719e-02 -2.41766833e-02 -3.12950537e-02  5.64465448e-02
  -7.51142278e-02  1.38074905e-02  5.50385639e-02  2.73276493e-02
  -2.25456543e-02  1.88571066e-02 -3.03349867e-02  7.70248696e-02
   7.43917301e-02 -1.77152380e-02  1.76571459e-02  2.53774151e-02
  -5.62295876e-02 -5.06687835e-02 -6.57038689e-02 -7.43946433e-03]
 [-6.30891323e-02  2.50260532e-03 -3.61800194e-04  6.14182428e-02
  -4.91891056e-03  2.37736180e-02  6.96530938e-03 -4.66033705e-02
  -2.12082565e-02  7.94687346e-02 -3.55906524e-02  4.79417220e-02
   6.47060052e-02 -4.22850288e-02 -1.26907974e-02 -7.59739354e-02
  -4.05873023e-02  1.01021752e-02  5.31487688e-02 -7.51584768e-04
   4.94206324e-02 -3.74209844e-02  3.64478230e-02  2.72052586e-02
   4.01863605e-02  8.36313516e-03  7.79463425e-02 -7.26971030e-03
  -4.21875082e-02  8.02176669e-02  4.73509356e-02 -5.86584210e-02
  -5.18942326e-02 -6.16139919e-02  7.19352290e-02 -4.39853705e-02
  -4.80573960e-02  1.47362053e-03  2.21761987e-02  7.49483332e-02
  -7.00490922e-03 -2.66960002e-02 -7.31542557e-02  5.57708815e-02
  -1.46066993e-02 -1.90223306e-02  6.26483336e-02 -4.07245271e-02
   5.71481511e-02 -2.10862681e-02  4.87045124e-02 -3.22046503e-02
   2.27361917e-02 -2.23774686e-02 -6.76455498e-02  5.49594834e-02
   1.89938098e-02 -4.78378274e-02  6.56705424e-02  3.38102132e-02
  -3.83209474e-02  4.39895466e-02  5.61069623e-02  7.86794201e-02
  -2.56256051e-02  7.30748698e-02  5.23324236e-02  1.67122558e-02
   4.69477102e-02  4.13898602e-02  5.62587753e-02  2.84969807e-04
   7.19570592e-02 -2.32839882e-02  5.15450463e-02 -4.04403508e-02
   4.27517816e-02 -3.10207903e-03 -5.48784956e-02 -7.03668147e-02
   6.22828081e-02 -2.49385163e-02  4.51520085e-03  2.78574601e-02
  -6.79428130e-02 -3.57605517e-03  6.90393373e-02 -8.12359154e-03
  -4.81170341e-02 -7.06932992e-02  4.39064205e-03  5.57865277e-02
   7.97471330e-02  1.55683011e-02 -3.27503197e-02 -5.23294508e-03
  -1.33966282e-02  8.69710743e-03 -6.59922585e-02 -2.77787335e-02
  -5.77305295e-02  1.67045593e-02  3.47415060e-02 -2.11727507e-02
  -4.14974391e-02 -1.61746144e-02 -5.88431209e-02  6.06858805e-02
  -3.53496186e-02  4.58993986e-02 -1.53519064e-02 -4.42241207e-02
  -7.93477148e-02  1.31509528e-02 -4.04247642e-02 -5.44671714e-02
   1.33637339e-03 -1.59299225e-02 -8.10646862e-02 -2.36060508e-02
  -6.92354664e-02 -5.20145521e-02  6.84186742e-02 -2.86530554e-02
   3.44121158e-02 -1.26107559e-02 -7.00475201e-02 -3.62550952e-02]
 [-5.70617728e-02  3.24142575e-02 -7.29546472e-02 -4.88267913e-02
  -6.26667887e-02 -5.46977818e-02 -7.06603676e-02  3.30862254e-02
  -7.81820193e-02 -2.85232179e-02 -4.70927618e-02  2.56877765e-02
  -6.83925077e-02  6.83041736e-02 -6.82318658e-02 -5.32624163e-02
   3.84211615e-02 -2.40761824e-02  3.98981199e-02  4.45704237e-02
   1.66789964e-02 -6.82279989e-02  2.07544267e-02 -4.61865328e-02
  -2.11582854e-02 -5.48976809e-02 -2.88953073e-02  8.02309439e-02
   3.53206694e-02  3.38861346e-03  7.00575784e-02  9.16820765e-03
  -4.15481627e-03  6.95058182e-02 -6.42804354e-02  4.54723313e-02
  -2.20345408e-02  1.09127387e-02  2.46421397e-02 -4.30569761e-02
  -1.58154219e-02  3.93609628e-02  4.45859954e-02  8.07084143e-03
  -1.49518922e-02 -3.27934437e-02 -2.99605578e-02 -4.84301820e-02
  -1.30773336e-03 -1.41899809e-02 -3.85588408e-03  5.49548194e-02
  -6.36335835e-02  3.32356170e-02 -2.64168903e-02 -2.08403841e-02
   1.67643502e-02 -7.09355697e-02 -2.72003822e-02 -8.55988264e-03
  -1.53466240e-02 -4.28901650e-02  4.51787040e-02  1.27373636e-02
  -4.91923206e-02  6.47980645e-02 -6.35197982e-02  4.98825237e-02
   6.50879666e-02 -2.33807415e-03  4.65394780e-02 -3.06208432e-03
   7.66068175e-02 -4.26395386e-02 -5.74896485e-03 -4.88635711e-02
   1.54927596e-02 -1.64999813e-03  7.26376548e-02  1.23185515e-02
  -4.91871387e-02 -4.50033359e-02  7.75820240e-02  2.25560963e-02
   6.21096268e-02  5.50184473e-02  5.76399341e-02  4.58602533e-02
   7.44244084e-02  3.47133279e-02  3.54970545e-02 -1.82145089e-02
  -2.38559395e-03  3.03954184e-02  3.44965309e-02  5.60337082e-02
   5.49919158e-03  5.35054579e-02  4.54940721e-02  5.11833802e-02
   6.98693097e-04  5.91663048e-02  1.57511830e-02  1.43255442e-02
   2.61186361e-02  3.53282318e-02 -3.28011997e-02  4.77255359e-02
  -4.75924462e-02  1.17075220e-02 -7.94932321e-02  3.58755067e-02
  -7.70311207e-02  6.65264651e-02  8.93329084e-03  3.68095189e-03
   3.23083848e-02  4.75741178e-03  5.17964885e-02 -2.89936624e-02
  -7.07802847e-02 -7.65606612e-02 -1.56530216e-02  4.01484743e-02
  -2.14645267e-03  2.73711979e-04 -5.39475307e-02 -2.74167769e-02]
 [ 2.88509745e-02  6.82858676e-02  3.39075997e-02 -5.06059453e-02
   4.66333888e-02  5.96848130e-02  3.72822285e-02 -1.80164278e-02
   2.51976084e-02  6.07289746e-02 -3.37969922e-02  1.11742795e-01
  -9.35993716e-03  5.24706580e-02  2.04880610e-02  5.43958507e-03
   4.54782508e-02 -1.11309672e-02 -6.86448365e-02 -6.02073185e-02
  -6.39741868e-02 -7.13419095e-02  2.04627439e-02 -5.14810532e-03
   2.92224400e-02  9.61313955e-03  3.42030153e-02  3.31284441e-02
  -2.52710655e-02  6.51248544e-03 -6.53128326e-02  8.54617283e-02
   2.35276669e-03  1.32944867e-01  1.87836529e-03 -3.28577422e-02
   6.40435889e-02  5.43592544e-03  7.69610750e-03 -2.93204039e-02
   5.70957139e-02  1.27085760e-01 -2.46014055e-02  3.19142044e-02
  -9.45423096e-02  2.19220705e-02 -5.93072362e-03 -1.36930216e-02
  -7.94741213e-02  5.10586835e-02 -2.14993749e-02  2.18919702e-02
   9.89266187e-02 -4.93393056e-02  2.41599306e-02 -6.96777105e-02
  -6.08118530e-03  7.90969096e-03 -5.96141480e-02  2.39236429e-02
  -4.74811345e-02  3.53815109e-02 -2.44158544e-02  4.73240763e-02
   4.98493016e-03  9.89437252e-02 -4.58541065e-02  5.04484922e-02
  -1.41203348e-02 -2.06195321e-02 -4.88036014e-02  8.92262086e-02
  -6.54306337e-02  3.30346811e-04  1.67053044e-02 -4.23890240e-02
   1.06832823e-02  6.68853149e-03 -2.14336142e-02 -7.11618513e-02
  -5.81944212e-02 -3.68159972e-02 -1.32288545e-01  6.15031719e-02
  -9.70329270e-02  7.69345835e-02 -7.36724809e-02  1.04436316e-01
  -2.45019421e-02  4.02534641e-02 -1.40650971e-02  5.31768240e-03
   7.43274763e-02  8.06569159e-02  2.38722470e-02  6.58838525e-02
  -4.25908715e-03  2.35876371e-03 -1.11766090e-03 -4.64031994e-02
   8.01468715e-02  5.21481931e-02 -1.95039101e-02 -8.91534165e-02
  -4.49511632e-02 -3.04220766e-02  4.77098525e-02  8.87604579e-02
  -3.83270085e-02 -9.69584286e-02  9.21402872e-03  1.61705799e-02
  -9.29678231e-03  1.66036244e-02  6.24172427e-02  8.71578753e-02
   7.20153600e-02 -2.00326629e-02 -3.40583436e-02 -7.23756552e-02
  -2.77715437e-02  2.75397394e-02  9.82925668e-02  4.56762537e-02
  -5.44257052e-02 -2.30906755e-02 -3.48712616e-02 -5.62479421e-02]
 [ 5.67528792e-02  5.01948893e-02 -8.37222114e-02 -2.67965067e-02
  -3.04848608e-03  3.78823504e-02  6.51102737e-02 -7.81657174e-02
   1.24268583e-03  2.36210581e-02  3.17340642e-02  6.99092150e-02
   4.27917577e-02 -2.81447303e-02  4.42430750e-02 -1.26655512e-02
  -6.31536692e-02 -4.21985611e-02 -7.39689916e-03  2.54885815e-02
   6.73041865e-02 -5.07303327e-03 -5.41462488e-02 -7.25463927e-02
   4.36082967e-02  6.52463501e-03 -1.21260842e-03  1.03599809e-01
  -2.69508883e-02  9.72598791e-04  9.03761294e-03  1.86411396e-03
   3.28496583e-02 -1.28321713e-02 -3.81438546e-02  4.82684150e-02
   5.64281717e-02 -6.46985844e-02 -7.72801489e-02 -5.44266440e-02
   3.31600979e-02  6.71801195e-02 -3.33107188e-02  1.46703413e-02
  -5.14481738e-02  6.80645332e-02 -1.62437670e-02  5.17180078e-02
   3.77074964e-02  8.14971551e-02 -2.48774681e-02  3.50253023e-02
  -3.82938869e-02 -1.25478759e-01  1.76288970e-02  4.71555553e-02
   5.99913765e-04  2.94218808e-02  1.48745840e-02 -1.87624246e-03
   8.10372010e-02  1.73735153e-02  6.29028119e-03 -7.13824108e-02
  -1.87236145e-02 -3.50407045e-03  6.31996766e-02 -1.84150860e-02
  -1.01627037e-01  3.89753170e-02  8.58996883e-02  4.32959944e-03
   4.59748553e-03 -6.33296818e-02  1.80427078e-02  3.81755196e-02
  -8.13783184e-02  1.01356409e-01 -8.24760944e-02 -6.86857244e-03
  -3.00706644e-02 -1.05063595e-01 -2.87401937e-02 -9.26306844e-03
  -3.97658050e-02 -6.93020076e-02  1.15569904e-02  5.71992658e-02
   1.16572268e-01 -2.23718714e-02  1.15422219e-01 -1.25551354e-02
   3.86977904e-02 -1.31739192e-02 -3.48550566e-02 -4.86536734e-02
  -9.42666829e-03 -1.96087062e-02 -4.61972542e-02  8.45646113e-03
  -1.16602611e-02  1.23213410e-01  1.49757080e-02 -8.17681774e-02
  -4.94035929e-02 -5.59828505e-02 -5.23899384e-02  6.37192577e-02
  -1.92613136e-02 -9.12923068e-02 -2.86484659e-02 -6.15575816e-03
   3.53208296e-02  2.24845037e-02  2.62624845e-02  7.29172677e-02
   8.76452699e-02 -1.92113630e-02  7.02903941e-02 -1.11488635e-02
   5.71227334e-02  2.32232884e-02  6.36466742e-02 -7.64289424e-02
   2.84094643e-02  3.24995182e-02  3.37290429e-02 -3.68549079e-02]
 [-3.37556042e-02 -1.38757586e-01 -1.12161338e-02  3.24753448e-02
   1.17533263e-02  5.50192744e-02  1.04165904e-01 -2.59616859e-02
   5.16126528e-02 -6.26437664e-02  5.46057262e-02 -2.02548392e-02
  -3.64236012e-02 -2.68884432e-02  4.69936468e-02  9.72944603e-04
  -3.81710380e-02  1.85000803e-02  1.38051510e-02 -2.07235990e-03
  -3.34551036e-02  2.32226104e-02 -6.72164485e-02 -3.83149832e-03
  -3.19580622e-02  6.31384924e-02  6.64405152e-02  1.11740073e-02
  -7.54701942e-02 -5.91855422e-02 -2.41846964e-02  2.12217066e-02
  -1.86531618e-02  5.47583476e-02  4.25534397e-02 -6.63986728e-02
   8.40335190e-02 -5.63595891e-02 -4.84150201e-02  4.42321561e-02
  -6.43074289e-02 -9.13161859e-02  7.76495412e-02  9.44246650e-02
  -2.69307047e-02 -7.27866143e-02 -8.55970569e-03  7.31144100e-02
  -5.51213250e-02 -8.23645219e-02  1.87009685e-02 -3.16874832e-02
   6.04823120e-02  6.17140457e-02  7.89828524e-02  3.00799645e-02
  -7.87828639e-02  1.70943197e-02 -9.14913192e-02  7.81981722e-02
  -3.03026512e-02  4.37180791e-03  2.96906829e-02  1.57562569e-02
   2.91664526e-02 -8.12616721e-02 -4.27951738e-02 -3.57062072e-02
   2.92071775e-02 -4.71111983e-02  8.97255018e-02  8.30563158e-02
   1.13308430e-02  3.81564945e-02  8.91223270e-03 -1.36174336e-02
   1.66801736e-02  6.07459359e-02 -8.76167268e-02 -2.30597649e-02
   2.81620547e-02 -1.96892787e-02  2.37180907e-02  2.33071484e-02
   5.74311465e-02 -1.80734135e-02  7.80094042e-02  2.55764890e-02
   4.24582735e-02  7.53939971e-02  3.15772258e-02 -4.03307192e-02
  -2.15993058e-02  1.09966218e-01 -3.23566087e-02  2.71165520e-02
   2.36996636e-02  1.09432817e-01 -1.05396181e-01  4.05762345e-03
   1.44696496e-02  4.56685722e-02  2.35127714e-02 -1.96015723e-02
   8.05874839e-02  5.99398427e-02  6.28307462e-05  3.72947901e-02
   5.51464297e-02 -6.15122654e-02 -5.49023226e-02 -1.64269712e-02
  -5.44259511e-02  2.67653558e-02  6.60360083e-02  1.26490727e-01
   6.62277713e-02  7.99431726e-02 -4.77439240e-02 -1.66976526e-02
   8.00703317e-02 -5.96055873e-02  9.07657146e-02  4.67535630e-02
   4.17915499e-03 -9.06612426e-02 -3.86084616e-02 -5.44591285e-02]
 [-4.69896756e-02  2.45428327e-02 -7.07458407e-02  7.34645948e-02
  -9.33940932e-02  3.16183269e-02  7.39617348e-02 -5.35611734e-02
  -5.17640226e-02  5.28817996e-02 -9.77379177e-03  4.49231789e-02
  -3.71111073e-02 -5.17061539e-02 -8.07308033e-02 -4.16065343e-02
   7.72820693e-03  1.37318280e-02 -5.73542044e-02 -5.75518347e-02
   1.88668147e-02  3.30275297e-03 -9.60837379e-02 -6.03693724e-03
   2.55619176e-02  5.41770197e-02  7.10160658e-02  8.07242543e-02
   7.58924186e-02 -9.98596847e-03 -2.61503435e-03 -7.22328126e-02
  -1.35293687e-02 -4.92490791e-02  8.00584850e-04 -2.29599774e-02
   5.37775792e-02  5.39714769e-02  3.34150307e-02  5.09514213e-02
   3.50130945e-02  6.38666824e-02  4.26579602e-02  8.15834925e-02
   5.40044755e-02 -5.25687542e-03  4.83319815e-03  6.68787807e-02
   2.35109459e-04  5.49140833e-02  3.81960683e-02 -3.01678870e-02
  -7.68032158e-03  8.97196680e-03  1.62061248e-02 -2.83251181e-02
   3.46848443e-02  2.95309834e-02 -2.66546942e-02  1.62270367e-02
  -3.23655456e-02 -4.74490002e-02  6.20083362e-02 -7.25840703e-02
   5.03833070e-02 -6.18416891e-02  6.16676882e-02  3.56986523e-02
   6.33989647e-02 -7.52800331e-02  1.04549546e-02 -6.90511838e-02
  -3.13907266e-02 -7.34153613e-02 -7.77356997e-02  6.07424304e-02
   7.24617094e-02  2.84529235e-02 -3.78506840e-03  6.40158057e-02
  -6.31197840e-02  1.05129518e-02 -6.05765767e-02 -9.08398032e-02
   2.66481824e-02  6.57135202e-03  3.99422124e-02  4.01064008e-03
  -2.65322533e-02 -7.12725222e-02 -4.28913534e-02 -4.31006402e-03
  -7.64770061e-02 -1.10260854e-02  5.77551313e-02 -1.98982581e-02
  -3.67924683e-02  5.83995655e-02 -8.13363567e-02  7.53457025e-02
   4.51439098e-02 -2.92245001e-02 -3.21674184e-03  7.44517148e-03
  -5.27452901e-02 -6.52174279e-02 -9.89871472e-03  4.34436090e-02
   4.95669805e-02 -4.91023995e-02 -2.55311653e-02  2.23546289e-02
   2.92361472e-02 -5.39144985e-02  1.78016871e-02  5.59200123e-02
   1.88352093e-02  7.15576187e-02  2.28791684e-03  9.55598056e-03
  -3.83314975e-02  3.39869857e-02 -3.47650163e-02 -4.58406284e-02
  -1.08599709e-02 -2.59809177e-02  2.56669186e-02  3.74203995e-02]
 [-3.91137600e-02  2.11355835e-02 -4.01736945e-02  5.55490479e-02
   7.17476383e-02  4.25022840e-03 -2.66745351e-02 -2.62348019e-02
   1.73268244e-02  6.05312213e-02 -5.94045110e-02 -8.06697533e-02
  -1.76312774e-03 -5.41365817e-02  5.00613227e-02  4.25997972e-02
   2.64414102e-02  5.08377478e-02 -6.12360612e-02 -3.38689052e-02
   3.85318175e-02  1.85588300e-02 -7.39324316e-02  6.01352677e-02
  -5.73332608e-03 -4.70583886e-03  2.08368823e-02 -1.15803704e-02
   8.04720595e-02 -2.15627253e-02  2.18611583e-02  3.17831337e-02
  -5.59201166e-02 -2.26337016e-02 -5.75403124e-03 -4.16130051e-02
   1.04341358e-02  2.12666988e-02  4.70382646e-02 -4.16722186e-02
  -4.79064211e-02  4.64827344e-02 -7.33102560e-02 -9.61523503e-03
  -2.46672593e-02  5.14911115e-03  7.72764608e-02  3.35845128e-02
   1.98932514e-02  2.20568776e-02 -2.57760771e-02 -5.37836552e-03
   6.58126846e-02  7.89448544e-02 -2.57167481e-02  7.52318725e-02
   1.24048442e-02  2.84839049e-02  1.22290552e-02  4.13296968e-02
  -3.66572551e-02  2.43092477e-02 -9.26636904e-03 -7.77166784e-02
  -3.62497978e-02  4.43734154e-02  5.41348234e-02 -6.80290237e-02
   6.30937517e-03 -1.52984336e-02  4.24992219e-02 -2.12775655e-02
   7.83860683e-04  5.52344397e-02  3.76081616e-02 -1.21820495e-02
  -2.21147947e-02  7.85674155e-03 -5.80515862e-02 -6.77501261e-02
  -5.37365712e-02  8.12985748e-03  2.71281898e-02 -6.95313960e-02
   7.35738501e-02 -4.43495102e-02 -4.09990326e-02  3.51800397e-02
  -1.78478658e-03  6.30589798e-02  6.26616552e-02 -4.77007590e-02
   2.17428654e-02  5.76143190e-02 -3.78466956e-02  4.13820893e-02
   6.38223663e-02  5.89370802e-02  3.47238332e-02  1.79211125e-02
  -2.13828012e-02  2.91041210e-02 -4.49830145e-02 -1.78837925e-02
   7.31700584e-02  7.38629475e-02  2.19199806e-03  1.43583193e-02
   2.60932446e-02 -1.91228837e-03 -7.38090724e-02 -4.54436317e-02
  -7.68471360e-02  7.28653446e-02 -4.68554646e-02 -1.61867589e-02
  -7.56106079e-02 -7.74200484e-02 -2.49060877e-02 -1.18900016e-02
   1.25798509e-02  2.73749307e-02  5.85558265e-03  6.46081194e-02
  -5.77295646e-02  7.55662397e-02  4.20252234e-02  3.96007374e-02]
 [ 2.27140710e-02  4.22188118e-02  7.23178685e-03  5.98656163e-02
  -8.39568675e-03 -7.45037198e-03 -2.62993723e-02 -8.05333853e-02
   1.42365471e-02 -9.46959853e-03 -4.27080952e-02 -2.30497122e-03
   1.69121772e-02 -6.09967485e-02 -1.93926580e-02  6.04564026e-02
  -3.32033373e-02 -6.80207089e-02  1.49203464e-02  7.41525367e-02
  -2.46325471e-02 -3.44598442e-02 -2.77733579e-02 -5.68334833e-02
  -2.04690471e-02  8.07809085e-03 -1.02941692e-03 -5.12121692e-02
  -1.20109245e-02  4.15149182e-02 -2.63791047e-02  5.43400571e-02
  -5.95806055e-02  3.35433632e-02  5.27747795e-02 -2.46418267e-02
   4.55726683e-03  3.28977183e-02  7.22787902e-02 -2.38235854e-02
   2.54414976e-04 -3.99383865e-02 -6.74359947e-02 -6.15900010e-03
   2.81964988e-02  3.13695669e-02  5.08112684e-02 -3.04529294e-02
   1.52107105e-02 -3.43290977e-02 -7.32508674e-02  3.78007889e-02
  -7.19307959e-02  7.07665607e-02 -2.51682959e-02  6.85357675e-02
   1.69622824e-02 -7.43167177e-02  1.84533969e-02  1.77229121e-02
   5.59224561e-02 -1.30368546e-02  1.79954693e-02 -6.86776713e-02
   3.42930108e-03  1.24305487e-04  1.76219642e-02  1.93313584e-02
  -6.20037727e-02  2.59010419e-02 -5.89397550e-02 -1.37212574e-02
   1.09470412e-02 -3.40995342e-02 -1.14116818e-02 -6.26916364e-02
   6.60443231e-02  2.87036076e-02 -3.06184255e-02  1.23611763e-02
  -6.42765239e-02  5.58695421e-02  4.65642288e-02 -5.47944158e-02
   1.55965909e-02  7.92795643e-02  5.37349060e-02  2.78443694e-02
   3.08395028e-02  1.59108937e-02 -7.54655898e-02 -3.13120931e-02
   1.73672810e-02  3.93997133e-02 -6.46816790e-02  2.61632130e-02
  -8.06970596e-02 -7.94296116e-02  6.46591559e-02 -1.73824653e-02
  -6.18623905e-02  4.85400930e-02 -7.81665519e-02  2.09233090e-02
  -7.22142756e-02  6.18177578e-02  6.45071268e-04  2.09366083e-02
  -9.12225991e-03  5.56318089e-02  4.70114425e-02 -7.50634074e-02
   1.53805241e-02  8.01103935e-02  7.27959797e-02 -1.72478855e-02
   9.25585628e-04 -6.71069548e-02  2.94164717e-02  1.66492090e-02
  -2.07991526e-02 -7.53587633e-02 -4.94060703e-02 -6.96906149e-02
  -1.83945894e-03 -6.57401085e-02  1.34072825e-02 -5.98664843e-02]
 [ 2.86163315e-02 -7.81007409e-02 -7.79186189e-03  1.64319575e-03
   2.98850387e-02  1.77789181e-02  4.16672677e-02  5.50349280e-02
  -3.88959534e-02  2.40686536e-03 -9.13435221e-03  6.49662390e-02
   4.28158268e-02  3.99144664e-02 -9.13148373e-03  5.58649078e-02
  -6.24781772e-02  2.08697990e-02  2.63173729e-02  5.17903492e-02
  -5.19371815e-02 -9.70853865e-03 -5.33837639e-02  3.34272385e-02
   3.75509784e-02  6.14151582e-02  6.39758185e-02  1.55288503e-02
  -4.06158827e-02  3.48721445e-03 -7.86460415e-02 -2.62073018e-02
   4.93682250e-02  9.35465097e-03  7.42756501e-02 -2.88469233e-02
  -5.92453554e-02 -3.48004326e-02  7.38198087e-02  3.72251421e-02
   6.17717281e-02 -1.33261383e-02 -5.18886819e-02 -2.89830044e-02
   3.69112268e-02  9.35683399e-03  3.09733823e-02  3.45405787e-02
  -6.06683455e-02  3.90407965e-02 -6.91206753e-03  6.53420016e-02
  -4.63278554e-02  8.02329555e-02  8.00180212e-02 -2.26144977e-02
  -1.44049451e-02  2.34057829e-02 -3.74228582e-02  3.50329578e-02
  -7.86810070e-02  4.76076677e-02  2.47132257e-02 -2.69654617e-02
  -3.48077789e-02 -7.31130838e-02  2.34360844e-02 -3.24483514e-02
  -2.04896070e-02  4.38742340e-02 -1.66417062e-02  3.50953564e-02
   9.27986950e-03 -2.89385878e-02 -3.36557776e-02 -7.37178922e-02
   1.89351290e-03 -3.27730216e-02 -5.84751293e-02 -4.09479029e-02
  -2.46791132e-02  5.07043526e-02 -4.59043458e-02  9.83142108e-03
  -7.71815106e-02  2.05993503e-02  2.56117806e-02 -7.45918676e-02
  -2.39492841e-02 -6.00304157e-02 -2.91242339e-02 -3.75934020e-02
   3.08826044e-02 -5.17787822e-02  6.66760281e-02  3.13139483e-02
   7.79581442e-02 -3.09866294e-02 -5.08022383e-02  5.45885339e-02
   4.18122858e-02 -6.04822487e-03 -5.43062016e-02 -4.41626236e-02
  -5.97190484e-02 -4.11072485e-02  5.10329977e-02  1.02693364e-02
  -4.38992679e-03 -6.00779653e-02  3.91696841e-02  4.15957570e-02
  -9.80161875e-03 -3.91622223e-02 -2.06839554e-02  8.14179331e-03
  -3.12352180e-03  5.40791452e-03 -7.84164742e-02 -7.52364099e-02
   5.31994551e-03  2.16837823e-02 -4.52032164e-02  4.70452234e-02
  -4.85063158e-02  1.61430910e-02  4.15291935e-02  7.19908401e-02]
 [-2.60055661e-02  7.68299401e-03  1.17001757e-02 -2.94363499e-03
   1.84267089e-02  2.10945234e-02  1.69636160e-02  4.42827493e-03
   2.15637907e-02 -5.30507788e-02  1.42266825e-02  8.46847147e-03
  -6.61971495e-02  1.58479661e-02  5.30332252e-02  8.10659155e-02
   5.06339893e-02 -7.76472166e-02  7.39466473e-02 -7.80581161e-02
  -4.63992916e-02 -4.25989479e-02 -7.32955784e-02 -8.07151645e-02
   4.09621522e-02  1.21051148e-02 -1.81256160e-02 -3.65032256e-02
   3.74135748e-02 -4.89677452e-02 -2.26475261e-02 -7.79430196e-02
   2.95787603e-02 -1.18282437e-03 -4.79547679e-02  5.57009950e-02
   1.35721192e-02  7.73914382e-02 -1.88791752e-03  2.74730921e-02
  -2.61488222e-02 -3.64043675e-02 -3.99276316e-02 -7.26501644e-02
   3.33548933e-02  1.91194266e-02  4.15963158e-02  4.14677337e-02
   4.42164615e-02  2.14259252e-02  6.13865480e-02  6.93184659e-02
  -4.70671989e-02 -6.81290030e-03  4.66019437e-02 -4.15254980e-02
  -2.81646289e-02 -3.61201912e-02  6.28300235e-02 -4.39182445e-02
  -5.05208634e-02 -7.19507933e-02 -1.97075307e-04  7.08616152e-02
  -2.66658328e-02  1.18123367e-02  1.36355534e-02 -7.67846182e-02
  -1.01377591e-02 -1.85411945e-02  5.89497313e-02 -4.01030332e-02
   5.39800152e-02  5.42994067e-02  5.95938489e-02  1.02756023e-02
   1.00841522e-02 -4.61054444e-02 -4.56531234e-02  4.46364954e-02
   3.33431140e-02 -1.30789578e-02 -1.19185820e-02  5.15011773e-02
  -4.21734490e-02 -4.87912260e-02 -1.95601471e-02  7.14833513e-02
   2.60286182e-02  3.94692943e-02 -3.85912023e-02 -7.49221444e-02
   7.24790320e-02 -6.25635758e-02 -6.06934726e-03 -1.83042884e-03
   6.39320090e-02  7.72041157e-02  2.72286534e-02  7.87360743e-02
   4.70372960e-02  4.28681970e-02 -4.75240089e-02  2.35158727e-02
  -1.13844201e-02  2.29915529e-02 -3.83919217e-02  6.71389922e-02
   1.49939507e-02 -2.14885250e-02 -3.86296213e-03 -3.56043614e-02
  -2.30439045e-02  8.49373639e-04  5.42452112e-02  4.50575873e-02
  -3.23127918e-02  3.22646201e-02  4.78828326e-02  4.38615829e-02
  -4.25677560e-02  3.25920358e-02  6.74454495e-02  8.00880268e-02
  -5.64489812e-02 -2.31454521e-03 -3.25388536e-02 -1.97513476e-02]
 [-5.27060553e-02 -3.58839557e-02  2.34520957e-02 -3.99185047e-02
  -1.28831565e-02 -5.02586737e-02 -1.61769539e-02 -4.24660370e-02
  -7.78166801e-02 -6.80154860e-02  3.46793756e-02  7.95378610e-02
   4.57352400e-03  5.76374009e-02  4.15854678e-02  1.71550661e-02
  -2.78818272e-02 -4.36066277e-02  8.09439272e-03  6.75114021e-02
   7.89464191e-02 -1.20637342e-02 -1.55952945e-02  5.38222715e-02
  -6.71429932e-03 -3.26496437e-02  7.89534375e-02 -6.29574060e-03
  -3.76424827e-02  9.25457478e-03  3.12962756e-02  1.66085437e-02
   4.79250327e-02 -7.73554444e-02 -6.50087148e-02  6.01022691e-03
   7.07778111e-02 -1.19910017e-02 -6.60377443e-02  5.93174994e-03
   4.62085530e-02 -5.97532988e-02  5.47211841e-02  1.02491230e-02
  -5.01929075e-02  2.37163007e-02  4.49701175e-02 -5.53890318e-02
   1.04222000e-02 -1.40086561e-03 -7.65060112e-02 -7.38102868e-02
  -1.77887604e-02  4.84173819e-02 -7.35268444e-02  3.97076011e-02
   2.51065120e-02 -4.02735174e-02  5.95140383e-02 -1.12487376e-03
   4.28328067e-02  1.97316706e-03 -6.00029901e-02  1.38205588e-02
  -3.54161039e-02  6.64274916e-02  6.24933615e-02 -4.51565944e-02
  -6.75591603e-02 -6.85475618e-02 -3.75824757e-02  3.76244634e-02
  -2.30043381e-02  2.00591385e-02  5.84556535e-02 -7.07145929e-02
  -5.56062944e-02 -2.31831223e-02  6.31077513e-02 -3.89674269e-02
  -8.05349648e-03  4.10467759e-02 -2.43459344e-02 -3.66764776e-02
  -2.68798694e-02  7.68213794e-02  5.10152802e-02 -5.75871952e-02
   2.56682932e-03 -3.89955081e-02  2.95578018e-02 -2.07035467e-02
  -5.69477528e-02 -4.78562973e-02  6.75720647e-02  7.42208585e-02
   4.58278432e-02  2.38105878e-02 -2.38006711e-02 -7.50534534e-02
  -4.44294140e-02  3.43280733e-02  5.51694632e-03 -6.35541975e-02
   2.88904458e-03  7.01987073e-02  3.45820934e-03  5.93856946e-02
   2.19883993e-02 -4.70054522e-02 -2.35630795e-02  5.12413904e-02
   4.57144454e-02 -6.29921108e-02 -2.41272934e-02  7.63028041e-02
   3.78314406e-02 -8.83539766e-03  2.31722891e-02  3.84128615e-02
  -3.70198116e-02  3.54391336e-02  7.16491789e-03  4.56037000e-02
  -5.81377745e-02  4.49288264e-02 -5.94218373e-02  3.55820656e-02]
 [-5.08496910e-03 -1.97236538e-02 -1.06778741e-02  1.63575560e-02
  -1.51633546e-02  2.91441679e-02 -1.26428008e-02 -7.38824159e-02
   3.95735279e-02 -5.81640378e-02  5.85925579e-03  3.76731157e-02
   4.80230972e-02 -5.56092560e-02  7.94039890e-02 -1.76570490e-02
   5.82730994e-02  5.19309118e-02 -5.32054454e-02  6.90312907e-02
  -1.09039769e-02 -3.80527638e-02 -3.39211188e-02  6.82351738e-03
  -7.60602057e-02 -5.26458323e-02 -6.80244789e-02 -7.61677623e-02
  -1.34427473e-02  6.92036077e-02 -2.50697471e-02  2.77285278e-02
   5.82962856e-02  2.27928162e-02 -4.45899218e-02  4.98108193e-02
  -1.68375671e-04 -3.32401767e-02  6.31994829e-02  2.24734098e-03
   4.57383022e-02 -4.73927185e-02  4.76033017e-02 -1.70575082e-03
   3.67504060e-02 -6.44069239e-02 -5.43000698e-02  2.33218148e-02
   6.77952245e-02  3.16734090e-02 -7.25706071e-02  3.35884392e-02
  -7.11163878e-02 -3.77659388e-02  7.88923874e-02 -6.74146414e-03
  -5.07158339e-02  7.39098266e-02 -5.41937090e-02 -2.77303495e-02
  -2.35729665e-03 -6.44631386e-02 -7.91326910e-02  1.60453543e-02
   2.74821594e-02  2.54287049e-02  2.12308019e-02  2.39479542e-02
   5.94838336e-02  4.12018895e-02 -4.18581553e-02  4.05169502e-02
  -6.68810681e-02 -5.73275983e-03 -7.48432800e-02 -3.10071856e-02
   7.85189942e-02  6.45768270e-02  2.06282213e-02  8.03989097e-02
  -6.75789639e-02  5.19526973e-02  1.11172423e-02 -7.08606541e-02
  -2.66950727e-02 -1.33795291e-02 -3.10753509e-02  1.65050626e-02
  -5.64058945e-02 -8.03578272e-02  4.66709957e-02 -1.10786036e-02
  -1.64608359e-02 -4.51018661e-02  6.99707195e-02 -6.38023019e-03
  -6.98722973e-02  6.63960204e-02  6.38690814e-02  5.25005236e-02
  -7.22308457e-03 -3.49524878e-02 -4.03720476e-02  7.94254914e-02
  -7.40769655e-02 -3.93179730e-02  6.03851750e-02 -5.31620681e-02
   7.12673590e-02 -2.73600183e-02  1.90087557e-02  5.82771003e-03
  -4.99568135e-03 -3.66116352e-02  6.84941635e-02 -9.46391374e-03
   3.84861156e-02 -1.72992498e-02 -5.61176389e-02 -7.36575350e-02
   3.61608714e-03  5.33487871e-02  2.89806500e-02  4.89418730e-02
  -6.79078549e-02  7.81881437e-02 -9.62521136e-03  1.69388205e-03]
 [-7.86190480e-03 -3.11046094e-02 -1.99546516e-02  5.18657267e-03
  -5.50344028e-02  6.25601336e-02 -4.06088233e-02 -4.24470454e-02
  -2.15489976e-02 -4.15005311e-02  1.25129595e-02  2.24816650e-02
  -6.99902996e-02  5.05829379e-02  3.62639502e-02 -5.88296987e-02
  -3.50975655e-02 -1.33151561e-03  1.51337832e-02 -6.17116094e-02
  -4.96744439e-02 -6.74732402e-02  1.02724433e-02 -2.01056637e-02
  -3.76717746e-03 -5.01946285e-02  3.91985402e-02 -3.24398428e-02
   1.80833787e-02 -2.79053003e-02  2.73545831e-03  3.82306799e-02
  -4.74987179e-03  6.87656775e-02  4.01600376e-02 -3.54511067e-02
   3.36299092e-03 -3.90656851e-02  2.30541900e-02  1.09390542e-02
  -1.48072615e-02 -4.62194458e-02 -2.05694139e-02  4.33600843e-02
  -2.98552997e-02  4.88083065e-03  2.18126327e-02  4.19722497e-03
  -7.91187584e-03 -7.74163604e-02  7.27378502e-02 -1.46689340e-02
  -3.45238745e-02  7.53315315e-02  2.17481032e-02  1.48087069e-02
   1.64080039e-02 -6.57884330e-02 -2.17734352e-02  4.58988026e-02
  -6.87553361e-02  3.13714966e-02 -3.72782350e-03  3.92768607e-02
  -9.18903947e-03  3.52419987e-02 -2.79894620e-02 -7.66621232e-02
  -7.91309699e-02  8.85264575e-03 -6.19496442e-02 -2.71494277e-02
   6.03999197e-03 -6.12726063e-03 -1.33223832e-02  7.30966777e-03
   6.41245022e-02 -7.27015287e-02  4.80869189e-02  3.25515643e-02
   1.11757591e-02 -2.04723962e-02 -5.06026819e-02 -7.81741664e-02
   8.23666900e-03  7.96823427e-02  4.10479382e-02  2.20522955e-02
  -1.05143711e-02 -2.04749666e-02  6.15517423e-02 -5.41397370e-02
  -4.31964807e-02 -4.22372818e-02  7.40002319e-02 -5.37613444e-02
  -4.44455631e-02 -3.29656117e-02 -3.74304019e-02  7.66076893e-03
   1.20531917e-02  2.28871107e-02 -6.02681413e-02  2.35755891e-02
  -3.96991894e-02  4.68738899e-02  2.47236118e-02  5.09793535e-02
  -8.03111494e-03  9.26285237e-03 -1.82107016e-02  5.02567813e-02
  -4.30815555e-02  4.37105745e-02  2.00512260e-02 -6.31802529e-02
   5.15482500e-02  2.04313174e-02  1.39705837e-03  3.16338018e-02
   7.28477538e-03 -7.62662888e-02 -7.04704076e-02  3.45739201e-02
   5.65292761e-02  5.18416092e-02  3.48696783e-02  7.92572722e-02]
 [ 2.88974494e-03  6.39583841e-02 -5.48259169e-02  3.69025394e-02
   1.62015706e-02 -1.38738602e-02 -4.88125570e-02  4.88560423e-02
  -1.72020942e-02 -4.26005572e-03 -6.03213385e-02 -6.47011399e-03
  -5.80619872e-02 -2.56794058e-02  6.48370907e-02 -2.74310894e-02
   3.32680270e-02  3.80883664e-02 -6.54399395e-02 -3.59454118e-02
  -8.64282995e-03  6.26274273e-02 -1.63189173e-02  5.82099035e-02
   2.99177393e-02  5.12354150e-02 -1.10778660e-02  3.17042693e-02
   7.53299519e-02  5.34754321e-02  8.80639255e-03  6.77982047e-02
   4.91356626e-02  6.79996386e-02 -1.51928663e-02 -4.06441540e-02
  -5.98181561e-02  2.51043439e-02  4.63640019e-02  2.10161284e-02
   8.01969692e-02  8.05041566e-02 -3.11886929e-02 -2.08163261e-03
  -5.68952709e-02  1.14642829e-02 -1.72289386e-02  5.51854819e-03
  -3.41446698e-03  1.79164484e-02  4.27385718e-02  9.23736393e-03
  -6.17740527e-02  2.07010731e-02 -8.03102553e-02  5.84457144e-02
  -4.39956971e-02 -5.23598194e-02 -3.79987918e-02 -3.81703414e-02
   2.62471363e-02 -5.76157570e-02  3.33743691e-02 -7.37761334e-02
   6.80207238e-02 -6.59331381e-02 -4.35334519e-02  1.13673806e-02
   5.68028912e-02 -3.83763537e-02 -5.17516881e-02  2.20620409e-02
  -2.81169228e-02  6.60605058e-02 -2.63495743e-02  2.69774497e-02
   3.65443751e-02  4.77995202e-02  2.41508260e-02  9.94621217e-03
  -2.31237523e-02  2.95161828e-02  4.05336916e-03 -3.62845100e-02
   2.24070549e-02 -5.95735833e-02 -3.34086157e-02  4.66213599e-02
   6.05033115e-02 -4.72595766e-02 -3.13084163e-02 -1.26817673e-02
   1.42024755e-02 -3.73866595e-02  7.47286901e-02  5.97068891e-02
   3.79436016e-02  6.01863936e-02 -1.34591013e-03  6.21610358e-02
  -8.98739696e-03  1.14477351e-02 -5.01420274e-02  3.71508300e-02
   6.18989989e-02  7.54746720e-02  6.55203834e-02  5.12537882e-02
   4.91911843e-02  6.41869679e-02  2.88046300e-02  6.41103759e-02
   6.57175556e-02 -7.91132152e-02 -1.94465183e-02 -2.00347491e-02
   6.85068965e-03 -6.22074045e-02 -3.17044258e-02 -7.47427344e-04
   7.30237141e-02  2.44964212e-02 -3.91682386e-02 -1.42580122e-02
   5.35183027e-02  7.56826922e-02 -6.77675754e-03  7.82993063e-02]
 [-3.40997837e-02  7.59940818e-02 -1.36604980e-02  4.86784205e-02
   6.71331361e-02 -1.19131878e-02  5.64249828e-02  6.77087903e-03
  -1.41523853e-02 -2.72437930e-04 -8.11076313e-02 -7.18723238e-03
  -7.36453086e-02  9.08970833e-06  6.34928420e-02 -4.18290719e-02
  -3.40558104e-02 -1.42345726e-02 -6.88638538e-03  1.79000348e-02
  -5.26798889e-02 -5.99865355e-02  6.66690841e-02 -7.55152851e-03
  -5.84776066e-02  2.21903324e-02 -5.83377145e-02  7.39100352e-02
   6.06294349e-02 -1.84874162e-02  5.49063012e-02  6.74929246e-02
  -1.64854750e-02 -6.07286990e-02  6.70086965e-02  3.89179960e-02
   2.85141841e-02 -7.49066174e-02 -6.17295541e-02  2.50284821e-02
  -1.46464780e-02 -7.21751153e-02  2.74180770e-02 -4.79105785e-02
   3.44066843e-02 -4.73296382e-02  4.48999777e-02  7.96408951e-03
  -6.66498393e-02  2.68628150e-02 -3.03429514e-02 -5.09054251e-02
  -4.38364632e-02 -4.81332615e-02  5.15876487e-02  5.97687289e-02
  -3.77970934e-02  2.68273875e-02  5.62870502e-03 -1.19424611e-02
   3.25716883e-02  4.05522212e-02  5.87637946e-02 -5.89289218e-02
   3.65043432e-03  1.43397972e-02 -4.33713384e-02  7.82006755e-02
   5.26736751e-02 -3.84146236e-02  6.71008602e-02  1.73349306e-02
   6.00985065e-02 -3.67053114e-02 -3.88441868e-02 -7.72244260e-02
  -2.03108601e-02  3.38760987e-02  2.35310197e-03 -4.33160514e-02
   5.01643643e-02  1.00916699e-02 -4.87182438e-02  4.26957384e-02
   3.00873220e-02  7.78071657e-02  4.23890129e-02 -5.03414236e-02
   1.61903352e-02 -6.64606541e-02  5.66023365e-02  7.92766288e-02
   5.32403663e-02 -8.08618069e-02 -8.15652311e-04  1.83924437e-02
  -8.54711980e-03 -3.83239463e-02 -3.85240018e-02  1.72327459e-03
  -2.04474665e-02  2.05267966e-03  6.32911548e-02 -4.92447093e-02
  -7.52153099e-02  8.24087858e-03 -6.90198839e-02 -3.36998701e-02
   1.96247771e-02 -4.68466841e-02 -7.64390975e-02 -3.49049531e-02
   8.16699117e-03 -7.90448785e-02  4.29752544e-02  3.06817368e-02
  -4.75634374e-02 -3.95421423e-02 -1.48965418e-02 -7.13392422e-02
  -5.25694080e-02  1.64791197e-03 -2.57603824e-03  2.13827267e-02
  -4.34308052e-02  5.29653654e-02 -6.33338243e-02  8.64319503e-03]
 [ 5.70673570e-02  6.54942021e-02  6.16838709e-02 -5.38355038e-02
   3.98351774e-02 -6.16926402e-02 -3.47184576e-02 -1.14668161e-03
   2.79564336e-02 -5.63873276e-02  1.81906521e-02  6.96070120e-02
  -1.37686729e-03  4.45430651e-02  3.84451225e-02 -2.64719278e-02
  -7.99621716e-02 -1.18867308e-02  4.97379154e-03  8.08543637e-02
   2.49580294e-03  3.42528671e-02 -1.85725242e-02 -5.81357032e-02
  -1.17725357e-02 -5.08491695e-02 -1.12328231e-02 -2.15697475e-02
  -2.67925188e-02  1.79579109e-03  3.97430658e-02  5.60651496e-02
   7.08150864e-03 -4.23937887e-02 -8.74216855e-03 -3.06570828e-02
  -5.40899597e-02  6.67237863e-02 -4.20387164e-02  4.20344844e-02
   9.65248048e-03  6.79754391e-02  1.72366202e-03  7.49145970e-02
   7.43932649e-02 -3.11734565e-02  5.18296584e-02  1.74604133e-02
  -2.84286551e-02  8.15602392e-03  6.66901991e-02  9.99900699e-03
  -1.11917481e-02 -5.91560714e-02  3.15576494e-02  2.04509124e-02
  -5.45468479e-02  5.25247976e-02  2.91322023e-02 -4.35594246e-02
  -9.54066962e-03 -3.37638222e-02  1.10936165e-03 -1.22130290e-02
  -4.84721251e-02  4.84414771e-02 -7.58088976e-02 -2.78841071e-02
  -2.21138671e-02  2.25314423e-02 -4.21227999e-02  3.52777019e-02
   3.72839943e-02 -3.35422903e-03  8.33987445e-03  7.12224320e-02
   2.20809579e-02 -4.79508825e-02 -1.34826079e-02 -7.91711733e-02
  -6.33343011e-02 -5.42904586e-02  8.39529932e-03 -2.43117623e-02
  -1.19942129e-02 -7.95724988e-02 -7.94266909e-02 -2.06302926e-02
  -3.03833522e-02  1.54564232e-02 -7.13402256e-02 -4.94788773e-02
   4.05414850e-02  6.54956624e-02  5.08153215e-02  5.92602119e-02
  -7.56862387e-02 -3.48655879e-03  6.04947284e-02  6.75739124e-02
   2.68795043e-02  3.93417180e-02  6.30018860e-03 -4.30998690e-02
  -3.80162932e-02  6.78451881e-02  5.85770383e-02 -7.03866929e-02
   6.42232820e-02 -3.15313898e-02  2.77965665e-02  5.89322522e-02
   6.13139346e-02  4.60719094e-02  7.29305297e-03  5.40004671e-03
  -5.53203002e-02 -9.55238193e-03 -3.18559222e-02  1.27257034e-02
  -1.10020414e-02 -2.93090492e-02 -5.53045571e-02  2.49863565e-02
   5.92564419e-02 -5.09930253e-02 -5.38472086e-02  8.93160701e-04]
 [ 4.79501858e-02 -1.93597861e-02  5.64530417e-02  6.02775142e-02
   5.25185093e-02 -2.59132050e-02 -5.49687296e-02 -5.38123772e-02
  -5.64436615e-02 -5.72144985e-04  3.04317176e-02 -1.55362934e-02
   5.34275398e-02  7.77826384e-02 -7.60683268e-02  5.51217720e-02
  -7.89852142e-02  5.93788177e-03  7.71151111e-02  4.24113870e-03
  -1.31927207e-02 -6.77567720e-03 -4.15483937e-02 -2.65055373e-02
  -2.88865678e-02  6.73237815e-02 -2.97647752e-02  4.11072522e-02
  -3.82860452e-02 -6.90806583e-02  2.86285952e-02 -7.32570365e-02
  -3.63563336e-02 -1.31279379e-02 -2.71662101e-02  7.49545172e-02
   6.41481206e-02 -7.25785568e-02  5.39009050e-02 -4.84269336e-02
   3.25560570e-04  5.17334267e-02  1.89338401e-02 -4.01923954e-02
  -4.57280017e-02 -4.27847505e-02 -5.48991710e-02  3.32342386e-02
   7.17507303e-03 -6.42699525e-02 -4.64757346e-02 -7.03306496e-02
  -5.07214591e-02 -7.47297630e-02  3.21455300e-02 -6.77912012e-02
   1.91813335e-02  4.48984876e-02  6.26616850e-02 -5.22875711e-02
   4.28592190e-02  7.57027194e-02 -6.97968006e-02 -7.66590238e-04
  -8.05568770e-02  5.51551506e-02  3.11596319e-02  4.18039486e-02
  -5.30041717e-02 -6.33886307e-02 -2.05087326e-02  5.10787293e-02
  -3.93006280e-02  1.33771896e-02 -3.58766466e-02 -6.28714040e-02
  -5.06897271e-02 -5.57173565e-02  3.60783637e-02  1.04261488e-02
   4.47627082e-02 -6.78811446e-02  2.92320475e-02 -6.43186048e-02
  -7.66287073e-02  6.26820251e-02 -3.09874974e-02  5.88794723e-02
  -1.27825886e-03  3.76660377e-02 -6.33068830e-02  5.03145084e-02
   5.41729853e-02  2.56177709e-02  5.08535430e-02 -3.45421471e-02
  -3.21983844e-02 -1.11174732e-02 -3.69847678e-02 -2.97685079e-02
   4.66406867e-02  4.01141867e-02  3.27001587e-02  6.66147545e-02
   2.24940553e-02  2.22358182e-02  2.75214538e-02  7.95915499e-02
   2.55469382e-02  6.62234053e-02  7.39359111e-03 -3.84995751e-02
  -2.74515674e-02 -5.30106500e-02  4.88330349e-02 -7.17709064e-02
   4.67524603e-02 -6.40598983e-02 -3.17656919e-02  3.47166583e-02
   1.89900920e-02  6.59748912e-04  8.09989348e-02 -9.08046961e-03
   2.97389627e-02  5.92456013e-03 -2.28337944e-02 -6.57652095e-02]
 [-5.74799031e-02 -4.01047133e-02  7.82608017e-02  4.57196012e-02
  -4.34140787e-02  3.31316143e-02  5.02984971e-03 -6.83973208e-02
   2.87972391e-03  1.70948654e-02  6.30704686e-02  2.20315084e-02
  -1.01768970e-02  3.67535576e-02  5.85902482e-03 -4.92422134e-02
   3.14778835e-03  1.28611848e-02  1.66700184e-02  6.03991523e-02
  -5.73907755e-02 -1.80250928e-02 -2.26645842e-02  7.73504749e-02
  -7.67947510e-02  1.66721120e-02 -6.19429350e-02 -7.42865726e-02
   2.52806693e-02 -1.73518509e-02 -7.43199512e-02 -7.92669505e-03
   2.77822316e-02 -3.07291001e-02  1.67499036e-02  5.88450953e-02
   7.74589851e-02 -5.83317950e-02  7.87822232e-02  5.90835586e-02
  -7.97435865e-02  2.60075405e-02  5.26498631e-02  2.89271027e-02
   2.55221128e-03 -5.05468734e-02  2.28821412e-02  7.39683732e-02
  -3.04783396e-02 -6.82834983e-02 -3.94042991e-02  6.96307346e-02
  -2.37503648e-03  5.82897738e-02  2.63882354e-02  7.41137788e-02
  -7.74572790e-02  7.25467578e-02  7.93205276e-02 -5.73968887e-02
   6.06593713e-02  7.56181106e-02 -3.56941111e-02  5.56310937e-02
   7.86289051e-02 -3.97731215e-02  7.42155090e-02  3.76034752e-02
   3.85437086e-02 -1.86856091e-03 -2.54002176e-02  8.04365203e-02
   4.45777997e-02  4.87744585e-02 -5.58991134e-02 -2.11700238e-02
   5.93002364e-02 -3.76050659e-02 -7.96263963e-02 -1.65220052e-02
   1.07055828e-02  7.54470453e-02  5.21734729e-02  4.80545536e-02
  -6.01444319e-02 -8.10684562e-02 -4.44650948e-02 -3.32451276e-02
   5.82958534e-02 -7.22490251e-03  5.44016883e-02  4.41239402e-02
   5.77862486e-02  3.61087620e-02 -7.70763904e-02 -2.44930796e-02
  -8.05246830e-02 -1.10518411e-02 -2.07155533e-02 -7.37145469e-02
  -4.17141058e-02 -3.97285633e-02 -1.38387084e-03 -4.35176902e-02
  -2.60222554e-02  6.45788386e-02  6.71582446e-02 -9.66868550e-03
   6.40779957e-02 -5.88022582e-02 -6.65332675e-02  7.99454823e-02
  -6.34416342e-02 -1.60799101e-02 -3.52469124e-02  1.19152516e-02
  -5.45517579e-02 -4.42038141e-02 -3.06652635e-02 -2.38565020e-02
   3.82683501e-02  2.09510922e-02  2.41232738e-02 -3.08300853e-02
  -1.32966042e-03 -2.23255455e-02  5.75057343e-02  7.05635026e-02]
 [ 1.63394958e-03  1.21880770e-02  1.83491483e-02  1.61580741e-02
   4.21538949e-02  6.19931296e-02  5.63317761e-02  3.62419263e-02
  -5.05423695e-02  7.08589479e-02  4.34399918e-02 -5.53532541e-02
  -2.31539197e-02 -5.90743683e-02 -1.58961117e-03 -2.79080682e-02
   1.88793242e-02  4.56736609e-02  7.26768747e-02  2.41613686e-02
  -1.66813508e-02 -7.60708749e-03 -2.99046114e-02 -4.67612259e-02
  -3.44064124e-02  3.00782174e-03  2.64196768e-02 -5.15661165e-02
   7.49813765e-03 -9.50726867e-03  2.89486647e-02  7.79344514e-02
   2.92507634e-02  5.41625544e-02 -4.26805764e-03  4.36156988e-04
   2.95519605e-02  4.54589799e-02  5.65440431e-02  1.16113722e-02
  -1.98299773e-02  4.11195904e-02 -2.31377147e-02  4.05565724e-02
  -6.60366789e-02 -4.94681448e-02 -5.69944009e-02 -5.72363958e-02
  -6.65438473e-02 -7.51980245e-02  3.89517099e-02 -1.04659870e-02
   8.10431018e-02 -2.71199755e-02  6.33024946e-02 -7.11705089e-02
  -2.14357302e-02  2.30309889e-02 -2.59058774e-02 -2.35255249e-02
   7.51898214e-02  5.96597567e-02 -4.35761698e-02 -1.99399516e-02
   8.79622251e-03  7.24827722e-02 -4.58580330e-02 -3.18958387e-02
  -6.27365187e-02 -1.84894651e-02 -8.04645568e-02  7.45431557e-02
   3.18261981e-03  5.98956272e-02  5.70860431e-02  5.85210994e-02
  -6.18568957e-02 -1.10998750e-04 -3.08705419e-02 -2.72973068e-02
   6.35199323e-02  5.04142269e-02  7.04660043e-02  3.40466201e-03
  -8.60929489e-03  7.92889968e-02  3.45602334e-02 -2.74310298e-02
  -2.35070176e-02  1.38891563e-02 -7.68809617e-02  2.10448056e-02
   5.30999228e-02 -1.54989287e-02 -7.95544013e-02  2.10927501e-02
  -5.28094918e-02 -5.65804429e-02 -4.42428216e-02 -8.03707838e-02
  -1.67719945e-02  5.95002621e-03  2.07506344e-02 -6.75638989e-02
   4.93694618e-02  6.91847578e-02  4.79134396e-02  3.09525505e-02
   1.33743137e-02 -5.90309501e-03  7.65398145e-03 -3.99083123e-02
   3.10900882e-02 -4.06056903e-02 -4.01283838e-02 -6.65652901e-02
   2.04875767e-02  6.98218271e-02  7.40737393e-02 -2.80590989e-02
   7.83097520e-02 -7.95629844e-02  6.85744956e-02  5.94621226e-02
   3.95601243e-02 -3.64504009e-03  4.15583774e-02  7.64664635e-02]
 [ 3.65718603e-02 -2.16091760e-02  5.90230897e-02 -2.70094350e-02
  -6.73674196e-02 -4.06566262e-03  3.05997580e-03  3.59048992e-02
   3.37008387e-03 -3.05098817e-02  5.43205664e-02  7.15547279e-02
   6.87600002e-02 -5.23556992e-02 -3.47729698e-02  1.44699439e-02
   2.47321576e-02 -4.42031026e-03  1.43848360e-02 -1.61233246e-02
   7.27539137e-02  7.02434704e-02 -2.50957161e-02 -6.19601831e-02
  -1.67527869e-02  5.47745004e-02  5.33084944e-02 -6.25094697e-02
   4.50430736e-02  3.46554518e-02 -2.55224556e-02 -5.12729585e-03
   4.49280962e-02  5.94508871e-02  1.74326077e-02 -5.46692573e-02
  -4.54287231e-02 -7.69035518e-03  1.03237107e-02  3.72453779e-03
  -3.63588333e-06  5.03298417e-02 -3.20836715e-02 -5.27511090e-02
   1.73930824e-02 -3.06174792e-02 -6.23921603e-02  2.60612816e-02
   7.92022869e-02  2.75012106e-02  7.83953741e-02 -5.42540103e-03
  -2.44612284e-02  2.01582462e-02 -1.46887526e-02  3.46884429e-02
   6.19213656e-02 -5.69330379e-02  6.07950166e-02  4.49587777e-02
  -6.45125881e-02  1.26550049e-02 -6.78241178e-02 -1.08607113e-04
  -7.52663836e-02  6.59145787e-02  9.50183719e-03  5.70597425e-02
   4.58279252e-03  4.67576757e-02  3.67102027e-02 -9.53350961e-03
  -6.53540343e-02  8.25795531e-03 -7.30130449e-02  4.20899466e-02
   2.64500380e-02 -6.24331087e-03 -2.44345032e-02 -8.01135600e-03
   7.76305050e-03 -5.46059050e-02 -1.78949684e-02 -4.99897376e-02
   2.77573243e-02  3.43041942e-02 -2.51093321e-02  7.57461861e-02
   4.07977179e-02  5.93112782e-02  3.91153693e-02 -7.69505575e-02
   2.94044837e-02 -3.43684703e-02  5.92663214e-02 -7.42914602e-02
   2.75390372e-02 -5.39380163e-02  2.69131139e-02  3.01509053e-02
  -5.93386814e-02 -2.95612030e-02 -1.45686269e-02  3.38313878e-02
  -5.87405115e-02  5.49864694e-02  3.07134539e-02 -7.19222277e-02
  -6.71561062e-03  7.98440054e-02 -6.19494095e-02 -2.46357359e-02
  -4.21976596e-02  3.32520306e-02 -4.14241850e-02 -5.56415096e-02
   2.68505886e-02 -4.19394933e-02 -3.90781611e-02 -6.10812195e-02
   7.74428770e-02  4.81901392e-02  1.24002397e-02  1.20636150e-02
   3.81769910e-02  5.05220219e-02  9.60183144e-03  7.43791983e-02]
 [ 2.88904458e-03  1.67763457e-02  1.62464902e-02  7.92806819e-02
   1.96711347e-02 -4.02201451e-02  6.50682673e-02  5.17058149e-02
   9.87792760e-03  6.42856285e-02 -7.85380155e-02  1.03295371e-02
   1.25875100e-02 -7.52347112e-02 -7.64695331e-02  2.99480632e-02
   6.50675222e-02  1.42260492e-02  6.02335110e-02 -1.72274113e-02
  -5.39693832e-02  2.10073665e-02 -1.60827935e-02  7.06202015e-02
   6.78352788e-02  7.11615756e-02 -7.56429583e-02  5.32028154e-02
   6.48340061e-02  2.50836313e-02 -3.42227519e-04 -3.39675099e-02
  -1.16987824e-02 -2.43771262e-02 -4.21031527e-02  1.67198479e-04
  -3.97117585e-02  3.08317319e-02  4.86114398e-02 -5.26922643e-02
  -5.42252697e-02  7.95333609e-02  2.41877437e-02  4.46774065e-04
  -3.61612290e-02  7.19804391e-02  2.31076404e-02  1.10235065e-02
  -7.21035674e-02  4.58458439e-02  7.69838691e-03  2.73682550e-02
  -9.29626822e-03 -6.43457025e-02  7.45075718e-02  9.12895054e-03
  -7.92822242e-03 -6.12812154e-02  5.82925752e-02 -8.83585960e-03
  -2.69107707e-02  3.41894925e-02 -5.58823869e-02  6.89605623e-03
  -2.30053812e-02  4.03880551e-02  1.59936622e-02 -4.31248918e-02
   5.19111753e-03  7.66599849e-02 -1.27654225e-02  2.01938674e-02
  -1.68125406e-02 -7.03665614e-02 -4.75203507e-02  7.80417547e-02
   3.56464237e-02 -5.69234639e-02  2.20706090e-02 -8.06899816e-02
  -6.45983368e-02  3.39209661e-02  4.93076220e-02 -5.28960899e-02
   3.26783806e-02  6.09751418e-02  5.83212748e-02 -6.79378435e-02
   6.15420192e-03 -3.73366475e-03 -3.57667357e-03 -3.07224095e-02
  -5.62361442e-02  4.34182361e-02  2.10899636e-02  4.98234108e-02
   5.27361110e-02 -1.60549879e-02 -5.41694760e-02  6.87625632e-02
  -3.73903140e-02 -5.76195493e-02  7.11075738e-02  7.15699866e-02
   5.13710901e-02  3.35707068e-02  4.82395291e-04  1.60039514e-02
   7.08692446e-02 -7.37562776e-03 -5.73173277e-02 -6.70501813e-02
   4.84585688e-02 -4.28449139e-02 -2.69470103e-02  1.98851898e-02
   5.82013056e-02  3.93521264e-02 -6.33507818e-02  3.56051326e-03
   5.43087795e-02 -2.87087709e-02  6.58774599e-02  6.11058101e-02
   1.35429576e-02  3.31400633e-02 -5.69377951e-02  6.73528835e-02]
 [ 1.77472010e-02 -3.20565403e-02 -5.00347950e-02 -2.14078464e-02
  -4.82648574e-02 -1.32885799e-02 -5.54163158e-02  3.39520797e-02
  -3.07112932e-05  7.21854195e-02  1.21298507e-02  7.28842393e-02
  -3.75649966e-02  6.09359816e-02 -8.01034570e-02 -4.75107618e-02
   2.08043382e-02  3.29262763e-02  7.54069015e-02  5.17050251e-02
   4.46258560e-02 -2.91806050e-02 -7.12509230e-02 -6.05194271e-03
   3.64462137e-02 -2.13676021e-02 -7.52975792e-02  5.12345508e-02
   7.68747553e-02 -7.27529675e-02  4.96293828e-02  1.36268511e-02
   2.71809846e-02 -6.84610233e-02  3.49212587e-02  2.10836008e-02
   7.49382004e-02  6.40182570e-02 -2.73374729e-02  5.51535860e-02
   4.04257327e-02  4.95859608e-02 -4.74354774e-02  5.01130894e-02
  -8.10411274e-02  4.93716076e-02  6.33433983e-02 -4.33734655e-02
  -6.92331791e-02 -1.54045820e-02  7.03018680e-02  6.06460646e-02
  -4.63359021e-02 -2.66276784e-02  6.30403385e-02  8.33544880e-03
   2.67119706e-02  7.99317285e-02  3.16942781e-02 -3.51957642e-02
  -3.45438719e-04  3.32438946e-02 -1.11915544e-02 -4.95929532e-02
  -7.03568310e-02 -7.89938048e-02  3.56467068e-03 -6.37336820e-02
   5.08621708e-02  1.42575800e-03 -6.74873963e-02 -4.78644185e-02
  -5.30111119e-02  7.25592896e-02 -4.13388461e-02  6.97446093e-02
  -5.21316379e-03 -1.11194029e-02 -3.51132490e-02 -3.79937626e-02
   3.19867432e-02 -7.37833306e-02 -3.25198248e-02 -3.51854749e-02
  -6.73141852e-02 -5.47415242e-02  3.19596156e-02  4.76632938e-02
   6.99773431e-03  2.44014934e-02 -7.11641908e-02  3.25828791e-04
  -7.32532665e-02 -2.19610743e-02  2.58885324e-03  1.35810524e-02
   6.00434840e-03 -6.19465858e-03 -2.38763429e-02 -4.85866293e-02
  -6.76633418e-02  2.95081586e-02  3.96029651e-02 -1.04176775e-02
   4.27716747e-02  6.58113137e-02 -7.49631226e-02 -9.36826319e-03
  -3.36669944e-02 -4.44904864e-02 -6.36968166e-02 -3.84525470e-02
   6.19268641e-02 -4.28234264e-02 -1.78865120e-02  7.00292811e-02
  -7.73496926e-03  6.45420030e-02 -5.64080477e-03 -1.13202333e-02
   2.28683129e-02 -1.36535391e-02  6.53822497e-02  6.18243739e-02
   2.63843834e-02 -7.85054117e-02 -3.77172269e-02 -6.68723062e-02]
 [ 4.59945621e-03  7.75341541e-02  2.20282972e-02 -7.35316426e-03
  -4.58877943e-02 -4.13605273e-02 -6.98948205e-02  7.18337372e-02
   3.13202068e-02 -6.68622553e-03  6.01557419e-02 -4.52114455e-02
   6.79684356e-02  5.72065338e-02  7.18552255e-05  7.72120431e-02
   2.49386183e-04 -5.91444522e-02 -2.86366008e-02  6.79532811e-02
  -5.76019101e-02  2.80773807e-02 -6.51764795e-02  7.13372231e-02
   4.90955152e-02 -2.77946666e-02  3.89608368e-02  2.73543764e-02
   5.90923727e-02  7.79353753e-02 -9.03634634e-03  6.57213805e-03
  -1.68361347e-02 -1.55767696e-02  2.60533895e-02  9.98049974e-03
   3.25018838e-02  3.63035873e-02  6.19491786e-02 -7.97707587e-02
   4.89054844e-02  6.42360300e-02 -5.80802746e-03  2.40792502e-02
   7.43687376e-02  7.20921904e-03 -4.07749303e-02  7.65771046e-02
   5.21470122e-02  4.84664440e-02  2.97262124e-03  9.78277065e-04
   6.75001666e-02  1.74937230e-02 -5.34673668e-02 -3.31042632e-02
   2.90406924e-02 -6.35699835e-03 -5.74324243e-02  1.94862932e-02
  -1.58363581e-03  3.45047563e-02  7.61242285e-02  1.08686080e-02
   3.98699865e-02  1.76250171e-02  4.84965518e-02  6.25150651e-03
  -3.64372432e-02  2.05886960e-02  5.50666079e-02  4.66014929e-02
  -5.14301695e-02 -1.45310559e-03 -9.71644465e-03 -1.32283904e-02
  -6.28201589e-02  3.68101262e-02  3.35394847e-03 -5.38812540e-02
   4.71288115e-02  6.82384074e-02  2.75615994e-02  4.66125682e-02
   2.06199475e-02 -1.49044041e-02 -5.78926615e-02  5.71879894e-02
   2.39700987e-03  1.26585960e-02  7.98023418e-02 -7.08663315e-02
  -6.32924363e-02 -5.72387651e-02 -3.71886715e-02 -2.28780992e-02
  -8.06958228e-03 -8.76586512e-03  3.65851857e-02 -3.11405975e-02
   6.26553595e-02  5.16986214e-02  5.10568097e-02  2.79682893e-02
   6.34444728e-02  7.45165646e-02 -4.27418016e-02 -5.51575720e-02
   6.02908954e-02  1.36189703e-02 -8.41324031e-02 -1.18602663e-02
  -5.54449037e-02  1.43075585e-02  2.32226476e-02  4.03320119e-02
   5.52721210e-02 -3.01601663e-02  7.94435218e-02 -4.85746339e-02
  -7.59562925e-02  5.13640344e-02 -5.01690172e-02 -5.58297858e-02
  -3.96390706e-02  7.92373642e-02  4.45952192e-02 -1.90654919e-02]
 [-2.74046585e-02 -4.16228585e-02 -6.78827614e-02 -6.23969957e-02
   5.59666790e-02  8.39631557e-02  2.40685493e-02 -7.39254653e-02
   5.31022251e-02 -4.80070524e-02 -2.87312232e-02  2.58034654e-02
  -6.02138005e-02 -8.10709074e-02  8.17477852e-02  4.37338315e-02
  -8.43769610e-02  3.03365011e-03  1.29781663e-03 -6.78406507e-02
  -4.77606878e-02 -1.24756349e-02  2.00206544e-02  1.66189689e-02
  -5.82387373e-02  1.36062102e-02  5.05664758e-02 -4.61529531e-02
  -5.17830113e-03 -2.36063972e-02 -4.27816287e-02  8.53668153e-02
   1.68207996e-02  7.97805786e-02 -7.07125589e-02  5.30093089e-02
   5.13433665e-02 -7.13929953e-03 -6.01891987e-02 -6.38352409e-02
   2.73402557e-02 -1.63417999e-02  1.16929501e-01  5.55966981e-02
   1.29708240e-03  5.86297875e-03  1.02494635e-01 -1.15749128e-02
   2.41145063e-02  4.16877717e-02 -6.32031728e-03 -3.74544524e-02
  -5.90705127e-02 -5.80233932e-02 -2.13237852e-02  2.49636825e-02
  -2.35155467e-02 -6.75401986e-02 -5.33815175e-02 -5.78240305e-02
  -6.32591173e-02  5.61701916e-02 -6.30549416e-02 -2.04929728e-02
   1.53274238e-02 -4.36256751e-02  4.31146622e-02 -1.78091060e-02
  -5.86826503e-02  5.41642420e-02 -2.63601933e-02 -9.33251227e-04
   7.01687708e-02 -2.75748745e-02  1.01442829e-01  7.95129016e-02
  -5.22231050e-02 -6.70305118e-02  4.92746867e-02  1.66113786e-02
  -6.74028322e-02 -4.70337644e-02  5.80563918e-02 -6.16656393e-02
  -5.81231043e-02 -3.82138193e-02  3.96780670e-04 -1.08951265e-02
   1.68152768e-02  6.96675060e-03  6.08098507e-02  2.82023661e-02
  -2.22122893e-02  2.38318369e-02 -1.00308426e-01  2.84635574e-02
  -3.10602114e-02  7.76939094e-02  6.68561086e-02 -5.31217009e-02
   9.54094082e-02 -4.80758138e-02  6.31992891e-02 -1.74534717e-03
  -4.25431579e-02 -2.94558983e-02 -4.04784232e-02  6.37368783e-02
  -8.59574601e-02 -8.98438469e-02 -1.03114933e-01  4.61870506e-02
   1.75673459e-02  4.00677919e-02  4.90477644e-02 -4.35861759e-02
   2.21804343e-02 -6.12783730e-02 -4.28295955e-02 -7.72524858e-03
  -1.24809546e-02  6.08158670e-02  5.84873930e-02  2.82529779e-02
  -7.26054683e-02  9.23705399e-02  1.09215034e-02 -2.22529527e-02]
 [ 6.18451200e-02  6.10951521e-02 -1.47837237e-01 -3.85440513e-02
  -3.22565027e-02  1.18114971e-01  8.32778215e-02 -2.90237889e-02
  -5.57510182e-02  4.68291230e-02  6.45637810e-02  1.34155661e-01
   7.04495087e-02 -4.97331191e-03  1.48945332e-01  6.29730001e-02
  -1.13569111e-01 -7.76077658e-02  5.22520579e-02 -2.53352094e-02
  -3.43899950e-02 -7.40373805e-02 -4.43442278e-02  1.56605244e-02
   5.67989722e-02  1.12222992e-01 -1.25639848e-02  1.54029811e-02
  -3.37692201e-02  2.03993674e-02 -2.55934708e-02  6.87332526e-02
  -4.57535349e-02 -6.28464222e-02  8.01648274e-02  1.74699686e-02
  -3.38390321e-02 -8.18790346e-02  2.78508067e-02  2.04779077e-02
  -3.89176272e-02  1.25919208e-02  3.44957970e-02  2.37803161e-02
  -8.08112547e-02 -7.57779703e-02 -9.05808061e-03  5.86852059e-02
  -5.83904460e-02 -3.60498913e-02  2.79931277e-02 -5.88090755e-02
   3.35122682e-02 -9.72639248e-02 -8.49670323e-04 -1.36029512e-01
   1.68494955e-02 -5.35282195e-02 -2.19436157e-02  9.54167545e-03
  -1.34866061e-02 -2.39261575e-02 -2.51874253e-02 -7.92560279e-02
   5.95114306e-02 -6.53094426e-02 -1.67956054e-02  1.08769000e-01
  -2.75504440e-02  2.69437507e-02 -1.22307625e-03  6.56181797e-02
  -4.53222468e-02 -7.26064853e-03  6.30889386e-02  1.03167780e-01
  -6.39782995e-02  4.60379533e-02 -1.08761117e-01 -1.34314433e-01
  -7.14806747e-03 -3.45708206e-02 -1.44674987e-01 -8.48674774e-03
   2.46273186e-02 -1.32987392e-03 -1.22668825e-01  6.03109449e-02
   1.80858243e-02  5.43112792e-02  1.00856841e-01 -2.04759371e-02
   1.31546617e-01 -4.79178876e-03 -1.61231197e-02 -1.49692148e-02
  -4.24414389e-02  6.79922700e-02 -3.98490429e-02 -8.84388238e-02
   8.18593651e-02  1.14964647e-02  8.71547963e-03 -2.85488423e-02
  -4.97118644e-02 -2.29349397e-02  2.06120964e-02  8.35623518e-02
   8.96305963e-03 -1.10761985e-01 -4.17782785e-03 -4.40471172e-02
   5.87099716e-02 -3.95515859e-02 -1.16548702e-01  1.19583666e-01
   8.29821602e-02  1.81291066e-02 -8.70256481e-05  4.97710109e-02
   5.89409396e-02 -4.77006398e-02  1.17743388e-01  4.43926565e-02
   6.43923529e-04  1.21695347e-01  8.74492899e-02 -1.35316461e-01]
 [ 8.17613527e-02  9.95316878e-02 -4.05504964e-02  8.75608921e-02
  -1.37140065e-01  5.18035404e-02  4.08884250e-02 -6.76075518e-02
   3.60607207e-02  3.69033366e-02 -4.46607210e-02  9.10872302e-04
   7.69661739e-02  6.42041042e-02  3.79432598e-03 -7.35781481e-03
  -1.38623223e-01 -7.53028467e-02  1.09943906e-02  2.16797795e-02
  -5.30558042e-02 -6.95635378e-02 -9.58270654e-02  2.68835202e-03
   6.67730859e-03 -9.20821913e-03 -3.09360623e-02  6.52790591e-02
  -2.55378317e-02  9.00107101e-02 -4.42010611e-02  1.18964789e-02
   1.13180401e-02  6.27224222e-02  6.18752167e-02 -7.88808540e-02
   4.03508693e-02 -2.93366215e-03  2.55605094e-02 -7.27790967e-02
   6.49350211e-02  6.12794086e-02  8.60184357e-02  8.41707513e-02
  -2.47826092e-02 -5.55354171e-02  1.42590210e-01  1.57227680e-01
   4.33825701e-03  9.18245986e-02  9.11211316e-03  8.09454010e-04
   1.01379687e-02 -1.24989204e-01  2.59341095e-02 -1.35132939e-01
  -5.91900125e-02 -2.46241987e-02 -7.67778754e-02 -5.84134236e-02
  -4.91597801e-02 -6.93350136e-02 -6.32422715e-02  1.21255750e-02
   2.32318863e-02 -6.65083230e-02 -4.42813821e-02  1.36008039e-01
  -8.16385224e-02  2.67401673e-02  8.13723728e-03  4.57373522e-02
  -9.70495716e-02 -1.18267253e-01  9.68280956e-02  8.89768172e-03
  -1.21735744e-01 -2.56321840e-02 -1.15800658e-02 -1.17076151e-01
  -7.43730292e-02 -1.21630609e-01 -4.65277396e-02 -2.19907705e-03
  -9.74450484e-02 -3.38183530e-02 -9.76597294e-02 -5.20824455e-03
   5.25552034e-02 -3.84339765e-02  1.10096745e-01  7.81911835e-02
   8.57228786e-02  3.54048163e-02 -1.50479287e-01  1.02360342e-02
  -2.30235979e-02  9.29878224e-05  2.09356006e-02 -4.91530709e-02
   6.59074336e-02  5.04292920e-03 -2.26736683e-02  2.16371175e-02
   3.43984291e-02 -5.10306843e-03 -3.14577296e-02  1.48640990e-01
  -2.94083208e-02 -1.45377681e-01 -7.36529976e-02 -1.02499975e-02
   1.11100063e-01 -1.53724160e-02 -4.14702408e-02  1.37440115e-01
   2.76163686e-02 -8.42654184e-02 -6.54699281e-02  5.97419916e-03
  -4.79665995e-02 -7.75180571e-03  4.79185022e-02  6.39930740e-02
   1.40879571e-01  9.30880755e-02 -5.26973568e-02 -7.12322444e-02]
 [-6.52849823e-02  1.06365912e-01 -6.42067567e-02 -1.53042693e-02
  -2.49769669e-02  8.81348327e-02  1.18078679e-01 -3.80772389e-02
  -1.92132164e-02 -1.07245995e-02  3.45971882e-02  1.18214935e-02
   6.62028044e-02 -1.04714043e-01  9.32370033e-03 -4.51223329e-02
  -3.89354229e-02  6.44445643e-02  4.69800159e-02 -3.93747389e-02
  -4.42571454e-02  3.35983075e-02  1.66762825e-02  1.97617598e-02
   8.43917727e-02 -1.75680611e-02  2.66361721e-02  1.88333448e-03
  -1.09824695e-01  5.47014130e-03 -5.09928688e-02  1.31660193e-01
  -2.47769691e-02  1.20100886e-01  9.53567028e-02 -1.49352159e-02
   2.68662721e-03  6.29976392e-02 -3.07271276e-02 -9.33216736e-02
  -4.70010564e-02  6.17896672e-03  5.20035066e-02  1.03563361e-01
  -1.26085058e-01  2.68839113e-02  8.45063776e-02  1.90467089e-02
  -6.80165142e-02  5.39093614e-02 -4.52957675e-02  2.66681332e-02
   4.52063344e-02  1.88050815e-03 -3.80427092e-02 -1.28385454e-01
   6.43583834e-02 -5.89022525e-02 -1.13591645e-02 -1.64186060e-02
  -4.69429120e-02  1.66720059e-02  4.47033308e-02 -1.82734895e-02
   4.33446690e-02  3.82350013e-02  3.46896797e-02  9.58241969e-02
   3.09235658e-02 -4.40344028e-03  5.61860278e-02 -1.80602167e-02
  -1.26261646e-02 -1.12561047e-01  1.06300078e-01 -1.20652197e-02
  -4.69534248e-02  3.64460261e-03 -6.54550493e-02 -9.40350145e-02
  -7.49796256e-02 -4.64556133e-03  6.32800069e-03 -5.29918936e-04
  -2.17119921e-02 -1.23353653e-01  7.11729517e-03  6.40459210e-02
   1.43448841e-02 -5.47677539e-02  7.72051886e-02  1.46298185e-01
   3.18737999e-02  1.98139399e-02  1.30898897e-02  6.46668896e-02
   7.64311478e-02  3.46301906e-02  1.00202203e-01  3.53944278e-03
   6.32975344e-03 -3.84537713e-03  7.19505772e-02 -2.82819085e-02
  -4.51140590e-02 -1.15246587e-02 -1.07916020e-01  1.39563875e-02
  -1.86131503e-02 -7.47586265e-02 -2.62627238e-03  1.55859673e-02
   1.22461043e-01  3.90091874e-02 -1.37303799e-01  2.99923718e-02
   6.10227510e-02 -1.11026876e-02 -8.61059502e-02 -1.76125560e-02
   6.75771013e-03  3.09887622e-02  7.07347244e-02  1.38428882e-01
   1.81118567e-02  1.23729724e-02  5.70294261e-03 -8.62295404e-02]
 [-3.64202708e-02  3.22339386e-02 -1.49462640e-01 -1.28230564e-02
   5.51055819e-02  6.00990541e-02  2.01084670e-02  1.72811269e-03
  -3.26595493e-02  9.14535820e-02 -6.86084479e-03  8.55699480e-02
   6.13643490e-02 -3.08167133e-02  4.80766296e-02  8.07517692e-02
  -1.80729963e-02  4.37518246e-02  5.79314120e-03  3.24101150e-02
  -6.47678971e-02 -3.40930969e-02 -6.76632822e-02 -4.76962961e-02
   5.64147020e-03  1.26419496e-02 -3.82603630e-02  7.53923431e-02
   2.85742674e-02 -4.69463728e-02 -1.12008341e-01  8.51269253e-03
   1.09497672e-02  1.08392328e-01  7.97321796e-02  3.30924578e-02
  -2.67033055e-02 -2.20069624e-02 -5.14229238e-02 -1.81603022e-02
  -5.95643036e-02  6.23303093e-02  8.20730254e-02  1.39059886e-01
  -4.27811686e-03 -6.11200109e-02  5.46018444e-02  7.11167678e-02
  -9.47381705e-02  1.04388513e-01 -5.78160435e-02  6.59860391e-03
  -5.52168861e-03 -4.66780365e-02 -9.05103143e-03 -1.29092142e-01
  -9.64980051e-02 -6.02950081e-02 -7.83498660e-02 -1.01986155e-02
   1.31677259e-02  2.87004877e-02 -1.37255983e-02 -9.69463363e-02
  -5.16894981e-02 -6.05455488e-02 -6.14241660e-02  8.01662952e-02
  -4.27844897e-02 -7.83138871e-02  7.42907003e-02 -5.02803214e-02
  -5.49536683e-02 -9.87029970e-02  7.67188221e-02  1.07651763e-01
   1.04554566e-02  9.17015821e-02 -2.63622403e-02 -8.51153657e-02
   2.10669357e-02 -1.06276654e-01 -3.44049186e-02  1.35305822e-02
   5.92826679e-03 -2.29803976e-02 -9.42377839e-03  1.48942778e-02
   5.99171296e-02  7.32397065e-02 -4.19350006e-02  6.89506233e-02
   7.64988810e-02  7.27305487e-02 -1.30629346e-01 -4.26179767e-02
   1.34605113e-02  1.47125214e-01  4.88844961e-02 -8.79777148e-02
   7.76015669e-02  7.87082016e-02  6.81534484e-02  4.78597321e-02
   6.83157071e-02  2.67548151e-02 -6.50937706e-02  6.75151646e-02
  -2.73010936e-02 -4.14789952e-02 -8.51504952e-02 -4.98169195e-03
   1.00581646e-01 -2.93661393e-02 -1.33579761e-01  1.27872184e-01
   5.16416915e-02  1.09725902e-02  4.45018895e-02 -1.74404960e-02
   1.05071127e-01  2.17304402e-03 -1.64165385e-02  7.84635171e-02
   2.81805708e-03  7.30508789e-02  1.03546567e-01 -7.75673911e-02]
 [ 9.31771696e-02  2.03562886e-01 -1.85763538e-02 -1.45688858e-02
   1.28134489e-01 -5.26993126e-02  4.39651534e-02 -3.39603573e-02
   3.69344987e-02  1.30224209e-02 -1.78355782e-03  1.74283609e-01
  -3.64086069e-02  4.14029844e-02  1.88879296e-01  5.04743010e-02
  -6.71090409e-02 -7.46624470e-02 -4.38619703e-02 -4.04426120e-02
   3.80372070e-02 -2.44522840e-02 -6.02277368e-02 -5.50968163e-02
   1.02031594e-02  1.82234775e-02  8.45348649e-03  6.27832413e-02
  -6.31920993e-02  8.07963908e-02 -1.62162378e-01  3.00483574e-04
  -1.00957908e-01  1.14687486e-02 -6.30138349e-03  2.95794662e-02
   1.11938268e-01 -1.21171512e-01 -4.94648591e-02 -1.28704518e-01
   4.95552681e-02  1.08480178e-01  1.08276218e-01 -1.86517257e-02
  -4.35394607e-02  5.65710664e-03  8.99288580e-02  1.26233086e-01
  -4.80927750e-02  6.93448409e-02  2.64364667e-02 -5.54476455e-02
   3.72546501e-02 -2.79135779e-02  2.39865854e-02 -1.21663556e-01
  -4.19600401e-03  9.79358237e-03 -6.56921938e-02  6.51208386e-02
   4.87984382e-02  2.87321527e-02 -3.97706926e-02 -6.82815835e-02
  -9.13204625e-02  3.68313566e-02 -5.14697991e-02  1.18056566e-01
  -1.80360302e-01 -8.63769948e-02  1.25291646e-01 -6.08085059e-02
   6.48312178e-03 -1.39095455e-01  1.26707762e-01 -5.44969132e-03
  -3.47319357e-02 -8.23118910e-03  8.65826290e-03 -2.47343704e-02
   4.99424711e-02 -6.96304208e-03  3.91226150e-02 -5.79498056e-03
   1.58449297e-03  4.38161045e-02 -8.90525058e-02  1.83774624e-02
   1.01822630e-01 -3.15061361e-02 -1.20613640e-02  9.74914245e-03
   9.44709107e-02 -2.77104340e-02 -5.48377372e-02  8.68074745e-02
  -6.79185335e-03  1.22929215e-02  8.96897316e-02  2.38802610e-03
   1.07362963e-01  7.67243728e-02 -8.51417333e-03 -8.11752304e-02
  -5.63278086e-02 -6.72535785e-03 -1.12808943e-01  7.42857158e-02
  -1.08330615e-01 -3.48307304e-02 -8.59303400e-02 -4.56634238e-02
   6.34537265e-02 -8.95477533e-02 -1.29463598e-01  3.50010581e-02
   9.52631533e-02 -8.95448551e-02  3.18648145e-02 -1.19998991e-01
   6.35540858e-03 -1.50654137e-01  7.63529167e-02  1.12394907e-01
  -5.91631122e-02  5.75430617e-02  3.66144329e-02 -6.71033040e-02]
 [ 1.06097169e-01  7.49911591e-02 -9.90858208e-03 -1.03704799e-02
   1.29898816e-01  8.07383433e-02  3.72226685e-02 -7.43784234e-02
   2.18477994e-02  4.21415083e-02 -8.05119798e-02  4.02926877e-02
   1.99292712e-02  2.37066429e-02  1.71338674e-02  8.22557881e-02
  -7.03384280e-02 -2.70255897e-02 -1.47312488e-02 -5.05241863e-02
  -1.05556905e-01 -2.32913420e-02  4.99266647e-02  2.26004142e-02
   9.43655521e-02  3.19015644e-02 -1.00640543e-02 -2.52411608e-02
  -2.56736912e-02 -2.70085633e-02 -8.93699899e-02  3.05180997e-02
  -1.01620071e-01  2.81345751e-02 -5.48906764e-03 -7.20877275e-02
   4.99536954e-02 -2.14477479e-02 -1.15674525e-01 -2.38903542e-03
  -2.55734790e-02  8.42092279e-03  1.93079352e-01  3.73500548e-02
  -6.24604449e-02 -1.19482242e-01  1.03499092e-01  1.30632356e-01
  -7.16644973e-02  1.10328585e-01  1.01419643e-01 -7.34264478e-02
   5.64551130e-02  3.25449333e-02 -3.96125130e-02 -1.50049537e-01
  -6.11874983e-02 -8.21225941e-02  8.96427024e-04 -1.63896531e-02
   5.18763177e-02 -1.28567651e-01 -4.84875031e-03 -1.85228547e-03
   5.94991632e-02  2.98902355e-02  5.90295345e-02  6.22817837e-02
  -1.81928471e-01  6.08044639e-02  2.77264081e-02  5.08214254e-03
   9.33061764e-02 -8.52260590e-02 -1.75406132e-02  1.07103042e-01
  -1.36036351e-01  3.69286872e-02 -1.04081109e-01 -1.45474672e-02
   7.20457211e-02 -2.91677471e-02  7.98468068e-02  4.43006400e-03
  -6.40027970e-02  3.25196795e-02 -8.08590129e-02  3.91231142e-02
   8.36191103e-02  8.54629427e-02  1.96650177e-02  2.32221540e-02
   6.46425188e-02  1.28846645e-01 -4.32649963e-02 -3.88615988e-02
   3.41998748e-02 -4.27986346e-02  4.45811031e-03 -1.03872538e-01
  -8.58025625e-03  7.91427866e-02  2.62359437e-02  7.11106928e-03
  -5.25870286e-02  1.50744975e-01 -1.40440255e-01  5.62321134e-02
  -2.63951570e-02  3.21288183e-02  1.41549064e-02 -1.16325244e-01
   1.95155740e-02  4.06287704e-03 -1.72638357e-01  4.68574651e-02
   1.29478142e-01 -8.39291960e-02  1.22959651e-02  2.83240224e-03
   3.14689949e-02  1.95936449e-02  2.27586944e-02  2.88710278e-02
   5.06306626e-02  7.02704815e-03  1.49051631e-02 -6.12859093e-02]
 [ 3.95371839e-02  1.19571835e-01 -5.93352877e-02  9.89281852e-03
  -4.17950340e-02 -4.19525318e-02  6.69444948e-02 -1.38291419e-01
  -1.01728499e-01  1.18069202e-01  2.48997435e-02  1.83092758e-01
   2.03733034e-02 -1.15187746e-02  6.61661569e-03 -1.10796876e-02
  -6.25908598e-02  1.34335505e-02  7.11844936e-02 -2.33329330e-02
  -7.60319782e-03 -2.06681564e-02  7.27884993e-02 -5.43839112e-02
   8.80995486e-03 -6.01746440e-02 -7.39040971e-02 -4.56059836e-02
   5.14375046e-04  1.04817912e-01 -1.51896179e-01  1.14314891e-01
  -5.43166660e-02  1.44542545e-01 -9.85273644e-02  3.00673954e-02
  -5.26510067e-02  2.08222549e-02 -7.85450451e-03 -4.06145900e-02
   5.41919656e-02  3.43897529e-02  6.87275082e-02  1.48611173e-01
  -1.69058889e-01 -1.17702916e-01  4.00205180e-02  5.82799576e-02
  -6.84138611e-02  2.82818191e-02 -4.05644439e-02 -8.75588730e-02
   9.09195617e-02 -5.96716825e-04 -1.57342851e-01 -3.66261154e-02
   6.55556889e-03 -6.62023649e-02 -4.15029712e-02  1.19117722e-02
   6.03979640e-02 -2.25216281e-02 -5.22548817e-02  3.10778953e-02
  -6.48889318e-02 -1.99642824e-03  1.56107014e-02  3.82745042e-02
  -1.47985727e-01 -8.40742700e-03  1.01844363e-01  3.31457071e-02
   1.22107945e-01 -1.36932492e-01  1.08946636e-01  6.73108175e-02
  -1.70641556e-01 -5.32809272e-02 -7.91857578e-03 -4.34104316e-02
   9.85146090e-02 -8.15987308e-03  2.11323649e-02 -8.60342458e-02
  -2.96733100e-02 -6.39953762e-02 -5.26178442e-02  5.30142076e-02
  -1.85789485e-02  1.07496850e-01  1.92171875e-02  1.20333977e-01
   1.21327803e-01  1.43629000e-01 -1.04566127e-01  1.19577035e-01
   5.48626594e-02  7.11900517e-02 -2.96763312e-02 -8.56683329e-02
   1.18664801e-01  2.02048212e-01  4.82153147e-02 -1.88862141e-02
   5.19812889e-02  1.12036400e-01 -9.17361602e-02  6.77817240e-02
  -2.07079034e-02  6.11695088e-02 -4.74630259e-02 -6.77845208e-03
   1.20981351e-01 -1.19323015e-01 -9.52470899e-02  1.27990469e-01
   2.66065281e-02 -1.55738415e-02 -9.26197097e-02  1.38726933e-02
   1.23291081e-02 -5.29287197e-02  7.50415772e-02 -4.09307517e-02
   1.05876848e-03  1.25948161e-01  2.85062473e-02 -1.33339927e-01]
 [ 5.16710021e-02  1.24035232e-01 -1.56658962e-01 -5.37730828e-02
  -6.72462629e-03 -3.36017869e-02  1.64722547e-01 -1.35298580e-01
  -5.09286374e-02  1.57545552e-01 -4.75810468e-03  1.91216707e-01
  -3.40745449e-02 -1.08767167e-01 -7.03847455e-03  4.57791686e-02
   8.47863592e-03  5.11355624e-02 -3.36540416e-02 -8.09286088e-02
  -1.83038670e-03  9.67450514e-02  2.22274605e-02  7.44571025e-03
   4.94696125e-02  3.28759551e-02 -1.21352091e-01  6.22860678e-02
  -7.95347244e-02  8.45732838e-02 -1.25423357e-01  1.15014566e-03
  -7.94955902e-03  1.32627040e-01 -3.70887518e-02 -2.03762371e-02
   3.75465639e-02 -1.28994599e-01 -3.29072364e-02 -1.45851105e-01
   7.08368570e-02 -3.38991955e-02  1.84072375e-01  1.37055665e-01
  -1.10565446e-01 -1.44089192e-01  1.47687972e-01  7.82674775e-02
  -1.78554207e-01  9.67219844e-02  3.64987850e-02  7.73228297e-04
   4.58926409e-02 -1.08566105e-01 -1.88774467e-02 -1.72239169e-01
  -5.83840534e-02  4.45234627e-02 -7.19538629e-02  6.38763607e-03
  -2.51095891e-02  2.55032275e-02 -3.36959735e-02 -3.30238454e-02
   1.35463253e-02  6.98188022e-02 -2.29526833e-02  1.02159776e-01
  -1.95784867e-01 -7.06032068e-02  1.78875048e-02  3.72483172e-02
   1.99767016e-02 -1.27871200e-01  3.52958217e-02  4.15768586e-02
  -3.43899876e-02  2.70706508e-02 -3.39673273e-02 -5.71576245e-02
   4.25379537e-02 -2.61967294e-02 -2.87081487e-02 -6.77476749e-02
  -7.03313872e-02 -2.89217867e-02 -3.21054868e-02 -4.87320535e-02
   1.27907395e-01  5.10971248e-02 -2.21363120e-02 -2.48898771e-02
  -1.33322468e-02  1.16841167e-01 -1.59574628e-01  6.45565894e-03
   7.22491229e-03  5.44916205e-02 -6.65492099e-03 -3.17738466e-02
   1.35009274e-01  7.59631544e-02  5.45440651e-02 -7.77710676e-02
   2.82102823e-03  1.51515737e-01 -7.14157671e-02  2.09124535e-02
   1.42525993e-02  3.95599604e-02 -7.22860917e-02  5.56575321e-02
   1.34369567e-01 -1.73394218e-01 -6.16696812e-02  4.46352437e-02
   8.50898549e-02 -8.95716920e-02  5.22236899e-02 -4.02560197e-02
   4.09062020e-02 -3.03363279e-02  8.50405097e-02 -6.43999949e-02
   5.47106415e-02  1.32390767e-01  1.91612497e-01 -9.46334228e-02]
 [-1.03524297e-01  1.61119208e-01 -6.50356337e-02  4.76392284e-02
  -9.32271853e-02 -1.50512839e-02 -3.51643823e-02 -8.75802636e-02
   4.31088693e-02 -1.40034780e-02  2.77069397e-02  1.25492945e-01
   4.02869210e-02  6.51944354e-02 -6.96679801e-02 -2.21366026e-02
  -2.53386777e-02 -1.61892793e-04 -1.03470124e-01 -1.02914691e-01
   2.44238079e-02  1.16095573e-01  9.96781364e-02  9.95459035e-03
   3.33302580e-02  4.50090095e-02  4.75193048e-03  6.04740949e-03
   3.73662189e-02  5.53317852e-02 -2.23478042e-02 -6.43600300e-02
  -1.62627213e-02  1.31726369e-01  1.23653404e-01  1.68665722e-02
  -8.46208706e-02 -4.09108959e-02  1.25284955e-01 -1.33862868e-01
  -2.02565808e-02  5.68343699e-03  4.13589291e-02  1.90790206e-01
   3.98170948e-02  9.60994959e-02 -1.61781032e-02 -9.88815632e-03
  -3.48700695e-02  4.22706380e-02 -6.31852075e-02  3.11155431e-02
  -4.99366000e-02  5.39271981e-02 -2.53238361e-02  3.20021510e-02
   4.26323451e-02  4.22688909e-02 -1.16682090e-02  1.89161077e-02
  -1.28619075e-01  9.12976637e-02  1.19155407e-01 -8.00628308e-03
   5.91323823e-02  6.28007874e-02  6.19419813e-02 -5.95872328e-02
  -7.61058480e-02 -8.77380488e-04 -1.73979066e-02  2.10464075e-02
  -9.90418419e-02 -6.42611831e-03  5.90573549e-02 -1.55539559e-02
  -6.53952733e-03  1.84753891e-02  9.02717337e-02  3.26306298e-02
  -8.12109113e-02 -4.42096293e-02  2.70766206e-02 -6.51511922e-02
   1.45019993e-01  1.69714261e-02  2.25277320e-02  4.38034534e-02
   3.11181676e-02  7.98576996e-02  5.98234199e-02 -7.34092016e-03
  -1.24419607e-01  1.20093994e-01 -1.08469523e-01  5.56125306e-02
   7.24655925e-04 -3.54193039e-02 -5.24779409e-02  8.94635469e-02
  -9.84790698e-02  4.33521392e-03 -2.06860993e-02  6.20901138e-02
   1.57536700e-01 -5.00161983e-02  6.76757516e-03 -1.42497316e-01
  -1.39366344e-01  2.33902317e-02  8.13832060e-02  1.27275333e-01
  -1.34710446e-01 -1.28887549e-01  5.92598058e-02 -8.22668970e-02
  -8.49677473e-02 -4.98633608e-02 -1.50736524e-02 -1.35336623e-01
   5.40819913e-02  9.70895290e-02  2.38605179e-02  1.57819137e-01
   3.40489205e-03 -5.74996509e-02  4.08459157e-02 -2.10695341e-02]
 [-1.11080818e-01  2.15720102e-01 -1.56249106e-01  8.89293179e-02
  -9.40982774e-02 -5.04434146e-02 -3.21732350e-02 -1.82707477e-02
   6.01395592e-02  6.34595007e-02  4.33067754e-02  2.10220031e-02
   1.16603458e-02 -5.55767640e-02  2.01585144e-02  1.02075867e-01
   3.07765026e-02  6.01220131e-02 -4.13596965e-02 -1.12427525e-01
   1.91655643e-02 -3.54349799e-02 -3.34994853e-01  3.05721126e-02
  -6.90925866e-02  9.00060833e-02 -1.34909973e-01 -5.81223629e-02
  -1.25756273e-02 -1.05624571e-02 -6.80967420e-02  7.41608664e-02
  -1.00753181e-01  1.61217794e-01  1.07209375e-02 -1.48531450e-02
  -9.05652270e-02  9.21849385e-02 -3.18214297e-02 -1.85845301e-01
   8.92040282e-02 -3.74661908e-02  2.02185169e-01  1.53134599e-01
  -1.97155207e-01  3.08295880e-02  1.18483081e-01  1.38272911e-01
  -6.80548549e-02 -1.95666701e-02  5.64640723e-02 -1.11552358e-01
   8.66069123e-02  5.82238398e-02 -3.20881270e-02 -1.57021612e-01
   4.82705757e-02  4.46473844e-02  2.24642456e-02  8.03587809e-02
  -8.25008657e-03 -2.42463350e-02 -3.23506780e-02 -1.59318950e-02
  -7.64342584e-03  1.42734954e-02  1.28614932e-01  2.33944915e-02
  -5.82859525e-03 -2.77225357e-02  1.23910777e-01  1.17065586e-01
   3.32057551e-02 -8.19408335e-03  9.60639343e-02 -4.95063700e-02
  -8.87582079e-02  4.23077941e-02 -1.03787228e-01 -6.21304847e-02
  -5.60853332e-02 -5.07208779e-02 -2.26902887e-02 -5.54892384e-02
   1.59875244e-01 -3.49418167e-03  2.45203953e-02 -1.24491621e-02
  -7.03491941e-02  8.42778310e-02  3.53303435e-03  4.90225554e-02
   1.16847292e-01  1.28454104e-01 -7.95374662e-02 -7.23086596e-02
   2.32844073e-02 -7.45485276e-02  1.15611903e-01 -8.09249189e-03
  -6.50628805e-02 -5.30807003e-02 -8.28353688e-02  4.88437787e-02
   1.97440267e-01  3.52162751e-03 -9.15058106e-02 -6.47861660e-02
  -7.59861395e-02 -7.68234208e-02 -6.97649270e-02 -6.64506108e-02
  -6.20923191e-02 -1.76901460e-01 -6.04732521e-02 -5.53955976e-03
   6.07707724e-03 -6.14225678e-02 -8.52109715e-02 -9.01693404e-02
   4.21094224e-02  3.55579704e-02 -5.19550079e-03  1.48075268e-01
  -7.11399689e-02  1.88480243e-01 -2.38294844e-02 -1.15615539e-01]
 [-5.93121387e-02  6.33510798e-02 -1.13932833e-01  9.53538716e-02
  -2.11375222e-01 -1.09444156e-01  1.41391307e-01 -3.45467255e-02
   4.11423407e-02  6.42579868e-02  1.46966605e-02  2.63068303e-02
   5.88853024e-02 -2.31412560e-01 -1.18086077e-01  1.65302873e-01
   9.88735911e-03  7.60586038e-02  1.16222255e-01  3.30082998e-02
   6.08371794e-02 -4.31431048e-02 -3.14244270e-01 -2.18803380e-02
   9.26510543e-02 -7.71288853e-03 -4.53282446e-02  4.81806993e-02
  -1.47219867e-01  3.52939069e-02 -2.46524345e-03 -9.40239727e-02
   1.52994245e-01  1.65710807e-01 -3.28724682e-02 -8.25166330e-02
   6.80745617e-02 -7.54172308e-03 -4.92080748e-02 -1.27618805e-01
  -3.76988091e-02 -9.12579596e-02  2.04798117e-01  1.79701790e-01
  -1.03115506e-01 -1.68904558e-01  1.11562617e-01  6.93919137e-02
  -8.91945064e-02 -1.39067933e-01  1.26117822e-02  5.66321537e-02
   1.32729523e-02 -7.07327500e-02  2.62642875e-02 -6.47600666e-02
  -3.02601978e-02  2.52297223e-02 -4.59038466e-02 -6.29364029e-02
   8.40463713e-02  1.37776598e-01  1.10279880e-01 -4.54283431e-02
  -3.27279270e-02 -3.35965194e-02 -8.26509446e-02  7.45603368e-02
   1.61355227e-01  3.90920527e-02  3.83300297e-02  5.42191369e-03
  -1.63703673e-02  1.21482052e-01 -8.42453837e-02  2.47901753e-02
  -9.99840870e-02  1.37540042e-01 -1.37144849e-01  4.23609503e-02
   2.20024828e-02 -6.03491850e-02  7.05442727e-02 -1.32046893e-01
   9.59079713e-03 -3.33240554e-02 -9.05350670e-02 -1.18497759e-03
  -8.18908797e-04  6.71970993e-02 -1.62127838e-02  7.05580637e-02
   3.62776816e-02  1.77623942e-01 -9.64304656e-02  9.97183844e-04
  -3.62273119e-02  2.79589873e-02 -1.44640123e-02 -8.50220099e-02
   1.33756563e-01  4.51341271e-02  6.31164312e-02  5.62079996e-02
   3.09912115e-03  2.21155107e-01 -1.87790051e-01  1.00456960e-02
  -1.68801755e-01  1.18145850e-02 -1.85200423e-01 -7.49650449e-02
   7.75973871e-02 -5.72503991e-02 -1.58613890e-01  1.01166323e-01
   1.64952293e-01  3.52967903e-02 -5.87805696e-02 -3.40923555e-02
   1.38561670e-02  9.18895081e-02  5.57871051e-02  6.61113039e-02
   1.28496155e-01  1.78418651e-01  1.09010465e-01 -1.20499976e-01]
 [-1.06056750e-01  5.93586899e-02 -7.13645741e-02  4.78757210e-02
  -1.13267921e-01 -3.87348346e-02  2.24301875e-01 -7.39339292e-02
  -3.18069234e-02  1.57049462e-01  2.67929900e-02  4.24813479e-02
  -4.20564637e-02 -1.80083618e-01 -9.82844904e-02  8.82186666e-02
   9.63789225e-02  3.00716478e-02  7.83484951e-02  1.01818040e-01
  -3.60170901e-02 -5.92883788e-02 -3.22221518e-01  3.32231820e-02
   2.44108215e-02  5.15423976e-02 -3.02577205e-02  1.48597971e-01
  -1.44763403e-02 -7.87335914e-03 -1.88404566e-03  4.88042133e-03
   8.66233557e-02  1.48076802e-01 -5.26881702e-02 -4.78158295e-02
  -2.40457598e-02 -4.10460159e-02 -1.24814734e-02 -2.66131479e-02
  -9.40204561e-02  1.86075438e-02  1.46871999e-01  7.87986666e-02
  -1.11808687e-01 -1.01565927e-01  1.39961362e-01  1.30104661e-01
  -1.11194156e-01 -1.52461663e-01  8.80930945e-02 -2.59662066e-02
   6.73062429e-02  5.32313809e-03 -1.04603633e-01 -1.12722822e-01
  -5.13107218e-02  7.51584694e-02  1.65639129e-02 -1.03904903e-02
   1.65174045e-02  3.85808200e-02  5.79798706e-02 -4.60527502e-02
  -7.34608562e-04 -5.74549325e-02 -1.39044889e-03  2.99916994e-02
   6.03673346e-02 -5.66881150e-02 -7.16373837e-03  4.22789603e-02
   5.37534542e-02 -2.10248698e-02  2.93362401e-02 -6.47799065e-03
   2.19285842e-02  1.48981050e-01 -1.42605543e-01 -6.06956333e-02
  -3.66440036e-05  3.72037734e-03  2.82952338e-02 -1.54003814e-01
   3.35964561e-02  2.72997515e-03  6.70362338e-02  6.83869347e-02
  -5.29972911e-02 -4.62481230e-02 -4.04006168e-02  7.73135154e-03
   1.43533036e-01  1.86142668e-01 -1.32122144e-01 -3.55197233e-03
  -3.73038799e-02 -8.34358670e-03  9.08994377e-02 -1.64712071e-02
   1.03250906e-01 -4.34764512e-02  9.10972729e-02  5.57334162e-02
   1.27695659e-02  1.39507741e-01 -1.60368919e-01  9.81704295e-02
  -2.23692786e-02  6.92701563e-02 -4.77376916e-02  1.54359723e-02
  -6.44087419e-03 -1.21849388e-01 -6.89702258e-02  1.03854343e-01
   1.73091084e-01  1.07822353e-02 -7.21296221e-02 -2.70870551e-02
   1.84124690e-02  1.38184756e-01  9.97918695e-02  1.28929690e-01
   1.55837044e-01  1.61661610e-01  5.27484789e-02 -6.48605078e-02]
 [ 1.42609045e-01  1.70129508e-01 -9.83768841e-04 -8.26113895e-02
  -9.11834165e-02  6.71149790e-02  5.49761206e-02  7.27517977e-02
  -1.37078166e-01  2.93328688e-02 -3.10546383e-02  1.08998716e-01
  -6.07281998e-02 -2.65950747e-02  2.63188500e-02  5.57777509e-02
  -1.16725698e-01  2.54662745e-02  1.15435775e-02 -5.25657311e-02
  -2.62879692e-02 -6.06925152e-02 -2.17093557e-01 -8.91425908e-02
   9.99132395e-02 -2.01876219e-02  4.49085329e-03  1.57667079e-03
  -3.06506939e-02  1.11470938e-01 -6.85729608e-02  1.06042609e-01
  -1.77517354e-01  1.96506888e-01 -1.26205966e-01  5.83487796e-03
  -5.03160991e-02 -4.47960347e-02 -5.34124523e-02 -2.74481513e-02
  -1.49929011e-02  1.31683141e-01  4.33876477e-02  1.11111924e-01
  -1.11720949e-01  9.51616019e-02  9.73805860e-02  1.34717956e-01
  -6.47236779e-02  8.30133930e-02 -6.60742223e-02 -3.83002087e-02
   1.94301754e-01  5.19725308e-03 -8.02140087e-02 -4.64135557e-02
   1.44610181e-01 -3.76381818e-03 -3.09815910e-02 -2.56919377e-02
   1.17637075e-01 -1.65469691e-01 -1.43273696e-01 -7.66520277e-02
  -3.68434191e-02  3.01346872e-02 -4.84970137e-02  3.51269096e-02
  -1.14950068e-01 -9.96856764e-02  1.34994179e-01 -1.76525246e-02
   2.26040930e-01 -7.37950355e-02  1.60918027e-01  5.95311634e-02
  -8.10203999e-02 -1.45465463e-01  3.69397961e-02 -2.19927400e-01
   4.58190739e-02 -7.43861347e-02 -7.25553697e-03  2.51206961e-02
  -1.56268217e-02  3.29613425e-02 -7.47485980e-02  6.86679333e-02
   5.30279949e-02  8.85156468e-02  4.84365970e-02  3.56052332e-02
   1.18361481e-01  1.47821099e-01 -9.84544531e-02  1.07086323e-01
   3.64774317e-02 -2.15462931e-02  6.89057484e-02  1.20009638e-01
   6.56190142e-02  9.55990180e-02  9.35703740e-02 -3.05471644e-02
   3.94026004e-02 -1.01333791e-02 -1.59495771e-01  1.70645252e-01
   2.90662628e-02 -1.41913844e-02 -1.57016948e-01 -1.00098386e-01
   1.35949150e-01 -4.59906049e-02 -1.49987459e-01  1.27834007e-01
   1.44082710e-01 -2.62050033e-02  5.19206412e-02 -7.27601647e-02
   3.81505638e-02 -6.48521110e-02  1.46038374e-02  2.59320233e-02
  -9.83309653e-03  1.97466716e-01 -4.48407084e-02 -1.12412542e-01]
 [ 1.29031360e-01  1.57769576e-01 -9.58191603e-02 -4.82512377e-02
   3.18432450e-02  1.42948657e-01  2.63165757e-02 -6.99425340e-02
  -1.13800645e-01  8.72129723e-02 -9.61813703e-02  4.49422281e-03
   3.88954510e-03  5.40068150e-02  1.28797516e-01  4.83862013e-02
  -1.54952019e-01  1.73948111e-03 -6.44687042e-02 -1.61534771e-01
  -3.39458510e-02  5.76288551e-02 -1.48521811e-01 -7.84769431e-02
  -5.08622006e-02  7.09066316e-02 -5.47039695e-02 -7.03526139e-02
   9.08804834e-02  1.34914249e-01 -1.25071779e-01  1.50494590e-01
  -7.43559897e-02  1.39983371e-01 -9.05032605e-02  4.40252237e-02
