dense
Weight Shape:
(784, 128)
Bias Shape:
(128,)
weights:
[[ 6.64973930e-02  2.72005722e-02 -4.87659723e-02 -2.78364010e-02
  -7.37819597e-02  3.21431458e-03  1.39005482e-03 -1.96402296e-02
   1.35925263e-02 -6.19626567e-02  3.80150005e-02 -1.74359307e-02
   2.47007683e-02 -7.47741684e-02 -6.56118765e-02 -4.20811474e-02
  -6.42051473e-02 -8.05422366e-02  3.66166234e-02 -6.92797303e-02
   5.96506894e-03  1.42861679e-02  7.37614259e-02  6.86131194e-02
  -5.33707291e-02 -3.43222171e-03 -1.81104317e-02  6.01200759e-03
   5.20890281e-02  3.82666290e-02 -4.47335690e-02 -5.35876080e-02
   7.82257318e-03  1.64901540e-02  1.60935074e-02 -1.74058601e-02
  -4.98540588e-02 -8.66491348e-03 -5.21165058e-02 -6.58511296e-02
   1.82976499e-02  2.76880190e-02  7.52353594e-02  3.70238125e-02
  -6.54180869e-02 -2.65189968e-02 -1.55825093e-02  5.48656955e-02
  -2.29954235e-02 -3.55145186e-02 -7.21145123e-02  4.77963462e-02
  -6.68186396e-02  2.98349559e-03 -9.74965841e-03  5.47884777e-02
  -1.38052553e-03  3.79022136e-02  1.83617324e-02  5.78726307e-02
   7.26059079e-04 -6.61853477e-02 -4.90864366e-03  2.89596245e-02
   2.20381990e-02 -3.98631580e-02  4.63353917e-02 -7.72970393e-02
  -5.91003001e-02 -7.18679279e-02 -5.95238656e-02 -4.06590067e-02
   2.69258395e-02  2.35348046e-02  7.44392648e-02 -4.84502539e-02
   2.56762132e-02  3.12613845e-02 -6.47444576e-02  4.09689024e-02
   2.20558494e-02  5.86914495e-02  9.72633064e-03  6.73253015e-02
  -6.79928809e-03  6.95369914e-02  3.86062860e-02 -8.04782659e-02
  -2.79221460e-02  3.22422087e-02 -7.18720257e-02 -5.76551482e-02
  -7.25702941e-02  4.19902056e-03  6.24260679e-02 -4.98821773e-02
   6.43614158e-02 -2.21101567e-02  3.82008404e-03 -3.37326676e-02
   6.07095137e-02  4.31195945e-02 -6.47766143e-02 -1.32369101e-02
  -2.21781880e-02 -4.69795950e-02 -4.74136434e-02 -7.05502778e-02
  -7.66419172e-02  2.98273563e-02  5.62113151e-02 -8.84298235e-03
   3.30666974e-02  2.38487870e-02  5.25163636e-02  2.98516452e-02
   2.95613781e-02  7.24884793e-02  2.89751589e-03  4.38946113e-02
  -4.05549295e-02  3.76872718e-03  7.40336403e-02 -2.39216909e-02
   6.95860162e-02 -3.98546495e-02 -5.46425320e-02 -7.43461698e-02]
 [-7.77309909e-02 -5.18817976e-02 -6.23467341e-02 -7.00538605e-02
   1.56500936e-03  4.49493602e-02  1.64881647e-02 -3.34056169e-02
  -6.70776367e-02 -5.47508262e-02 -2.35374570e-02 -1.79806724e-02
   4.43955585e-02  5.29644862e-02  5.16854972e-03  5.33241779e-03
  -3.12457234e-02  4.50395420e-02  4.67619374e-02 -2.06473283e-02
   2.88031027e-02  4.41805944e-02  1.68818310e-02 -5.13792522e-02
  -3.84781323e-02 -3.84246781e-02  1.57292113e-02 -1.28059611e-02
   3.27864438e-02 -2.41291113e-02  1.94678679e-02 -8.07521194e-02
  -4.96541597e-02 -2.10709535e-02  2.24565789e-02 -3.59820388e-02
   3.91865671e-02 -1.47513524e-02  3.25290486e-02 -5.55650070e-02
   1.14920586e-02  2.79794633e-02  5.49608245e-02  2.02385336e-02
   1.54292360e-02 -6.47065938e-02 -5.90883866e-02 -4.71539870e-02
   2.52535194e-03 -7.47463554e-02  5.57665154e-02 -5.35011292e-02
  -6.20910078e-02 -5.58806658e-02 -7.10670128e-02 -3.45769376e-02
  -5.34150153e-02 -7.24879950e-02 -7.49880075e-02  7.51784518e-02
  -2.89901793e-02  5.30999973e-02  7.72231147e-02 -3.27331685e-02
  -6.01484925e-02  5.07350266e-03 -7.12426454e-02  6.15431741e-02
  -6.30719438e-02 -2.79828906e-03  9.15639848e-03  2.99036652e-02
  -1.96189582e-02  1.59009919e-02 -3.06128785e-02 -6.34164363e-03
   5.95608875e-02  4.58675995e-02  8.18986446e-03  4.02767882e-02
   1.41356587e-02 -4.24692035e-03  6.73829764e-03 -1.68940574e-02
  -3.80704403e-02 -5.56242988e-02 -1.98082961e-02 -2.34727710e-02
   2.81546861e-02 -3.77272442e-02  5.33760265e-02 -7.68314749e-02
  -7.79635385e-02 -7.02423751e-02  7.11242035e-02 -5.72203472e-02
  -1.37702227e-02 -2.21122056e-03 -7.75004998e-02  3.22578475e-02
  -4.60028388e-02  2.63436362e-02 -2.03035697e-02 -4.91819382e-02
  -5.62903658e-02  4.32406738e-02 -1.76645145e-02  7.44935051e-02
  -8.51120800e-03 -2.16377005e-02  5.05479053e-02  2.21204609e-02
   5.78531548e-02  1.17512271e-02  1.82154402e-02 -3.63786519e-03
   7.54544511e-02  3.43766287e-02 -6.32541627e-02  7.62834400e-03
   4.65174764e-03 -3.02292444e-02  6.86218813e-02  6.90929219e-02
   5.74145541e-02 -1.97568201e-02  2.24983171e-02 -2.55946070e-03]
 [-4.45475914e-02  3.43972668e-02  7.68487379e-02 -2.32857093e-02
   8.00620690e-02  7.16707930e-02  6.44379184e-02 -6.69720918e-02
   5.70794269e-02 -7.70441517e-02 -3.52541059e-02  7.03787878e-02
  -1.14129633e-02 -7.80279189e-03 -4.58397754e-02  6.76858798e-02
   4.12302241e-02 -3.92038971e-02 -2.47693472e-02 -3.51324677e-03
  -7.97976404e-02 -1.24042034e-02 -2.30177604e-02 -3.78816798e-02
   3.14601809e-02  5.63469753e-02 -7.69680589e-02 -6.84805512e-02
  -5.19928560e-02 -1.01415440e-02 -5.21322079e-02  6.19851053e-04
  -4.02096063e-02  6.90460131e-02 -5.27450778e-02  4.69411835e-02
   2.85820663e-02 -7.46363848e-02 -6.98144138e-02 -1.89469904e-02
   6.19047359e-02  7.85221234e-02  3.34484726e-02 -4.82674874e-02
   3.27225029e-03  4.93806526e-02 -7.04848915e-02  6.90562502e-02
   1.32642388e-02  8.33275914e-03  6.30402640e-02  2.49422491e-02
  -3.41434702e-02  4.93514314e-02  6.38196990e-02  5.79720065e-02
  -7.69672096e-02 -4.48146164e-02  7.47720078e-02  7.98360258e-03
   8.47934186e-03 -1.06190443e-02  6.49792030e-02 -6.64782301e-02
   3.63874063e-02  6.98824227e-03 -3.29848342e-02 -6.64259791e-02
   2.11036578e-02 -2.15518214e-02  1.49290338e-02 -4.77339067e-02
   7.57722482e-02  6.45932034e-02 -2.62743682e-02  5.15006706e-02
  -1.62391067e-02  5.74044660e-02 -3.68079394e-02  1.42943114e-03
  -6.52038902e-02  1.68515891e-02 -1.92330219e-02 -6.13614321e-02
  -7.97691718e-02  4.85210642e-02  4.31642830e-02 -1.47798657e-03
  -2.07890011e-02 -5.34340218e-02  6.47071823e-02 -1.21838450e-02
  -6.98288381e-02  2.36784890e-02 -5.64945787e-02  6.41263947e-02
   3.57360989e-02  4.96138409e-02 -4.48410884e-02 -7.83964023e-02
  -9.39978659e-03 -6.09864593e-02 -2.75509283e-02  6.63134530e-02
  -6.67695776e-02  3.78594175e-02  8.21897388e-03  1.15230754e-02
  -2.63839774e-02  3.71270031e-02  2.07008421e-03 -5.55417240e-02
  -6.17837161e-03 -3.02209295e-02  6.92644939e-02  4.66064438e-02
  -6.87682331e-02 -2.87843645e-02  4.71180603e-02 -3.15090902e-02
  -5.24284691e-03  5.85651472e-02  5.26810810e-02  6.82815090e-02
   2.40400583e-02  4.10411134e-02  6.47937283e-02 -4.19187993e-02]
 [ 2.68659294e-02 -5.50646335e-03  1.75896958e-02 -6.43024743e-02
  -3.38817053e-02  6.12194836e-03  1.56770349e-02  6.40819222e-03
  -2.39058137e-02  5.43514714e-02  5.96000925e-02 -5.80710173e-02
  -6.10497557e-02  7.65802637e-02  7.79007003e-02 -3.05796936e-02
  -4.87282239e-02  1.46055222e-02  3.30968797e-02 -1.24687701e-03
   2.51528248e-02 -4.15643305e-02 -5.86122572e-02 -8.10598135e-02
  -7.63526931e-02 -8.78208131e-03  6.22119233e-02  6.14025220e-02
  -1.61147043e-02 -4.51573879e-02 -7.65238404e-02  7.98096135e-02
   1.33969188e-02 -7.64951557e-02 -5.89689352e-02 -7.51356781e-03
   3.68204340e-02  6.04829118e-02 -2.30340436e-02 -5.78456298e-02
  -3.52173634e-02  3.99852991e-02 -3.68430391e-02  5.49327061e-02
   5.84372357e-02  9.37211514e-03 -6.48091584e-02  1.86023414e-02
  -2.35782042e-02  3.99921238e-02  3.31667736e-02  3.31924707e-02
   6.43857792e-02 -4.72203009e-02 -8.06989521e-03 -8.42556357e-03
   1.10128522e-02 -4.87525128e-02  1.97945461e-02 -7.49566257e-02
   7.37722963e-03  6.09090552e-02 -4.27003577e-02  6.90798238e-02
  -5.57405800e-02 -1.57600790e-02  7.30721578e-02 -3.20917331e-02
  -5.16584218e-02 -7.32520074e-02  6.82867691e-02  2.33398601e-02
  -9.49230045e-03 -1.15433186e-02 -1.42458901e-02 -2.45719217e-02
   3.69437560e-02 -8.41378421e-03 -6.58408552e-02 -5.79424948e-02
  -1.27919018e-02 -1.77130699e-02 -2.03878842e-02 -6.34875000e-02
  -7.37585872e-03 -5.49380034e-02  1.35264248e-02 -2.04811543e-02
  -5.18182702e-02 -5.83438575e-03 -6.60877898e-02 -9.08350945e-03
  -2.06251107e-02  1.71732828e-02  3.70097160e-02 -6.54293224e-02
  -1.64797157e-02  3.39321047e-03  5.14277592e-02  4.15680408e-02
   7.23295137e-02  2.78918445e-02  3.65376472e-04 -1.55873448e-02
   3.99016589e-02 -1.21479481e-03  1.20622665e-03 -3.35855223e-02
  -3.14351209e-02  7.23458752e-02  3.55935916e-02 -3.87560986e-02
   2.60728598e-02  7.76058212e-02  7.75696859e-02  7.31647238e-02
  -2.30079740e-02 -4.45450768e-02  2.26755440e-03 -5.88436425e-02
   4.64386716e-02  2.20989361e-02 -3.75397988e-02 -1.23299807e-02
   1.03993043e-02  2.04420686e-02 -3.32707725e-02 -6.19570911e-02]
 [ 5.31959161e-02  2.44847015e-02 -3.57907079e-02 -4.58326600e-02
   3.42228562e-02  4.59120423e-03  2.11991891e-02 -3.81414704e-02
  -2.69725174e-03  5.61783984e-02 -8.04493800e-02 -5.97220436e-02
   5.16878888e-02  2.60851830e-02  1.62070245e-02 -9.68512148e-03
   6.19796589e-02  3.68565321e-04  4.59605083e-02 -3.79736125e-02
  -7.59161860e-02  6.29412010e-02  2.79171765e-03 -3.67655680e-02
  -6.61350340e-02  7.01101348e-02  4.79998961e-02 -9.61332023e-03
   6.33579716e-02 -1.66172683e-02 -8.41137022e-03  3.80011350e-02
  -1.91981569e-02  1.33018494e-02 -6.43775910e-02 -6.53720200e-02
  -3.99554819e-02  4.44813445e-02  5.14135137e-02  3.20790857e-02
  -6.01707697e-02  6.64069876e-02 -7.94935971e-03 -1.81791782e-02
  -5.19278422e-02  3.35567072e-02  1.50540918e-02  6.87463209e-02
  -3.64377089e-02 -1.60521641e-02  3.52361798e-02 -3.65543962e-02
  -3.72936204e-02  3.20448205e-02  4.75459173e-02  4.06351686e-03
  -1.43544376e-03  7.43426755e-02  6.24711588e-02  6.93523064e-02
   6.62476346e-02 -2.84552053e-02  6.54669777e-02  1.37873963e-02
  -7.97267258e-02 -5.91940917e-02  2.08956748e-02  4.11810800e-02
  -4.21002321e-02 -4.79218550e-02  4.13902104e-02  4.04126793e-02
  -2.22117379e-02 -2.37473547e-02 -4.81917001e-02  5.13096079e-02
  -6.02457263e-02  5.43094948e-02 -2.25977711e-02  7.59018436e-02
   8.90261680e-03 -5.27064577e-02  3.49126533e-02  4.66290489e-02
   7.24970028e-02 -2.05911137e-02 -7.93827325e-02 -4.19903137e-02
   6.02719709e-02 -1.26903132e-02 -7.15690851e-03 -4.10387143e-02
   1.27820745e-02  4.57615331e-02 -7.97767341e-02  7.14169964e-02
  -6.60108775e-02 -7.32795447e-02  4.26138937e-02  6.99543878e-02
   3.38393152e-02 -7.27038085e-02  7.58494958e-02 -3.25533003e-02
   5.78194335e-02  2.99319401e-02  5.78076318e-02 -1.06915236e-02
   7.96305016e-02  1.95795447e-02  5.73696122e-02 -2.16917694e-03
  -2.25238204e-02 -7.83738494e-03  4.43048701e-02  7.69814774e-02
   3.66145149e-02 -5.92138357e-02 -7.03114867e-02 -1.64012164e-02
  -2.24322341e-02  3.84132117e-02  1.33620128e-02 -5.21596484e-02
   4.28989232e-02  3.30429524e-03 -7.15271905e-02  1.56322271e-02]
 [-5.25108911e-02  2.90248543e-02 -5.56765310e-02 -2.83168778e-02
  -1.22154802e-02  6.56987727e-03  2.73016021e-02 -4.26867604e-03
  -7.67621249e-02 -7.87301436e-02 -1.50493532e-02 -7.30071068e-02
   7.90045932e-02  1.03895217e-02  4.00044844e-02  7.31352195e-02
   3.84816676e-02  7.51737133e-02  2.32540816e-03  7.01086596e-02
  -4.36687805e-02 -5.97563386e-03  3.37011442e-02 -4.59504128e-02
   1.03018209e-02 -4.26206738e-03  4.29041088e-02 -6.34265691e-02
  -5.21343574e-02  5.69129661e-02  6.56020865e-02  3.77563462e-02
   1.46838427e-02  4.24863398e-02 -3.12151685e-02 -6.05725832e-02
  -7.62511045e-03 -3.83003540e-02  5.39044514e-02  2.14946195e-02
   5.85304126e-02  2.00779289e-02 -6.34995922e-02 -3.02037187e-02
  -5.17389439e-02 -2.56857686e-02  6.13413975e-02 -4.32515964e-02
  -1.46954060e-02 -4.02387679e-02 -5.94519861e-02  2.19433829e-02
  -3.71179730e-02 -1.13934651e-02 -1.27248466e-04  5.45152053e-02
   6.75388798e-02 -7.97289833e-02  2.87333876e-02  5.13631478e-02
  -7.63298199e-02  6.54456988e-02 -3.69384736e-02 -7.95719400e-02
  -2.41827369e-02  1.79109946e-02 -6.73252270e-02  1.27027482e-02
   6.35543987e-02 -1.20477378e-03  1.09327883e-02 -7.29516298e-02
  -2.52750814e-02  6.52333349e-03 -7.17456341e-02 -5.16695604e-02
  -5.68705164e-02  3.10136452e-02 -5.53644523e-02 -2.44967341e-02
   1.22832209e-02 -2.86507346e-02 -5.00160567e-02 -4.08254154e-02
   7.45264962e-02 -6.67789951e-02 -6.42236918e-02  4.89831790e-02
  -5.90074211e-02 -2.01967843e-02  1.75449252e-02 -4.85581420e-02
   1.93012878e-02  4.89913002e-02 -2.11706422e-02 -3.89872305e-02
   2.76434422e-02 -5.96116818e-02 -8.75893235e-03 -2.14388855e-02
  -7.80961365e-02 -4.53754254e-02 -3.92456874e-02 -3.81329618e-02
  -2.80895755e-02  2.91659459e-02  2.54221261e-04  5.87423891e-03
  -6.66505322e-02  4.95859236e-03 -7.41906464e-03 -1.73515007e-02
   7.98678920e-02 -2.21798904e-02  3.44439894e-02  4.19857502e-02
  -1.55032426e-02 -1.24131963e-02 -6.75301924e-02 -3.35524715e-02
  -3.66768055e-02 -5.42081147e-02 -5.06656319e-02 -3.09549272e-04
  -5.84514812e-02  2.52102762e-02  1.91536993e-02 -6.66351989e-02]
 [-3.94657999e-03 -5.83231449e-03 -1.35178193e-02  3.58523801e-02
  -1.49471313e-03  2.37576589e-02 -5.86477816e-02 -3.51063907e-04
   5.13348728e-03 -6.96413368e-02 -4.47338000e-02  4.53004166e-02
   1.54176503e-02  3.92908230e-02  1.20504871e-02 -7.44711161e-02
   4.66613695e-02  3.63724381e-02 -7.41692483e-02  4.24691141e-02
  -1.13225952e-02 -4.71542776e-02  6.99270442e-02 -7.32411444e-02
   2.16305107e-02  4.04429585e-02  2.67344639e-02 -3.18941735e-02
  -1.34861842e-02 -2.19419487e-02 -4.16431725e-02  4.20650020e-02
  -3.97361442e-02 -7.73023590e-02 -8.05420056e-02  2.89363787e-02
  -2.40688920e-02 -3.23845930e-02 -3.82737815e-03 -5.14402837e-02
  -5.69660664e-02  6.54319152e-02  1.63597390e-02  2.90958062e-02
   4.83351573e-02 -2.18844973e-02 -5.55556491e-02  7.51456097e-02
  -4.93074246e-02  2.31448859e-02 -6.08250834e-02  6.84361160e-03
   1.22580677e-02 -3.49991135e-02  6.54814020e-02 -6.35840371e-02
  -4.57969233e-02  5.08603677e-02  5.89931235e-02 -3.84479612e-02
   2.94748396e-02  5.77692613e-02  6.73903748e-02 -3.87359411e-03
  -6.02843091e-02  3.19252908e-02 -3.67823541e-02 -2.87271030e-02
  -6.58569261e-02 -4.20996919e-02  1.69421509e-02 -1.34599805e-02
  -4.33714762e-02 -2.34678201e-02 -3.30305509e-02 -9.80813056e-03
  -7.35729262e-02 -5.13605699e-02  4.50113192e-02  5.36308363e-02
  -5.72888032e-02 -4.58772331e-02  3.11304629e-02  3.73449624e-02
   1.85135975e-02 -3.74562964e-02  1.55290589e-02 -4.85711768e-02
  -1.17229372e-02 -6.28315881e-02  5.86170927e-02  8.32324475e-03
  -4.49788533e-02 -4.06782106e-02  2.77008414e-02  5.13919368e-02
  -2.20795237e-02 -2.10373625e-02  2.08112821e-02  5.78611270e-02
   2.13360265e-02 -6.10949695e-02 -3.99326235e-02  6.99330196e-02
  -5.68843633e-02  5.61733469e-02  1.81625336e-02  1.83618143e-02
   6.90707192e-02 -7.50676841e-02  3.22027504e-03  4.12700176e-02
   8.84618610e-03 -1.96865946e-03  2.33225301e-02 -5.47862053e-03
  -7.29143620e-02 -6.19060770e-02 -7.05092177e-02 -3.27496827e-02
   5.73650971e-02 -1.96960568e-03  2.08350420e-02  1.30625740e-02
  -3.17311138e-02 -1.83930248e-02  2.98784301e-02  2.22156420e-02]
 [-3.16343643e-02 -6.60038218e-02  1.94313526e-02  4.25838679e-02
  -5.37428781e-02 -7.07805157e-02  7.51842931e-02 -5.78344539e-02
   6.89355806e-02 -4.42428775e-02 -3.79169919e-02  8.97927582e-03
  -1.41334385e-02 -1.94213949e-02 -2.33579203e-02  3.91704962e-02
  -1.92291737e-02 -3.90584357e-02  5.18458113e-02  6.97028115e-02
   6.97472319e-02 -5.70882671e-02 -1.71552598e-02  9.17810947e-03
  -1.10856444e-03 -4.30049375e-02  2.11064816e-02 -1.65270492e-02
  -4.28690836e-02 -2.64545046e-02  6.29736856e-02 -3.77858952e-02
   1.88583806e-02  2.47129127e-02 -3.42224278e-02  5.32344952e-02
  -6.21736422e-02 -1.60428435e-02  7.82370344e-02  6.03505448e-02
  -6.05594739e-02  4.40762565e-02 -4.91990149e-02 -6.52014390e-02
   6.23565167e-03  2.61033401e-02  3.38406935e-02  1.57530755e-02
  -3.74235921e-02 -9.48959589e-03 -3.32799181e-02 -2.75698788e-02
   2.16351077e-02  4.39888462e-02  4.33680713e-02  1.34717375e-02
  -7.55504817e-02  2.40193307e-03  3.33184972e-02 -4.99690250e-02
   6.44044057e-02 -5.86369932e-02 -8.03494975e-02 -2.32024789e-02
   5.76739088e-02  4.18019369e-02  1.58380494e-02  7.96959326e-02
   2.80426219e-02 -9.48421657e-03 -9.46526974e-03  6.46342412e-02
   7.12655410e-02 -3.49429548e-02  4.72467169e-02 -5.86524084e-02
  -7.51471072e-02  4.87151667e-02  3.76201645e-02  3.28257978e-02
   4.80627194e-02  6.57286420e-02 -4.59167250e-02 -4.49148826e-02
  -4.47367206e-02 -1.67237818e-02  4.23400849e-02 -8.10988247e-03
  -7.27153122e-02 -1.64274573e-02 -2.31163278e-02 -3.07146944e-02
  -7.70901442e-02 -2.48973072e-03  3.55099365e-02  4.63026538e-02
  -7.87289441e-03 -6.75078183e-02 -1.04636028e-02 -2.70733982e-03
   7.83408806e-02 -3.82752344e-02  7.42465779e-02 -4.09253351e-02
  -7.93454871e-02 -4.39708456e-02 -1.59739554e-02 -4.91546132e-02
  -4.40723337e-02 -4.99745011e-02 -6.96425587e-02  8.09164569e-02
   7.59477168e-03 -5.10987714e-02  3.10635716e-02 -2.98330002e-02
   5.21676913e-02 -7.29174167e-03  2.20649987e-02  2.60336474e-02
  -7.77988732e-02 -2.21651532e-02  2.60039568e-02  6.47293255e-02
   3.24585438e-02 -5.58711737e-02  1.23371407e-02 -9.61832702e-04]
 [-5.53406626e-02 -2.25658044e-02  4.54950109e-02  7.97990039e-02
   4.18960974e-02  3.20215747e-02 -5.77797443e-02 -7.31888711e-02
   3.83951515e-02  4.74079028e-02 -6.15782514e-02  5.27100191e-02
   4.50060889e-02  1.32483244e-02 -2.76237726e-03  7.73017630e-02
  -7.89221153e-02 -6.72557652e-02  2.79101953e-02  4.26312536e-03
  -7.85461217e-02  5.04409596e-02  1.87503546e-02 -2.71511860e-02
   3.32231596e-02 -7.55522847e-02  7.04041868e-03 -7.11672753e-03
   1.37514621e-02  7.07154050e-02  5.54763451e-02  9.63084400e-03
  -7.45204836e-02  1.09243989e-02 -1.58890411e-02 -2.26380117e-02
   1.07120275e-02  5.35448641e-03  7.81602636e-02  6.22304603e-02
   1.71700120e-02 -2.34354101e-02 -6.66522756e-02  4.05189618e-02
  -7.80215338e-02  3.58563587e-02 -6.29668012e-02 -3.14588100e-02
  -4.73044999e-02 -4.40324955e-02  7.54829124e-02  8.10974017e-02
  -7.34434202e-02  4.33926284e-03  4.34644744e-02  4.75223884e-02
   5.68084642e-02 -1.61344111e-02  6.94730207e-02 -9.93833691e-03
  -3.51393148e-02 -5.09090200e-02 -1.90272033e-02 -4.25739251e-02
  -5.98514192e-02 -6.16200790e-02 -3.54019888e-02 -5.51673919e-02
   5.04385680e-03 -3.56384367e-02  6.46487549e-02 -1.91787407e-02
   5.82248047e-02 -8.09472203e-02  1.94147229e-03  6.00022599e-02
  -7.03820884e-02 -6.27247393e-02  5.63246533e-02 -2.06299126e-04
   3.77576426e-02 -1.60596296e-02 -6.41019195e-02 -8.08337480e-02
   2.64509469e-02 -4.42211628e-02 -6.02915585e-02 -2.40798779e-02
   6.01719394e-02 -4.30991128e-02  3.66635621e-04  4.53653112e-02
  -7.76794329e-02 -4.51434255e-02 -7.24466071e-02 -2.82064751e-02
   8.64524394e-03  2.36682445e-02  6.95337728e-02 -3.48672271e-02
   1.86034292e-03 -2.13041753e-02  7.15469643e-02  3.92564014e-02
   1.62810683e-02 -6.13500997e-02 -4.08702381e-02  3.50253358e-02
   3.27063799e-02  7.82319680e-02 -8.36064667e-03  5.40237501e-02
  -6.54631630e-02 -7.52192736e-02  6.05788156e-02  4.28744033e-02
  -4.85345498e-02 -3.19207050e-02  5.83051667e-02  5.64094111e-02
  -4.81528305e-02 -1.56202018e-02 -5.07988036e-03  1.56353638e-02
  -1.80744827e-02  4.54401299e-02 -5.80434799e-02 -3.04936357e-02]
 [ 5.73721305e-02 -5.37504256e-03 -3.30699421e-02  6.27248362e-02
  -9.47611779e-03  6.10471517e-03  6.05304763e-02  2.42398605e-02
   1.02233887e-03  5.16307279e-02  4.60445657e-02  7.66065717e-03
   1.66814029e-03 -6.68581277e-02  2.53328234e-02  5.18542156e-02
   6.73569962e-02  6.47846833e-02  4.48908135e-02  5.66174164e-02
   4.00241539e-02 -7.96839669e-02 -9.54124331e-03  3.84511948e-02
  -6.75972551e-02  1.93516240e-02 -1.78692862e-02 -1.02285296e-02
  -1.69090629e-02 -3.66481878e-02 -1.73357576e-02 -5.35697415e-02
   3.06225568e-03  6.45368174e-02 -5.78330979e-02  6.14831075e-02
   7.84860626e-02  3.42940018e-02 -2.66508274e-02 -9.39378887e-03
   6.83756396e-02  6.57705441e-02  9.92505252e-03  6.02171570e-03
   4.45807725e-03  6.25678822e-02 -3.43706571e-02 -7.16120079e-02
   1.19546056e-02  6.72541037e-02  6.02870658e-02 -3.56379524e-02
   4.81596962e-02  7.44480714e-02 -3.53555381e-02 -3.87582444e-02
  -2.92988010e-02  2.24759802e-02 -4.02008072e-02 -7.08181113e-02
  -6.35702908e-02  2.53670886e-02 -6.37712777e-02 -2.93163806e-02
   8.07879493e-02  4.69627902e-02 -7.36831203e-02  7.69209936e-02
  -7.91545585e-02  2.08747387e-03  5.22528589e-03  1.96120366e-02
  -6.11029938e-02 -7.40650520e-02  3.22707072e-02 -6.14086352e-02
  -5.01513258e-02 -6.51092529e-02 -8.00842866e-02  2.17163488e-02
   4.36130315e-02 -7.01418892e-02  2.75499448e-02  1.39804333e-02
   2.61525586e-02 -5.53991422e-02  6.82301298e-02  2.89190561e-02
  -1.14033148e-02  3.88225242e-02 -2.73116753e-02 -6.80402815e-02
   2.07796618e-02 -6.70217499e-02  1.70883685e-02  4.75012437e-02
  -8.03955942e-02  3.16292197e-02  4.05106619e-02  3.14825177e-02
   6.97840378e-02  7.30497465e-02 -1.45494193e-02 -7.51905590e-02
   3.92690897e-02 -4.59788591e-02 -1.87722854e-02  4.19185683e-02
   1.15435719e-02 -2.41766833e-02 -3.12950537e-02  5.64465448e-02
  -7.51142278e-02  1.38074905e-02  5.50385639e-02  2.73276493e-02
  -2.25456543e-02  1.88571066e-02 -3.03349867e-02  7.70248696e-02
   7.43917301e-02 -1.77152380e-02  1.76571459e-02  2.53774151e-02
  -5.62295876e-02 -5.06687835e-02 -6.57038689e-02 -7.43946433e-03]
 [-6.30891323e-02  2.50260532e-03 -3.61800194e-04  6.14182428e-02
  -4.91891056e-03  2.37736180e-02  6.96530938e-03 -4.66033705e-02
  -2.12082565e-02  7.94687346e-02 -3.55906524e-02  4.79417220e-02
   6.47060052e-02 -4.22850288e-02 -1.26907974e-02 -7.59739354e-02
  -4.05873023e-02  1.01021752e-02  5.31487688e-02 -7.51584768e-04
   4.94206324e-02 -3.74209844e-02  3.64478230e-02  2.72052586e-02
   4.01863605e-02  8.36313516e-03  7.79463425e-02 -7.26971030e-03
  -4.21875082e-02  8.02176669e-02  4.73509356e-02 -5.86584210e-02
  -5.18942326e-02 -6.16139919e-02  7.19352290e-02 -4.39853705e-02
  -4.80573960e-02  1.47362053e-03  2.21761987e-02  7.49483332e-02
  -7.00490922e-03 -2.66960002e-02 -7.31542557e-02  5.57708815e-02
  -1.46066993e-02 -1.90223306e-02  6.26483336e-02 -4.07245271e-02
   5.71481511e-02 -2.10862681e-02  4.87045124e-02 -3.22046503e-02
   2.27361917e-02 -2.23774686e-02 -6.76455498e-02  5.49594834e-02
   1.89938098e-02 -4.78378274e-02  6.56705424e-02  3.38102132e-02
  -3.83209474e-02  4.39895466e-02  5.61069623e-02  7.86794201e-02
  -2.56256051e-02  7.30748698e-02  5.23324236e-02  1.67122558e-02
   4.69477102e-02  4.13898602e-02  5.62587753e-02  2.84969807e-04
   7.19570592e-02 -2.32839882e-02  5.15450463e-02 -4.04403508e-02
   4.27517816e-02 -3.10207903e-03 -5.48784956e-02 -7.03668147e-02
   6.22828081e-02 -2.49385163e-02  4.51520085e-03  2.78574601e-02
  -6.79428130e-02 -3.57605517e-03  6.90393373e-02 -8.12359154e-03
  -4.81170341e-02 -7.06932992e-02  4.39064205e-03  5.57865277e-02
   7.97471330e-02  1.55683011e-02 -3.27503197e-02 -5.23294508e-03
  -1.33966282e-02  8.69710743e-03 -6.59922585e-02 -2.77787335e-02
  -5.77305295e-02  1.67045593e-02  3.47415060e-02 -2.11727507e-02
  -4.14974391e-02 -1.61746144e-02 -5.88431209e-02  6.06858805e-02
  -3.53496186e-02  4.58993986e-02 -1.53519064e-02 -4.42241207e-02
  -7.93477148e-02  1.31509528e-02 -4.04247642e-02 -5.44671714e-02
   1.33637339e-03 -1.59299225e-02 -8.10646862e-02 -2.36060508e-02
  -6.92354664e-02 -5.20145521e-02  6.84186742e-02 -2.86530554e-02
   3.44121158e-02 -1.26107559e-02 -7.00475201e-02 -3.62550952e-02]
 [-5.70617728e-02  3.24142575e-02 -7.29546472e-02 -4.88267913e-02
  -6.26667887e-02 -5.46977818e-02 -7.06603676e-02  3.30862254e-02
  -7.81820193e-02 -2.85232179e-02 -4.70927618e-02  2.56877765e-02
  -6.83925077e-02  6.83041736e-02 -6.82318658e-02 -5.32624163e-02
   3.84211615e-02 -2.40761824e-02  3.98981199e-02  4.45704237e-02
   1.66789964e-02 -6.82279989e-02  2.07544267e-02 -4.61865328e-02
  -2.11582854e-02 -5.48976809e-02 -2.88953073e-02  8.02309439e-02
   3.53206694e-02  3.38861346e-03  7.00575784e-02  9.16820765e-03
  -4.15481627e-03  6.95058182e-02 -6.42804354e-02  4.54723313e-02
  -2.20345408e-02  1.09127387e-02  2.46421397e-02 -4.30569761e-02
  -1.58154219e-02  3.93609628e-02  4.45859954e-02  8.07084143e-03
  -1.49518922e-02 -3.27934437e-02 -2.99605578e-02 -4.84301820e-02
  -1.30773336e-03 -1.41899809e-02 -3.85588408e-03  5.49548194e-02
  -6.36335835e-02  3.32356170e-02 -2.64168903e-02 -2.08403841e-02
   1.67643502e-02 -7.09355697e-02 -2.72003822e-02 -8.55988264e-03
  -1.53466240e-02 -4.28901650e-02  4.51787040e-02  1.27373636e-02
  -4.91923206e-02  6.47980645e-02 -6.35197982e-02  4.98825237e-02
   6.50879666e-02 -2.33807415e-03  4.65394780e-02 -3.06208432e-03
   7.66068175e-02 -4.26395386e-02 -5.74896485e-03 -4.88635711e-02
   1.54927596e-02 -1.64999813e-03  7.26376548e-02  1.23185515e-02
  -4.91871387e-02 -4.50033359e-02  7.75820240e-02  2.25560963e-02
   6.21096268e-02  5.50184473e-02  5.76399341e-02  4.58602533e-02
   7.44244084e-02  3.47133279e-02  3.54970545e-02 -1.82145089e-02
  -2.38559395e-03  3.03954184e-02  3.44965309e-02  5.60337082e-02
   5.49919158e-03  5.35054579e-02  4.54940721e-02  5.11833802e-02
   6.98693097e-04  5.91663048e-02  1.57511830e-02  1.43255442e-02
   2.61186361e-02  3.53282318e-02 -3.28011997e-02  4.77255359e-02
  -4.75924462e-02  1.17075220e-02 -7.94932321e-02  3.58755067e-02
  -7.70311207e-02  6.65264651e-02  8.93329084e-03  3.68095189e-03
   3.23083848e-02  4.75741178e-03  5.17964885e-02 -2.89936624e-02
  -7.07802847e-02 -7.65606612e-02 -1.56530216e-02  4.01484743e-02
  -2.14645267e-03  2.73711979e-04 -5.39475307e-02 -2.74167769e-02]
 [ 2.92593911e-02  6.73202500e-02  3.40857320e-02 -5.12191094e-02
   4.79680970e-02  6.05747364e-02  3.71426269e-02 -1.80164278e-02
   2.51108017e-02  6.07289746e-02 -3.38120908e-02  1.12890899e-01
  -9.35993716e-03  5.26637025e-02  2.03468055e-02  4.57211351e-03
   4.58334386e-02 -1.17529631e-02 -6.86448365e-02 -6.06290326e-02
  -6.39741868e-02 -7.13419095e-02  2.11196411e-02 -5.14810532e-03
   2.93825772e-02  8.73613544e-03  3.42017002e-02  3.40024419e-02
  -2.38918085e-02  6.51248544e-03 -6.62473142e-02  8.58730897e-02
   9.42802348e-04  1.31528869e-01  1.87836529e-03 -3.28577422e-02
   6.24247752e-02  5.41940844e-03  7.85405841e-03 -2.95508560e-02
   5.70957139e-02  1.27975807e-01 -2.43810564e-02  3.22233588e-02
  -9.46133584e-02  4.08858843e-02 -5.69198094e-03 -1.29945502e-02
  -7.89451227e-02  5.19793816e-02 -2.21687090e-02  2.13220101e-02
   9.91819501e-02 -2.72923466e-02  2.35519558e-02 -7.26772621e-02
  -8.60895682e-03  7.24023348e-03 -5.92145473e-02  2.39236429e-02
  -4.74811345e-02  3.41984741e-02 -3.35456841e-02  4.79562171e-02
   4.98493016e-03  9.93990600e-02 -4.58541065e-02  5.10003008e-02
  -1.45633509e-02 -2.06207708e-02 -4.87056337e-02  8.75860080e-02
  -6.54222965e-02  7.47857522e-03  1.93308834e-02 -4.26703542e-02
   1.00537362e-02  5.65660652e-03 -2.08558980e-02 -7.17687011e-02
  -5.86601011e-02 -3.71835977e-02 -1.32348314e-01  6.21800311e-02
  -9.76212621e-02  7.92138651e-02 -7.36724809e-02  1.05287723e-01
  -2.39460040e-02  4.01368812e-02 -1.32979956e-02  5.32852765e-03
   7.48214647e-02  8.04414526e-02  2.32791938e-02  6.58838525e-02
  -4.25908715e-03  3.68647720e-03 -4.44484729e-04 -4.64031994e-02
   8.06407258e-02  5.26464172e-02 -1.95039101e-02 -9.88186598e-02
  -4.49511632e-02 -3.12941223e-02  4.74571921e-02  8.94910395e-02
  -3.88254300e-02 -9.69893485e-02  9.18175746e-03  1.61705799e-02
  -8.53646547e-03  1.87449269e-02  5.15275262e-02  8.70346799e-02
   7.25164711e-02 -2.00313646e-02 -3.40583436e-02 -7.00439215e-02
  -2.77699586e-02  2.74345670e-02  9.93364006e-02  4.56762537e-02
  -5.44653572e-02 -2.23811772e-02 -3.48807871e-02 -5.38715683e-02]
 [ 5.69585562e-02  5.24225086e-02 -8.35264921e-02 -2.80475672e-02
  -6.19154773e-04  3.91407497e-02  6.41364306e-02 -7.81657174e-02
   4.94326756e-04  2.36210581e-02  3.16664353e-02  7.10307509e-02
   4.27917577e-02 -2.69820876e-02  4.45557982e-02 -1.96931101e-02
  -6.25889152e-02 -4.34092134e-02 -7.39689916e-03  2.45776456e-02
   6.73041865e-02 -5.07303327e-03 -5.20657487e-02 -7.25463927e-02
   4.46684659e-02  4.76765819e-03 -1.21385267e-03  1.07933313e-01
  -2.42808536e-02  9.72598791e-04  7.08884839e-03  2.32164236e-03
   2.99805067e-02 -1.43951634e-02 -3.81438546e-02  4.82684150e-02
   5.41236401e-02 -6.48071468e-02 -7.71376267e-02 -5.46503626e-02
   3.31600979e-02  6.91033453e-02 -3.35985720e-02  1.38853705e-02
  -5.11352010e-02  7.93459639e-02 -1.62735581e-02  5.22508658e-02
   3.89240310e-02  8.27576071e-02 -2.84581147e-02  3.43683660e-02
  -3.84241678e-02 -1.02259472e-01  1.63268242e-02  4.40438800e-02
  -2.52682623e-03  2.77084876e-02  1.58225503e-02 -1.87624246e-03
   8.10372010e-02  1.51610887e-02 -4.85133147e-03 -6.85278028e-02
  -1.87236145e-02 -6.66726963e-04  6.31996766e-02 -1.78323314e-02
  -1.04264572e-01  3.89743224e-02  8.55066702e-02  1.07232854e-03
   4.54769051e-03 -5.62775917e-02  2.07527466e-02  3.78853194e-02
  -8.21656436e-02  9.92956236e-02 -8.15207586e-02 -7.43899122e-03
  -3.03556081e-02 -1.05585530e-01 -2.98371632e-02 -8.29069316e-03
  -4.08308208e-02 -6.69812709e-02  1.15569904e-02  5.74411266e-02
   1.17790751e-01 -2.25074720e-02  1.16363309e-01 -1.25500308e-02
   3.92195173e-02 -1.41573148e-02 -3.54393572e-02 -4.86536734e-02
  -9.42666829e-03 -1.89006086e-02 -4.46428433e-02  8.45646113e-03
  -1.15406569e-02  1.24197587e-01  1.49757080e-02 -9.21163410e-02
  -4.94035929e-02 -5.76701425e-02 -5.26405722e-02  6.46041185e-02
  -1.97650921e-02 -9.03350189e-02 -2.88843755e-02 -6.15575816e-03
   3.63636538e-02  2.91007068e-02  1.49811786e-02  7.22183138e-02
   8.80279392e-02 -1.92112047e-02  7.02903941e-02 -7.88511988e-03
   5.71231917e-02  2.40697190e-02  6.45489991e-02 -7.64289424e-02
   2.81501953e-02  3.36906053e-02  3.35965268e-02 -3.44087295e-02]
 [-3.44332047e-02 -1.36136934e-01 -1.12161338e-02  3.12242750e-02
   1.41826356e-02  5.60132638e-02  1.03086412e-01 -2.59616859e-02
   5.03595285e-02 -6.26437664e-02  5.46057262e-02 -2.02548392e-02
  -3.64236012e-02 -2.57122740e-02  4.69933636e-02 -1.01885116e-02
  -3.80977131e-02  1.72893777e-02  1.38051510e-02 -2.98330444e-03
  -3.34551036e-02  2.32226104e-02 -6.51359260e-02 -3.83149832e-03
  -3.06768660e-02  6.19039647e-02  6.64393306e-02  1.54898744e-02
  -7.43985027e-02 -5.91855422e-02 -2.49709189e-02  2.12217066e-02
  -1.95038673e-02  5.47583476e-02  4.25534397e-02 -6.63986728e-02
   8.34648684e-02 -5.79149500e-02 -4.84151989e-02  4.42296118e-02
  -6.43074289e-02 -7.58699551e-02  7.54179135e-02  8.52402598e-02
  -2.55444888e-02 -7.78379962e-02 -1.01873297e-02  7.30110258e-02
  -5.40316254e-02 -8.23378786e-02  1.64313987e-02 -3.20326425e-02
   5.86356595e-02  6.17140457e-02  7.65772164e-02  2.95503363e-02
  -7.87828639e-02  1.53809162e-02 -9.04027522e-02  7.81981722e-02
  -3.03026512e-02  2.15939945e-03  2.81919725e-02  2.06468850e-02
   2.91664526e-02 -7.97286630e-02 -4.27951738e-02 -3.55746411e-02
   2.62008794e-02 -4.71121930e-02  8.77846256e-02  7.97991008e-02
   1.12810424e-02  3.81564945e-02  8.91223270e-03 -1.36174336e-02
   1.66269299e-02  5.86851500e-02 -8.69961679e-02 -2.29126923e-02
   2.81620547e-02 -2.04678066e-02  2.16592848e-02  2.37887874e-02
   5.70642203e-02 -1.76958553e-02  7.80094042e-02  2.43535340e-02
   4.36951667e-02  7.53939971e-02  3.15771028e-02 -4.03307192e-02
  -2.14294530e-02  1.08982816e-01 -3.23566087e-02  2.71165520e-02
   2.36996636e-02  1.07670307e-01 -1.03841737e-01  4.05762345e-03
   1.30559467e-02  4.56683598e-02  2.35127714e-02 -1.96015723e-02
   8.05874839e-02  5.90269454e-02  6.28307462e-05  3.78563553e-02
   5.51421903e-02 -5.98960221e-02 -5.98474257e-02 -1.64269712e-02
  -5.37559539e-02  3.33815590e-02  6.38725460e-02  1.24608815e-01
   6.55011088e-02  7.99433365e-02 -4.77439240e-02 -1.66976526e-02
   8.00707862e-02 -5.75912893e-02  9.04711783e-02  4.67535630e-02
   3.75659578e-03 -8.71245414e-02 -3.88601571e-02 -5.44591285e-02]
 [-4.70857546e-02  2.57516671e-02 -7.07458407e-02  7.28849918e-02
  -9.21251327e-02  3.18204388e-02  7.36971349e-02 -5.35611734e-02
  -5.22252433e-02  5.28817996e-02 -9.77379177e-03  4.49231789e-02
  -3.71111073e-02 -5.15554771e-02 -8.07332546e-02 -4.74076197e-02
   7.73744890e-03  1.31423799e-02 -5.73542044e-02 -5.79495579e-02
   1.88668147e-02  3.30275297e-03 -9.54751000e-02 -6.03693724e-03
   2.59291306e-02  5.38252704e-02  7.10148662e-02  8.25053230e-02
   7.60044530e-02 -9.98596847e-03 -2.91436445e-03 -7.22328126e-02
  -1.38094518e-02 -4.92490791e-02  8.00584850e-04 -2.29599774e-02
   5.37145697e-02  5.37029468e-02  3.34135816e-02  5.09500280e-02
   3.50130945e-02  6.51125535e-02  4.20382768e-02  8.02545622e-02
   5.42380624e-02 -6.86090067e-03  4.53314139e-03  6.69054762e-02
   5.86733804e-04  5.49280085e-02  3.77799273e-02 -3.02818660e-02
  -7.91493896e-03  8.97196680e-03  1.51785109e-02 -2.85143089e-02
   3.46848443e-02  2.89048050e-02 -2.64432169e-02  1.62270367e-02
  -3.23655456e-02 -4.85726185e-02  6.13836199e-02 -7.13530034e-02
   5.03833070e-02 -6.13235533e-02  6.16676882e-02  3.57593559e-02
   6.24294728e-02 -7.52811804e-02  1.00632794e-02 -7.06018433e-02
  -3.13828886e-02 -7.34153613e-02 -7.77356997e-02  6.07424304e-02
   7.24700689e-02  2.74764448e-02 -3.57585191e-03  6.40360564e-02
  -6.31197840e-02  1.03980815e-02 -6.08244129e-02 -9.07066911e-02
   2.64828820e-02  6.66159485e-03  3.99422124e-02  3.78964492e-03
  -2.60794125e-02 -7.12725222e-02 -4.28929068e-02 -4.31006402e-03
  -7.63984621e-02 -1.12238545e-02  5.77551313e-02 -1.98982581e-02
  -3.67924683e-02  5.81725650e-02 -8.07042569e-02  7.53457025e-02
   4.49597836e-02 -2.92264186e-02 -3.21674184e-03  7.44517148e-03
  -5.27452901e-02 -6.55207410e-02 -9.89871472e-03  4.36242595e-02
   4.95648421e-02 -4.87054996e-02 -2.58430019e-02  2.23546289e-02
   2.94715185e-02 -5.19289933e-02  1.73805058e-02  5.53017966e-02
   1.86856315e-02  7.15589002e-02  2.28791684e-03  9.55598056e-03
  -3.83299887e-02  3.42114121e-02 -3.48634496e-02 -4.58406284e-02
  -1.08956629e-02 -2.49576215e-02  2.55339555e-02  3.74203995e-02]
 [-3.91137600e-02  2.11355835e-02 -4.01736945e-02  5.55490479e-02
   7.17476383e-02  4.25022840e-03 -2.66745351e-02 -2.62348019e-02
   1.73268244e-02  6.05312213e-02 -5.94045110e-02 -8.06697533e-02
  -1.76312774e-03 -5.41365817e-02  5.00613227e-02  4.25997972e-02
   2.64414102e-02  5.08377478e-02 -6.12360612e-02 -3.38689052e-02
   3.85318175e-02  1.85588300e-02 -7.39324316e-02  6.01352677e-02
  -5.73332608e-03 -4.70583886e-03  2.08368823e-02 -1.15803704e-02
   8.04720595e-02 -2.15627253e-02  2.18611583e-02  3.17831337e-02
  -5.59201166e-02 -2.26337016e-02 -5.75403124e-03 -4.16130051e-02
   1.04341358e-02  2.12666988e-02  4.70382646e-02 -4.16722186e-02
  -4.79064211e-02  4.64827344e-02 -7.33102560e-02 -9.61523503e-03
  -2.46672593e-02  5.14911115e-03  7.72764608e-02  3.35845128e-02
   1.98932514e-02  2.20568776e-02 -2.57760771e-02 -5.37836552e-03
   6.58126846e-02  7.89448544e-02 -2.57167481e-02  7.52318725e-02
   1.24048442e-02  2.84839049e-02  1.22290552e-02  4.13296968e-02
  -3.66572551e-02  2.43092477e-02 -9.26636904e-03 -7.77166784e-02
  -3.62497978e-02  4.43734154e-02  5.41348234e-02 -6.80290237e-02
   6.30937517e-03 -1.52984336e-02  4.24992219e-02 -2.12775655e-02
   7.83860683e-04  5.52344397e-02  3.76081616e-02 -1.21820495e-02
  -2.21147947e-02  7.85674155e-03 -5.80515862e-02 -6.77501261e-02
  -5.37365712e-02  8.12985748e-03  2.71281898e-02 -6.95313960e-02
   7.35738501e-02 -4.43495102e-02 -4.09990326e-02  3.51800397e-02
  -1.78478658e-03  6.30589798e-02  6.26616552e-02 -4.77007590e-02
   2.17428654e-02  5.76143190e-02 -3.78466956e-02  4.13820893e-02
   6.38223663e-02  5.89370802e-02  3.47238332e-02  1.79211125e-02
  -2.13828012e-02  2.91041210e-02 -4.49830145e-02 -1.78837925e-02
   7.31700584e-02  7.38629475e-02  2.19199806e-03  1.43583193e-02
   2.60932446e-02 -1.91228837e-03 -7.38090724e-02 -4.54436317e-02
  -7.68471360e-02  7.28653446e-02 -4.68554646e-02 -1.61867589e-02
  -7.56106079e-02 -7.74200484e-02 -2.49060877e-02 -1.18900016e-02
   1.25798509e-02  2.73749307e-02  5.85558265e-03  6.46081194e-02
  -5.77295646e-02  7.55662397e-02  4.20252234e-02  3.96007374e-02]
 [ 2.27140710e-02  4.22188118e-02  7.23178685e-03  5.98656163e-02
  -8.39568675e-03 -7.45037198e-03 -2.62993723e-02 -8.05333853e-02
   1.42365471e-02 -9.46959853e-03 -4.27080952e-02 -2.30497122e-03
   1.69121772e-02 -6.09967485e-02 -1.93926580e-02  6.04564026e-02
  -3.32033373e-02 -6.80207089e-02  1.49203464e-02  7.41525367e-02
  -2.46325471e-02 -3.44598442e-02 -2.77733579e-02 -5.68334833e-02
  -2.04690471e-02  8.07809085e-03 -1.02941692e-03 -5.12121692e-02
  -1.20109245e-02  4.15149182e-02 -2.63791047e-02  5.43400571e-02
  -5.95806055e-02  3.35433632e-02  5.27747795e-02 -2.46418267e-02
   4.55726683e-03  3.28977183e-02  7.22787902e-02 -2.38235854e-02
   2.54414976e-04 -3.99383865e-02 -6.74359947e-02 -6.15900010e-03
   2.81964988e-02  3.13695669e-02  5.08112684e-02 -3.04529294e-02
   1.52107105e-02 -3.43290977e-02 -7.32508674e-02  3.78007889e-02
  -7.19307959e-02  7.07665607e-02 -2.51682959e-02  6.85357675e-02
   1.69622824e-02 -7.43167177e-02  1.84533969e-02  1.77229121e-02
   5.59224561e-02 -1.30368546e-02  1.79954693e-02 -6.86776713e-02
   3.42930108e-03  1.24305487e-04  1.76219642e-02  1.93313584e-02
  -6.20037727e-02  2.59010419e-02 -5.89397550e-02 -1.37212574e-02
   1.09470412e-02 -3.40995342e-02 -1.14116818e-02 -6.26916364e-02
   6.60443231e-02  2.87036076e-02 -3.06184255e-02  1.23611763e-02
  -6.42765239e-02  5.58695421e-02  4.65642288e-02 -5.47944158e-02
   1.55965909e-02  7.92795643e-02  5.37349060e-02  2.78443694e-02
   3.08395028e-02  1.59108937e-02 -7.54655898e-02 -3.13120931e-02
   1.73672810e-02  3.93997133e-02 -6.46816790e-02  2.61632130e-02
  -8.06970596e-02 -7.94296116e-02  6.46591559e-02 -1.73824653e-02
  -6.18623905e-02  4.85400930e-02 -7.81665519e-02  2.09233090e-02
  -7.22142756e-02  6.18177578e-02  6.45071268e-04  2.09366083e-02
  -9.12225991e-03  5.56318089e-02  4.70114425e-02 -7.50634074e-02
   1.53805241e-02  8.01103935e-02  7.27959797e-02 -1.72478855e-02
   9.25585628e-04 -6.71069548e-02  2.94164717e-02  1.66492090e-02
  -2.07991526e-02 -7.53587633e-02 -4.94060703e-02 -6.96906149e-02
  -1.83945894e-03 -6.57401085e-02  1.34072825e-02 -5.98664843e-02]
 [ 2.86163315e-02 -7.81007409e-02 -7.79186189e-03  1.64319575e-03
   2.98850387e-02  1.77789181e-02  4.16672677e-02  5.50349280e-02
  -3.88959534e-02  2.40686536e-03 -9.13435221e-03  6.49662390e-02
   4.28158268e-02  3.99144664e-02 -9.13148373e-03  5.58649078e-02
  -6.24781772e-02  2.08697990e-02  2.63173729e-02  5.17903492e-02
  -5.19371815e-02 -9.70853865e-03 -5.33837639e-02  3.34272385e-02
   3.75509784e-02  6.14151582e-02  6.39758185e-02  1.55288503e-02
  -4.06158827e-02  3.48721445e-03 -7.86460415e-02 -2.62073018e-02
   4.93682250e-02  9.35465097e-03  7.42756501e-02 -2.88469233e-02
  -5.92453554e-02 -3.48004326e-02  7.38198087e-02  3.72251421e-02
   6.17717281e-02 -1.33261383e-02 -5.18886819e-02 -2.89830044e-02
   3.69112268e-02  9.35683399e-03  3.09733823e-02  3.45405787e-02
  -6.06683455e-02  3.90407965e-02 -6.91206753e-03  6.53420016e-02
  -4.63278554e-02  8.02329555e-02  8.00180212e-02 -2.26144977e-02
  -1.44049451e-02  2.34057829e-02 -3.74228582e-02  3.50329578e-02
  -7.86810070e-02  4.76076677e-02  2.47132257e-02 -2.69654617e-02
  -3.48077789e-02 -7.31130838e-02  2.34360844e-02 -3.24483514e-02
  -2.04896070e-02  4.38742340e-02 -1.66417062e-02  3.50953564e-02
   9.27986950e-03 -2.89385878e-02 -3.36557776e-02 -7.37178922e-02
   1.89351290e-03 -3.27730216e-02 -5.84751293e-02 -4.09479029e-02
  -2.46791132e-02  5.07043526e-02 -4.59043458e-02  9.83142108e-03
  -7.71815106e-02  2.05993503e-02  2.56117806e-02 -7.45918676e-02
  -2.39492841e-02 -6.00304157e-02 -2.91242339e-02 -3.75934020e-02
   3.08826044e-02 -5.17787822e-02  6.66760281e-02  3.13139483e-02
   7.79581442e-02 -3.09866294e-02 -5.08022383e-02  5.45885339e-02
   4.18122858e-02 -6.04822487e-03 -5.43062016e-02 -4.41626236e-02
  -5.97190484e-02 -4.11072485e-02  5.10329977e-02  1.02693364e-02
  -4.38992679e-03 -6.00779653e-02  3.91696841e-02  4.15957570e-02
  -9.80161875e-03 -3.91622223e-02 -2.06839554e-02  8.14179331e-03
  -3.12352180e-03  5.40791452e-03 -7.84164742e-02 -7.52364099e-02
   5.31994551e-03  2.16837823e-02 -4.52032164e-02  4.70452234e-02
  -4.85063158e-02  1.61430910e-02  4.15291935e-02  7.19908401e-02]
 [-2.60055661e-02  7.68299401e-03  1.17001757e-02 -2.94363499e-03
   1.84267089e-02  2.10945234e-02  1.69636160e-02  4.42827493e-03
   2.15637907e-02 -5.30507788e-02  1.42266825e-02  8.46847147e-03
  -6.61971495e-02  1.58479661e-02  5.30332252e-02  8.10659155e-02
   5.06339893e-02 -7.76472166e-02  7.39466473e-02 -7.80581161e-02
  -4.63992916e-02 -4.25989479e-02 -7.32955784e-02 -8.07151645e-02
   4.09621522e-02  1.21051148e-02 -1.81256160e-02 -3.65032256e-02
   3.74135748e-02 -4.89677452e-02 -2.26475261e-02 -7.79430196e-02
   2.95787603e-02 -1.18282437e-03 -4.79547679e-02  5.57009950e-02
   1.35721192e-02  7.73914382e-02 -1.88791752e-03  2.74730921e-02
  -2.61488222e-02 -3.64043675e-02 -3.99276316e-02 -7.26501644e-02
   3.33548933e-02  1.91194266e-02  4.15963158e-02  4.14677337e-02
   4.42164615e-02  2.14259252e-02  6.13865480e-02  6.93184659e-02
  -4.70671989e-02 -6.81290030e-03  4.66019437e-02 -4.15254980e-02
  -2.81646289e-02 -3.61201912e-02  6.28300235e-02 -4.39182445e-02
  -5.05208634e-02 -7.19507933e-02 -1.97075307e-04  7.08616152e-02
  -2.66658328e-02  1.18123367e-02  1.36355534e-02 -7.67846182e-02
  -1.01377591e-02 -1.85411945e-02  5.89497313e-02 -4.01030332e-02
   5.39800152e-02  5.42994067e-02  5.95938489e-02  1.02756023e-02
   1.00841522e-02 -4.61054444e-02 -4.56531234e-02  4.46364954e-02
   3.33431140e-02 -1.30789578e-02 -1.19185820e-02  5.15011773e-02
  -4.21734490e-02 -4.87912260e-02 -1.95601471e-02  7.14833513e-02
   2.60286182e-02  3.94692943e-02 -3.85912023e-02 -7.49221444e-02
   7.24790320e-02 -6.25635758e-02 -6.06934726e-03 -1.83042884e-03
   6.39320090e-02  7.72041157e-02  2.72286534e-02  7.87360743e-02
   4.70372960e-02  4.28681970e-02 -4.75240089e-02  2.35158727e-02
  -1.13844201e-02  2.29915529e-02 -3.83919217e-02  6.71389922e-02
   1.49939507e-02 -2.14885250e-02 -3.86296213e-03 -3.56043614e-02
  -2.30439045e-02  8.49373639e-04  5.42452112e-02  4.50575873e-02
  -3.23127918e-02  3.22646201e-02  4.78828326e-02  4.38615829e-02
  -4.25677560e-02  3.25920358e-02  6.74454495e-02  8.00880268e-02
  -5.64489812e-02 -2.31454521e-03 -3.25388536e-02 -1.97513476e-02]
 [-5.27060553e-02 -3.58839557e-02  2.34520957e-02 -3.99185047e-02
  -1.28831565e-02 -5.02586737e-02 -1.61769539e-02 -4.24660370e-02
  -7.78166801e-02 -6.80154860e-02  3.46793756e-02  7.95378610e-02
   4.57352400e-03  5.76374009e-02  4.15854678e-02  1.71550661e-02
  -2.78818272e-02 -4.36066277e-02  8.09439272e-03  6.75114021e-02
   7.89464191e-02 -1.20637342e-02 -1.55952945e-02  5.38222715e-02
  -6.71429932e-03 -3.26496437e-02  7.89534375e-02 -6.29574060e-03
  -3.76424827e-02  9.25457478e-03  3.12962756e-02  1.66085437e-02
   4.79250327e-02 -7.73554444e-02 -6.50087148e-02  6.01022691e-03
   7.07778111e-02 -1.19910017e-02 -6.60377443e-02  5.93174994e-03
   4.62085530e-02 -5.97532988e-02  5.47211841e-02  1.02491230e-02
  -5.01929075e-02  2.37163007e-02  4.49701175e-02 -5.53890318e-02
   1.04222000e-02 -1.40086561e-03 -7.65060112e-02 -7.38102868e-02
  -1.77887604e-02  4.84173819e-02 -7.35268444e-02  3.97076011e-02
   2.51065120e-02 -4.02735174e-02  5.95140383e-02 -1.12487376e-03
   4.28328067e-02  1.97316706e-03 -6.00029901e-02  1.38205588e-02
  -3.54161039e-02  6.64274916e-02  6.24933615e-02 -4.51565944e-02
  -6.75591603e-02 -6.85475618e-02 -3.75824757e-02  3.76244634e-02
  -2.30043381e-02  2.00591385e-02  5.84556535e-02 -7.07145929e-02
  -5.56062944e-02 -2.31831223e-02  6.31077513e-02 -3.89674269e-02
  -8.05349648e-03  4.10467759e-02 -2.43459344e-02 -3.66764776e-02
  -2.68798694e-02  7.68213794e-02  5.10152802e-02 -5.75871952e-02
   2.56682932e-03 -3.89955081e-02  2.95578018e-02 -2.07035467e-02
  -5.69477528e-02 -4.78562973e-02  6.75720647e-02  7.42208585e-02
   4.58278432e-02  2.38105878e-02 -2.38006711e-02 -7.50534534e-02
  -4.44294140e-02  3.43280733e-02  5.51694632e-03 -6.35541975e-02
   2.88904458e-03  7.01987073e-02  3.45820934e-03  5.93856946e-02
   2.19883993e-02 -4.70054522e-02 -2.35630795e-02  5.12413904e-02
   4.57144454e-02 -6.29921108e-02 -2.41272934e-02  7.63028041e-02
   3.78314406e-02 -8.83539766e-03  2.31722891e-02  3.84128615e-02
  -3.70198116e-02  3.54391336e-02  7.16491789e-03  4.56037000e-02
  -5.81377745e-02  4.49288264e-02 -5.94218373e-02  3.55820656e-02]
 [-5.08496910e-03 -1.97236538e-02 -1.06778741e-02  1.63575560e-02
  -1.51633546e-02  2.91441679e-02 -1.26428008e-02 -7.38824159e-02
   3.95735279e-02 -5.81640378e-02  5.85925579e-03  3.76731157e-02
   4.80230972e-02 -5.56092560e-02  7.94039890e-02 -1.76570490e-02
   5.82730994e-02  5.19309118e-02 -5.32054454e-02  6.90312907e-02
  -1.09039769e-02 -3.80527638e-02 -3.39211188e-02  6.82351738e-03
  -7.60602057e-02 -5.26458323e-02 -6.80244789e-02 -7.61677623e-02
  -1.34427473e-02  6.92036077e-02 -2.50697471e-02  2.77285278e-02
   5.82962856e-02  2.27928162e-02 -4.45899218e-02  4.98108193e-02
  -1.68375671e-04 -3.32401767e-02  6.31994829e-02  2.24734098e-03
   4.57383022e-02 -4.73927185e-02  4.76033017e-02 -1.70575082e-03
   3.67504060e-02 -6.44069239e-02 -5.43000698e-02  2.33218148e-02
   6.77952245e-02  3.16734090e-02 -7.25706071e-02  3.35884392e-02
  -7.11163878e-02 -3.77659388e-02  7.88923874e-02 -6.74146414e-03
  -5.07158339e-02  7.39098266e-02 -5.41937090e-02 -2.77303495e-02
  -2.35729665e-03 -6.44631386e-02 -7.91326910e-02  1.60453543e-02
   2.74821594e-02  2.54287049e-02  2.12308019e-02  2.39479542e-02
   5.94838336e-02  4.12018895e-02 -4.18581553e-02  4.05169502e-02
  -6.68810681e-02 -5.73275983e-03 -7.48432800e-02 -3.10071856e-02
   7.85189942e-02  6.45768270e-02  2.06282213e-02  8.03989097e-02
  -6.75789639e-02  5.19526973e-02  1.11172423e-02 -7.08606541e-02
  -2.66950727e-02 -1.33795291e-02 -3.10753509e-02  1.65050626e-02
  -5.64058945e-02 -8.03578272e-02  4.66709957e-02 -1.10786036e-02
  -1.64608359e-02 -4.51018661e-02  6.99707195e-02 -6.38023019e-03
  -6.98722973e-02  6.63960204e-02  6.38690814e-02  5.25005236e-02
  -7.22308457e-03 -3.49524878e-02 -4.03720476e-02  7.94254914e-02
  -7.40769655e-02 -3.93179730e-02  6.03851750e-02 -5.31620681e-02
   7.12673590e-02 -2.73600183e-02  1.90087557e-02  5.82771003e-03
  -4.99568135e-03 -3.66116352e-02  6.84941635e-02 -9.46391374e-03
   3.84861156e-02 -1.72992498e-02 -5.61176389e-02 -7.36575350e-02
   3.61608714e-03  5.33487871e-02  2.89806500e-02  4.89418730e-02
  -6.79078549e-02  7.81881437e-02 -9.62521136e-03  1.69388205e-03]
 [-7.86190480e-03 -3.11046094e-02 -1.99546516e-02  5.18657267e-03
  -5.50344028e-02  6.25601336e-02 -4.06088233e-02 -4.24470454e-02
  -2.15489976e-02 -4.15005311e-02  1.25129595e-02  2.24816650e-02
  -6.99902996e-02  5.05829379e-02  3.62639502e-02 -5.88296987e-02
  -3.50975655e-02 -1.33151561e-03  1.51337832e-02 -6.17116094e-02
  -4.96744439e-02 -6.74732402e-02  1.02724433e-02 -2.01056637e-02
  -3.76717746e-03 -5.01946285e-02  3.91985402e-02 -3.24398428e-02
   1.80833787e-02 -2.79053003e-02  2.73545831e-03  3.82306799e-02
  -4.74987179e-03  6.87656775e-02  4.01600376e-02 -3.54511067e-02
   3.36299092e-03 -3.90656851e-02  2.30541900e-02  1.09390542e-02
  -1.48072615e-02 -4.62194458e-02 -2.05694139e-02  4.33600843e-02
  -2.98552997e-02  4.88083065e-03  2.18126327e-02  4.19722497e-03
  -7.91187584e-03 -7.74163604e-02  7.27378502e-02 -1.46689340e-02
  -3.45238745e-02  7.53315315e-02  2.17481032e-02  1.48087069e-02
   1.64080039e-02 -6.57884330e-02 -2.17734352e-02  4.58988026e-02
  -6.87553361e-02  3.13714966e-02 -3.72782350e-03  3.92768607e-02
  -9.18903947e-03  3.52419987e-02 -2.79894620e-02 -7.66621232e-02
  -7.91309699e-02  8.85264575e-03 -6.19496442e-02 -2.71494277e-02
   6.03999197e-03 -6.12726063e-03 -1.33223832e-02  7.30966777e-03
   6.41245022e-02 -7.27015287e-02  4.80869189e-02  3.25515643e-02
   1.11757591e-02 -2.04723962e-02 -5.06026819e-02 -7.81741664e-02
   8.23666900e-03  7.96823427e-02  4.10479382e-02  2.20522955e-02
  -1.05143711e-02 -2.04749666e-02  6.15517423e-02 -5.41397370e-02
  -4.31964807e-02 -4.22372818e-02  7.40002319e-02 -5.37613444e-02
  -4.44455631e-02 -3.29656117e-02 -3.74304019e-02  7.66076893e-03
   1.20531917e-02  2.28871107e-02 -6.02681413e-02  2.35755891e-02
  -3.96991894e-02  4.68738899e-02  2.47236118e-02  5.09793535e-02
  -8.03111494e-03  9.26285237e-03 -1.82107016e-02  5.02567813e-02
  -4.30815555e-02  4.37105745e-02  2.00512260e-02 -6.31802529e-02
   5.15482500e-02  2.04313174e-02  1.39705837e-03  3.16338018e-02
   7.28477538e-03 -7.62662888e-02 -7.04704076e-02  3.45739201e-02
   5.65292761e-02  5.18416092e-02  3.48696783e-02  7.92572722e-02]
 [ 2.88974494e-03  6.39583841e-02 -5.48259169e-02  3.69025394e-02
   1.62015706e-02 -1.38738602e-02 -4.88125570e-02  4.88560423e-02
  -1.72020942e-02 -4.26005572e-03 -6.03213385e-02 -6.47011399e-03
  -5.80619872e-02 -2.56794058e-02  6.48370907e-02 -2.74310894e-02
   3.32680270e-02  3.80883664e-02 -6.54399395e-02 -3.59454118e-02
  -8.64282995e-03  6.26274273e-02 -1.63189173e-02  5.82099035e-02
   2.99177393e-02  5.12354150e-02 -1.10778660e-02  3.17042693e-02
   7.53299519e-02  5.34754321e-02  8.80639255e-03  6.77982047e-02
   4.91356626e-02  6.79996386e-02 -1.51928663e-02 -4.06441540e-02
  -5.98181561e-02  2.51043439e-02  4.63640019e-02  2.10161284e-02
   8.01969692e-02  8.05041566e-02 -3.11886929e-02 -2.08163261e-03
  -5.68952709e-02  1.14642829e-02 -1.72289386e-02  5.51854819e-03
  -3.41446698e-03  1.79164484e-02  4.27385718e-02  9.23736393e-03
  -6.17740527e-02  2.07010731e-02 -8.03102553e-02  5.84457144e-02
  -4.39956971e-02 -5.23598194e-02 -3.79987918e-02 -3.81703414e-02
   2.62471363e-02 -5.76157570e-02  3.33743691e-02 -7.37761334e-02
   6.80207238e-02 -6.59331381e-02 -4.35334519e-02  1.13673806e-02
   5.68028912e-02 -3.83763537e-02 -5.17516881e-02  2.20620409e-02
  -2.81169228e-02  6.60605058e-02 -2.63495743e-02  2.69774497e-02
   3.65443751e-02  4.77995202e-02  2.41508260e-02  9.94621217e-03
  -2.31237523e-02  2.95161828e-02  4.05336916e-03 -3.62845100e-02
   2.24070549e-02 -5.95735833e-02 -3.34086157e-02  4.66213599e-02
   6.05033115e-02 -4.72595766e-02 -3.13084163e-02 -1.26817673e-02
   1.42024755e-02 -3.73866595e-02  7.47286901e-02  5.97068891e-02
   3.79436016e-02  6.01863936e-02 -1.34591013e-03  6.21610358e-02
  -8.98739696e-03  1.14477351e-02 -5.01420274e-02  3.71508300e-02
   6.18989989e-02  7.54746720e-02  6.55203834e-02  5.12537882e-02
   4.91911843e-02  6.41869679e-02  2.88046300e-02  6.41103759e-02
   6.57175556e-02 -7.91132152e-02 -1.94465183e-02 -2.00347491e-02
   6.85068965e-03 -6.22074045e-02 -3.17044258e-02 -7.47427344e-04
   7.30237141e-02  2.44964212e-02 -3.91682386e-02 -1.42580122e-02
   5.35183027e-02  7.56826922e-02 -6.77675754e-03  7.82993063e-02]
 [-3.40997837e-02  7.59940818e-02 -1.36604980e-02  4.86784205e-02
   6.71331361e-02 -1.19131878e-02  5.64249828e-02  6.77087903e-03
  -1.41523853e-02 -2.72437930e-04 -8.11076313e-02 -7.18723238e-03
  -7.36453086e-02  9.08970833e-06  6.34928420e-02 -4.18290719e-02
  -3.40558104e-02 -1.42345726e-02 -6.88638538e-03  1.79000348e-02
  -5.26798889e-02 -5.99865355e-02  6.66690841e-02 -7.55152851e-03
  -5.84776066e-02  2.21903324e-02 -5.83377145e-02  7.39100352e-02
   6.06294349e-02 -1.84874162e-02  5.49063012e-02  6.74929246e-02
  -1.64854750e-02 -6.07286990e-02  6.70086965e-02  3.89179960e-02
   2.85141841e-02 -7.49066174e-02 -6.17295541e-02  2.50284821e-02
  -1.46464780e-02 -7.21751153e-02  2.74180770e-02 -4.79105785e-02
   3.44066843e-02 -4.73296382e-02  4.48999777e-02  7.96408951e-03
  -6.66498393e-02  2.68628150e-02 -3.03429514e-02 -5.09054251e-02
  -4.38364632e-02 -4.81332615e-02  5.15876487e-02  5.97687289e-02
  -3.77970934e-02  2.68273875e-02  5.62870502e-03 -1.19424611e-02
   3.25716883e-02  4.05522212e-02  5.87637946e-02 -5.89289218e-02
   3.65043432e-03  1.43397972e-02 -4.33713384e-02  7.82006755e-02
   5.26736751e-02 -3.84146236e-02  6.71008602e-02  1.73349306e-02
   6.00985065e-02 -3.67053114e-02 -3.88441868e-02 -7.72244260e-02
  -2.03108601e-02  3.38760987e-02  2.35310197e-03 -4.33160514e-02
   5.01643643e-02  1.00916699e-02 -4.87182438e-02  4.26957384e-02
   3.00873220e-02  7.78071657e-02  4.23890129e-02 -5.03414236e-02
   1.61903352e-02 -6.64606541e-02  5.66023365e-02  7.92766288e-02
   5.32403663e-02 -8.08618069e-02 -8.15652311e-04  1.83924437e-02
  -8.54711980e-03 -3.83239463e-02 -3.85240018e-02  1.72327459e-03
  -2.04474665e-02  2.05267966e-03  6.32911548e-02 -4.92447093e-02
  -7.52153099e-02  8.24087858e-03 -6.90198839e-02 -3.36998701e-02
   1.96247771e-02 -4.68466841e-02 -7.64390975e-02 -3.49049531e-02
   8.16699117e-03 -7.90448785e-02  4.29752544e-02  3.06817368e-02
  -4.75634374e-02 -3.95421423e-02 -1.48965418e-02 -7.13392422e-02
  -5.25694080e-02  1.64791197e-03 -2.57603824e-03  2.13827267e-02
  -4.34308052e-02  5.29653654e-02 -6.33338243e-02  8.64319503e-03]
 [ 5.70673570e-02  6.54942021e-02  6.16838709e-02 -5.38355038e-02
   3.98351774e-02 -6.16926402e-02 -3.47184576e-02 -1.14668161e-03
   2.79564336e-02 -5.63873276e-02  1.81906521e-02  6.96070120e-02
  -1.37686729e-03  4.45430651e-02  3.84451225e-02 -2.64719278e-02
  -7.99621716e-02 -1.18867308e-02  4.97379154e-03  8.08543637e-02
   2.49580294e-03  3.42528671e-02 -1.85725242e-02 -5.81357032e-02
  -1.17725357e-02 -5.08491695e-02 -1.12328231e-02 -2.15697475e-02
  -2.67925188e-02  1.79579109e-03  3.97430658e-02  5.60651496e-02
   7.08150864e-03 -4.23937887e-02 -8.74216855e-03 -3.06570828e-02
  -5.40899597e-02  6.67237863e-02 -4.20387164e-02  4.20344844e-02
   9.65248048e-03  6.79754391e-02  1.72366202e-03  7.49145970e-02
   7.43932649e-02 -3.11734565e-02  5.18296584e-02  1.74604133e-02
  -2.84286551e-02  8.15602392e-03  6.66901991e-02  9.99900699e-03
  -1.11917481e-02 -5.91560714e-02  3.15576494e-02  2.04509124e-02
  -5.45468479e-02  5.25247976e-02  2.91322023e-02 -4.35594246e-02
  -9.54066962e-03 -3.37638222e-02  1.10936165e-03 -1.22130290e-02
  -4.84721251e-02  4.84414771e-02 -7.58088976e-02 -2.78841071e-02
  -2.21138671e-02  2.25314423e-02 -4.21227999e-02  3.52777019e-02
   3.72839943e-02 -3.35422903e-03  8.33987445e-03  7.12224320e-02
   2.20809579e-02 -4.79508825e-02 -1.34826079e-02 -7.91711733e-02
  -6.33343011e-02 -5.42904586e-02  8.39529932e-03 -2.43117623e-02
  -1.19942129e-02 -7.95724988e-02 -7.94266909e-02 -2.06302926e-02
  -3.03833522e-02  1.54564232e-02 -7.13402256e-02 -4.94788773e-02
   4.05414850e-02  6.54956624e-02  5.08153215e-02  5.92602119e-02
  -7.56862387e-02 -3.48655879e-03  6.04947284e-02  6.75739124e-02
   2.68795043e-02  3.93417180e-02  6.30018860e-03 -4.30998690e-02
  -3.80162932e-02  6.78451881e-02  5.85770383e-02 -7.03866929e-02
   6.42232820e-02 -3.15313898e-02  2.77965665e-02  5.89322522e-02
   6.13139346e-02  4.60719094e-02  7.29305297e-03  5.40004671e-03
  -5.53203002e-02 -9.55238193e-03 -3.18559222e-02  1.27257034e-02
  -1.10020414e-02 -2.93090492e-02 -5.53045571e-02  2.49863565e-02
   5.92564419e-02 -5.09930253e-02 -5.38472086e-02  8.93160701e-04]
 [ 4.79501858e-02 -1.93597861e-02  5.64530417e-02  6.02775142e-02
   5.25185093e-02 -2.59132050e-02 -5.49687296e-02 -5.38123772e-02
  -5.64436615e-02 -5.72144985e-04  3.04317176e-02 -1.55362934e-02
   5.34275398e-02  7.77826384e-02 -7.60683268e-02  5.51217720e-02
  -7.89852142e-02  5.93788177e-03  7.71151111e-02  4.24113870e-03
  -1.31927207e-02 -6.77567720e-03 -4.15483937e-02 -2.65055373e-02
  -2.88865678e-02  6.73237815e-02 -2.97647752e-02  4.11072522e-02
  -3.82860452e-02 -6.90806583e-02  2.86285952e-02 -7.32570365e-02
  -3.63563336e-02 -1.31279379e-02 -2.71662101e-02  7.49545172e-02
   6.41481206e-02 -7.25785568e-02  5.39009050e-02 -4.84269336e-02
   3.25560570e-04  5.17334267e-02  1.89338401e-02 -4.01923954e-02
  -4.57280017e-02 -4.27847505e-02 -5.48991710e-02  3.32342386e-02
   7.17507303e-03 -6.42699525e-02 -4.64757346e-02 -7.03306496e-02
  -5.07214591e-02 -7.47297630e-02  3.21455300e-02 -6.77912012e-02
   1.91813335e-02  4.48984876e-02  6.26616850e-02 -5.22875711e-02
   4.28592190e-02  7.57027194e-02 -6.97968006e-02 -7.66590238e-04
  -8.05568770e-02  5.51551506e-02  3.11596319e-02  4.18039486e-02
  -5.30041717e-02 -6.33886307e-02 -2.05087326e-02  5.10787293e-02
  -3.93006280e-02  1.33771896e-02 -3.58766466e-02 -6.28714040e-02
  -5.06897271e-02 -5.57173565e-02  3.60783637e-02  1.04261488e-02
   4.47627082e-02 -6.78811446e-02  2.92320475e-02 -6.43186048e-02
  -7.66287073e-02  6.26820251e-02 -3.09874974e-02  5.88794723e-02
  -1.27825886e-03  3.76660377e-02 -6.33068830e-02  5.03145084e-02
   5.41729853e-02  2.56177709e-02  5.08535430e-02 -3.45421471e-02
  -3.21983844e-02 -1.11174732e-02 -3.69847678e-02 -2.97685079e-02
   4.66406867e-02  4.01141867e-02  3.27001587e-02  6.66147545e-02
   2.24940553e-02  2.22358182e-02  2.75214538e-02  7.95915499e-02
   2.55469382e-02  6.62234053e-02  7.39359111e-03 -3.84995751e-02
  -2.74515674e-02 -5.30106500e-02  4.88330349e-02 -7.17709064e-02
   4.67524603e-02 -6.40598983e-02 -3.17656919e-02  3.47166583e-02
   1.89900920e-02  6.59748912e-04  8.09989348e-02 -9.08046961e-03
   2.97389627e-02  5.92456013e-03 -2.28337944e-02 -6.57652095e-02]
 [-5.74799031e-02 -4.01047133e-02  7.82608017e-02  4.57196012e-02
  -4.34140787e-02  3.31316143e-02  5.02984971e-03 -6.83973208e-02
   2.87972391e-03  1.70948654e-02  6.30704686e-02  2.20315084e-02
  -1.01768970e-02  3.67535576e-02  5.85902482e-03 -4.92422134e-02
   3.14778835e-03  1.28611848e-02  1.66700184e-02  6.03991523e-02
  -5.73907755e-02 -1.80250928e-02 -2.26645842e-02  7.73504749e-02
  -7.67947510e-02  1.66721120e-02 -6.19429350e-02 -7.42865726e-02
   2.52806693e-02 -1.73518509e-02 -7.43199512e-02 -7.92669505e-03
   2.77822316e-02 -3.07291001e-02  1.67499036e-02  5.88450953e-02
   7.74589851e-02 -5.83317950e-02  7.87822232e-02  5.90835586e-02
  -7.97435865e-02  2.60075405e-02  5.26498631e-02  2.89271027e-02
   2.55221128e-03 -5.05468734e-02  2.28821412e-02  7.39683732e-02
  -3.04783396e-02 -6.82834983e-02 -3.94042991e-02  6.96307346e-02
  -2.37503648e-03  5.82897738e-02  2.63882354e-02  7.41137788e-02
  -7.74572790e-02  7.25467578e-02  7.93205276e-02 -5.73968887e-02
   6.06593713e-02  7.56181106e-02 -3.56941111e-02  5.56310937e-02
   7.86289051e-02 -3.97731215e-02  7.42155090e-02  3.76034752e-02
   3.85437086e-02 -1.86856091e-03 -2.54002176e-02  8.04365203e-02
   4.45777997e-02  4.87744585e-02 -5.58991134e-02 -2.11700238e-02
   5.93002364e-02 -3.76050659e-02 -7.96263963e-02 -1.65220052e-02
   1.07055828e-02  7.54470453e-02  5.21734729e-02  4.80545536e-02
  -6.01444319e-02 -8.10684562e-02 -4.44650948e-02 -3.32451276e-02
   5.82958534e-02 -7.22490251e-03  5.44016883e-02  4.41239402e-02
   5.77862486e-02  3.61087620e-02 -7.70763904e-02 -2.44930796e-02
  -8.05246830e-02 -1.10518411e-02 -2.07155533e-02 -7.37145469e-02
  -4.17141058e-02 -3.97285633e-02 -1.38387084e-03 -4.35176902e-02
  -2.60222554e-02  6.45788386e-02  6.71582446e-02 -9.66868550e-03
   6.40779957e-02 -5.88022582e-02 -6.65332675e-02  7.99454823e-02
  -6.34416342e-02 -1.60799101e-02 -3.52469124e-02  1.19152516e-02
  -5.45517579e-02 -4.42038141e-02 -3.06652635e-02 -2.38565020e-02
   3.82683501e-02  2.09510922e-02  2.41232738e-02 -3.08300853e-02
  -1.32966042e-03 -2.23255455e-02  5.75057343e-02  7.05635026e-02]
 [ 1.63394958e-03  1.21880770e-02  1.83491483e-02  1.61580741e-02
   4.21538949e-02  6.19931296e-02  5.63317761e-02  3.62419263e-02
  -5.05423695e-02  7.08589479e-02  4.34399918e-02 -5.53532541e-02
  -2.31539197e-02 -5.90743683e-02 -1.58961117e-03 -2.79080682e-02
   1.88793242e-02  4.56736609e-02  7.26768747e-02  2.41613686e-02
  -1.66813508e-02 -7.60708749e-03 -2.99046114e-02 -4.67612259e-02
  -3.44064124e-02  3.00782174e-03  2.64196768e-02 -5.15661165e-02
   7.49813765e-03 -9.50726867e-03  2.89486647e-02  7.79344514e-02
   2.92507634e-02  5.41625544e-02 -4.26805764e-03  4.36156988e-04
   2.95519605e-02  4.54589799e-02  5.65440431e-02  1.16113722e-02
  -1.98299773e-02  4.11195904e-02 -2.31377147e-02  4.05565724e-02
  -6.60366789e-02 -4.94681448e-02 -5.69944009e-02 -5.72363958e-02
  -6.65438473e-02 -7.51980245e-02  3.89517099e-02 -1.04659870e-02
   8.10431018e-02 -2.71199755e-02  6.33024946e-02 -7.11705089e-02
  -2.14357302e-02  2.30309889e-02 -2.59058774e-02 -2.35255249e-02
   7.51898214e-02  5.96597567e-02 -4.35761698e-02 -1.99399516e-02
   8.79622251e-03  7.24827722e-02 -4.58580330e-02 -3.18958387e-02
  -6.27365187e-02 -1.84894651e-02 -8.04645568e-02  7.45431557e-02
   3.18261981e-03  5.98956272e-02  5.70860431e-02  5.85210994e-02
  -6.18568957e-02 -1.10998750e-04 -3.08705419e-02 -2.72973068e-02
   6.35199323e-02  5.04142269e-02  7.04660043e-02  3.40466201e-03
  -8.60929489e-03  7.92889968e-02  3.45602334e-02 -2.74310298e-02
  -2.35070176e-02  1.38891563e-02 -7.68809617e-02  2.10448056e-02
   5.30999228e-02 -1.54989287e-02 -7.95544013e-02  2.10927501e-02
  -5.28094918e-02 -5.65804429e-02 -4.42428216e-02 -8.03707838e-02
  -1.67719945e-02  5.95002621e-03  2.07506344e-02 -6.75638989e-02
   4.93694618e-02  6.91847578e-02  4.79134396e-02  3.09525505e-02
   1.33743137e-02 -5.90309501e-03  7.65398145e-03 -3.99083123e-02
   3.10900882e-02 -4.06056903e-02 -4.01283838e-02 -6.65652901e-02
   2.04875767e-02  6.98218271e-02  7.40737393e-02 -2.80590989e-02
   7.83097520e-02 -7.95629844e-02  6.85744956e-02  5.94621226e-02
   3.95601243e-02 -3.64504009e-03  4.15583774e-02  7.64664635e-02]
 [ 3.65718603e-02 -2.16091760e-02  5.90230897e-02 -2.70094350e-02
  -6.73674196e-02 -4.06566262e-03  3.05997580e-03  3.59048992e-02
   3.37008387e-03 -3.05098817e-02  5.43205664e-02  7.15547279e-02
   6.87600002e-02 -5.23556992e-02 -3.47729698e-02  1.44699439e-02
   2.47321576e-02 -4.42031026e-03  1.43848360e-02 -1.61233246e-02
   7.27539137e-02  7.02434704e-02 -2.50957161e-02 -6.19601831e-02
  -1.67527869e-02  5.47745004e-02  5.33084944e-02 -6.25094697e-02
   4.50430736e-02  3.46554518e-02 -2.55224556e-02 -5.12729585e-03
   4.49280962e-02  5.94508871e-02  1.74326077e-02 -5.46692573e-02
  -4.54287231e-02 -7.69035518e-03  1.03237107e-02  3.72453779e-03
  -3.63588333e-06  5.03298417e-02 -3.20836715e-02 -5.27511090e-02
   1.73930824e-02 -3.06174792e-02 -6.23921603e-02  2.60612816e-02
   7.92022869e-02  2.75012106e-02  7.83953741e-02 -5.42540103e-03
  -2.44612284e-02  2.01582462e-02 -1.46887526e-02  3.46884429e-02
   6.19213656e-02 -5.69330379e-02  6.07950166e-02  4.49587777e-02
  -6.45125881e-02  1.26550049e-02 -6.78241178e-02 -1.08607113e-04
  -7.52663836e-02  6.59145787e-02  9.50183719e-03  5.70597425e-02
   4.58279252e-03  4.67576757e-02  3.67102027e-02 -9.53350961e-03
  -6.53540343e-02  8.25795531e-03 -7.30130449e-02  4.20899466e-02
   2.64500380e-02 -6.24331087e-03 -2.44345032e-02 -8.01135600e-03
   7.76305050e-03 -5.46059050e-02 -1.78949684e-02 -4.99897376e-02
   2.77573243e-02  3.43041942e-02 -2.51093321e-02  7.57461861e-02
   4.07977179e-02  5.93112782e-02  3.91153693e-02 -7.69505575e-02
   2.94044837e-02 -3.43684703e-02  5.92663214e-02 -7.42914602e-02
   2.75390372e-02 -5.39380163e-02  2.69131139e-02  3.01509053e-02
  -5.93386814e-02 -2.95612030e-02 -1.45686269e-02  3.38313878e-02
  -5.87405115e-02  5.49864694e-02  3.07134539e-02 -7.19222277e-02
  -6.71561062e-03  7.98440054e-02 -6.19494095e-02 -2.46357359e-02
  -4.21976596e-02  3.32520306e-02 -4.14241850e-02 -5.56415096e-02
   2.68505886e-02 -4.19394933e-02 -3.90781611e-02 -6.10812195e-02
   7.74428770e-02  4.81901392e-02  1.24002397e-02  1.20636150e-02
   3.81769910e-02  5.05220219e-02  9.60183144e-03  7.43791983e-02]
 [ 2.88904458e-03  1.67763457e-02  1.62464902e-02  7.92806819e-02
   1.96711347e-02 -4.02201451e-02  6.50682673e-02  5.17058149e-02
   9.87792760e-03  6.42856285e-02 -7.85380155e-02  1.03295371e-02
   1.25875100e-02 -7.52347112e-02 -7.64695331e-02  2.99480632e-02
   6.50675222e-02  1.42260492e-02  6.02335110e-02 -1.72274113e-02
  -5.39693832e-02  2.10073665e-02 -1.60827935e-02  7.06202015e-02
   6.78352788e-02  7.11615756e-02 -7.56429583e-02  5.32028154e-02
   6.48340061e-02  2.50836313e-02 -3.42227519e-04 -3.39675099e-02
  -1.16987824e-02 -2.43771262e-02 -4.21031527e-02  1.67198479e-04
  -3.97117585e-02  3.08317319e-02  4.86114398e-02 -5.26922643e-02
  -5.42252697e-02  7.95333609e-02  2.41877437e-02  4.46774065e-04
  -3.61612290e-02  7.19804391e-02  2.31076404e-02  1.10235065e-02
  -7.21035674e-02  4.58458439e-02  7.69838691e-03  2.73682550e-02
  -9.29626822e-03 -6.43457025e-02  7.45075718e-02  9.12895054e-03
  -7.92822242e-03 -6.12812154e-02  5.82925752e-02 -8.83585960e-03
  -2.69107707e-02  3.41894925e-02 -5.58823869e-02  6.89605623e-03
  -2.30053812e-02  4.03880551e-02  1.59936622e-02 -4.31248918e-02
   5.19111753e-03  7.66599849e-02 -1.27654225e-02  2.01938674e-02
  -1.68125406e-02 -7.03665614e-02 -4.75203507e-02  7.80417547e-02
   3.56464237e-02 -5.69234639e-02  2.20706090e-02 -8.06899816e-02
  -6.45983368e-02  3.39209661e-02  4.93076220e-02 -5.28960899e-02
   3.26783806e-02  6.09751418e-02  5.83212748e-02 -6.79378435e-02
   6.15420192e-03 -3.73366475e-03 -3.57667357e-03 -3.07224095e-02
  -5.62361442e-02  4.34182361e-02  2.10899636e-02  4.98234108e-02
   5.27361110e-02 -1.60549879e-02 -5.41694760e-02  6.87625632e-02
  -3.73903140e-02 -5.76195493e-02  7.11075738e-02  7.15699866e-02
   5.13710901e-02  3.35707068e-02  4.82395291e-04  1.60039514e-02
   7.08692446e-02 -7.37562776e-03 -5.73173277e-02 -6.70501813e-02
   4.84585688e-02 -4.28449139e-02 -2.69470103e-02  1.98851898e-02
   5.82013056e-02  3.93521264e-02 -6.33507818e-02  3.56051326e-03
   5.43087795e-02 -2.87087709e-02  6.58774599e-02  6.11058101e-02
   1.35429576e-02  3.31400633e-02 -5.69377951e-02  6.73528835e-02]
 [ 1.77472010e-02 -3.20565403e-02 -5.00347950e-02 -2.14078464e-02
  -4.82648574e-02 -1.32885799e-02 -5.54163158e-02  3.39520797e-02
  -3.07112932e-05  7.21854195e-02  1.21298507e-02  7.28842393e-02
  -3.75649966e-02  6.09359816e-02 -8.01034570e-02 -4.75107618e-02
   2.08043382e-02  3.29262763e-02  7.54069015e-02  5.17050251e-02
   4.46258560e-02 -2.91806050e-02 -7.12509230e-02 -6.05194271e-03
   3.64462137e-02 -2.13676021e-02 -7.52975792e-02  5.12345508e-02
   7.68747553e-02 -7.27529675e-02  4.96293828e-02  1.36268511e-02
   2.71809846e-02 -6.84610233e-02  3.49212587e-02  2.10836008e-02
   7.49382004e-02  6.40182570e-02 -2.73374729e-02  5.51535860e-02
   4.04257327e-02  4.95859608e-02 -4.74354774e-02  5.01130894e-02
  -8.10411274e-02  4.93716076e-02  6.33433983e-02 -4.33734655e-02
  -6.92331791e-02 -1.54045820e-02  7.03018680e-02  6.06460646e-02
  -4.63359021e-02 -2.66276784e-02  6.30403385e-02  8.33544880e-03
   2.67119706e-02  7.99317285e-02  3.16942781e-02 -3.51957642e-02
  -3.45438719e-04  3.32438946e-02 -1.11915544e-02 -4.95929532e-02
  -7.03568310e-02 -7.89938048e-02  3.56467068e-03 -6.37336820e-02
   5.08621708e-02  1.42575800e-03 -6.74873963e-02 -4.78644185e-02
  -5.30111119e-02  7.25592896e-02 -4.13388461e-02  6.97446093e-02
  -5.21316379e-03 -1.11194029e-02 -3.51132490e-02 -3.79937626e-02
   3.19867432e-02 -7.37833306e-02 -3.25198248e-02 -3.51854749e-02
  -6.73141852e-02 -5.47415242e-02  3.19596156e-02  4.76632938e-02
   6.99773431e-03  2.44014934e-02 -7.11641908e-02  3.25828791e-04
  -7.32532665e-02 -2.19610743e-02  2.58885324e-03  1.35810524e-02
   6.00434840e-03 -6.19465858e-03 -2.38763429e-02 -4.85866293e-02
  -6.76633418e-02  2.95081586e-02  3.96029651e-02 -1.04176775e-02
   4.27716747e-02  6.58113137e-02 -7.49631226e-02 -9.36826319e-03
  -3.36669944e-02 -4.44904864e-02 -6.36968166e-02 -3.84525470e-02
   6.19268641e-02 -4.28234264e-02 -1.78865120e-02  7.00292811e-02
  -7.73496926e-03  6.45420030e-02 -5.64080477e-03 -1.13202333e-02
   2.28683129e-02 -1.36535391e-02  6.53822497e-02  6.18243739e-02
   2.63843834e-02 -7.85054117e-02 -3.77172269e-02 -6.68723062e-02]
 [ 4.49783076e-03  7.76029676e-02  2.20282972e-02 -7.44148763e-03
  -4.58877943e-02 -4.13220860e-02 -6.99038804e-02  7.18337372e-02
   3.13113406e-02 -6.58374373e-03  6.01557419e-02 -4.62375693e-02
   6.80312291e-02  5.72065338e-02  7.05188577e-05  7.72092491e-02
   2.52882222e-04 -5.91551065e-02 -2.86366008e-02  6.79440796e-02
  -5.76019101e-02  2.65289024e-02 -6.32120743e-02  7.13361725e-02
   4.90981862e-02 -2.78024003e-02  3.89608368e-02  2.80548036e-02
   5.91898039e-02  7.79353753e-02 -9.04615410e-03  6.63301116e-03
  -1.62773244e-02 -1.55506171e-02  2.60064378e-02  9.98049974e-03
   3.24921682e-02  3.62487659e-02  6.20429292e-02 -7.98697323e-02
   4.89054844e-02  6.41197190e-02 -5.78666897e-03  2.40964536e-02
   7.43881091e-02  7.27784121e-03 -4.08025607e-02  7.66097307e-02
   5.21574989e-02  4.84758466e-02  3.01770424e-03 -3.53811367e-04
   6.74780607e-02  1.74868014e-02 -5.35256676e-02 -3.30782011e-02
   2.91606765e-02 -6.36358093e-03 -5.74164428e-02  1.94862932e-02
  -1.58363581e-03  3.44914831e-02  7.61242285e-02  1.17671676e-02
   3.98699865e-02  1.76726338e-02  4.84965518e-02  6.27420237e-03
  -3.64372432e-02  2.05897167e-02  5.50776906e-02  4.65981402e-02
  -5.14301695e-02 -1.60551688e-03 -9.70374979e-03 -1.33047821e-02
  -6.28059283e-02  3.60326953e-02  3.41206021e-03 -5.38887270e-02
   4.71963882e-02  6.82589188e-02  2.75986586e-02  4.66125682e-02
   2.06141658e-02 -1.49020366e-02 -5.78926615e-02  5.72095029e-02
   2.38452875e-03  1.26585960e-02  7.98360035e-02 -7.08583370e-02
  -6.32235259e-02 -5.72105944e-02 -3.72406393e-02 -2.28780992e-02
  -8.06958228e-03 -8.67095124e-03  3.67341675e-02 -3.11549660e-02
   6.26908839e-02  5.18181697e-02  5.10568097e-02  2.79535986e-02
   6.34444728e-02  7.45167062e-02 -4.27418016e-02 -5.50584085e-02
   6.02908954e-02  1.36357360e-02 -8.41294304e-02 -1.18689192e-02
  -5.54089993e-02  1.43075585e-02  2.32226476e-02  4.03641388e-02
   5.52936271e-02 -3.01601663e-02  7.94435218e-02 -4.85787243e-02
  -7.59540498e-02  5.13530113e-02 -5.01654260e-02 -5.58297858e-02
  -3.96273658e-02  7.93136805e-02  4.45739813e-02 -1.00925183e-02]
 [-2.76703313e-02 -4.12849188e-02 -6.79403469e-02 -6.26376346e-02
   6.40387833e-02  8.42016637e-02  2.43654232e-02 -7.39254653e-02
   5.26945516e-02 -4.74112779e-02 -2.87312232e-02  2.36628968e-02
  -6.00338019e-02 -8.10709074e-02  8.16540718e-02  4.43506837e-02
  -8.46481398e-02  3.00459331e-03  1.27962173e-03 -6.83404729e-02
  -4.77606878e-02 -1.67617742e-02  1.98693071e-02  1.66164283e-02
  -5.82311414e-02  1.38755161e-02  5.03086261e-02 -4.42718826e-02
  -5.03620598e-03 -2.36063972e-02 -4.27966230e-02  8.53756294e-02
   1.83613375e-02  7.97789469e-02 -7.08008707e-02  5.30093089e-02
   5.14360331e-02 -7.23269628e-03 -5.99619895e-02 -6.43510371e-02
   2.73402557e-02 -1.66698415e-02  1.16768643e-01  5.57561219e-02
   1.12797832e-03  5.81475580e-03  1.02351412e-01 -1.13584762e-02
   2.39082985e-02  4.20430154e-02 -5.01541095e-03 -4.04513553e-02
  -5.91345839e-02 -5.79799041e-02 -2.13923380e-02  2.52287462e-02
  -2.31704470e-02 -6.76870495e-02 -5.35917282e-02 -5.78240305e-02
  -6.32591173e-02  5.61405644e-02 -6.30549416e-02 -1.87394451e-02
   1.53274238e-02 -4.37877402e-02  4.31146622e-02 -1.78646613e-02
  -6.04293048e-02  5.41670732e-02 -2.61112209e-02 -9.42573417e-04
   7.01687708e-02 -2.81630140e-02  1.01593167e-01  7.95633644e-02
  -5.24122380e-02 -6.91993609e-02  4.91584651e-02  1.64011139e-02
  -6.77281097e-02 -4.73000295e-02  5.79943396e-02 -6.16656393e-02
  -5.81390224e-02 -3.84982191e-02  3.96780670e-04 -1.09282462e-02
   1.69116817e-02  6.98951352e-03  6.05127551e-02  2.82211620e-02
  -2.25603953e-02  2.41703801e-02 -1.00541994e-01  2.84635574e-02
  -3.10602114e-02  7.82262459e-02  6.71369210e-02 -5.30811623e-02
   9.58013460e-02 -4.76341657e-02  6.31992891e-02 -1.78472989e-03
  -4.25431579e-02 -2.91279405e-02 -4.10050377e-02  6.38623834e-02
  -8.65853801e-02 -9.00813863e-02 -1.03462137e-01  4.56918068e-02
   1.78103615e-02  3.95843722e-02  4.88446765e-02 -4.36071418e-02
   2.23051608e-02 -6.12783730e-02 -4.28295955e-02 -7.73708103e-03
  -1.24754887e-02  6.06164373e-02  5.87878264e-02  2.83778533e-02
  -7.24240392e-02  9.23348963e-02  1.08770318e-02 -1.40859128e-03]
 [ 6.18451200e-02  6.37503192e-02 -1.51527494e-01 -3.85445468e-02
  -3.26756909e-02  1.21453904e-01  8.59868005e-02 -3.10136005e-02
  -5.60271069e-02  4.84481044e-02  6.45591244e-02  1.37467653e-01
   7.04558343e-02 -4.97331191e-03  1.51286691e-01  6.32904544e-02
  -1.15991555e-01 -7.76077658e-02  3.76094878e-02 -2.56555695e-02
  -3.43899950e-02 -7.40373805e-02 -5.01730964e-02  1.56605244e-02
   5.68034686e-02  1.14885822e-01 -1.32549284e-02  1.56238768e-02
  -3.31560113e-02  2.03993674e-02 -2.58463342e-02  7.16907084e-02
  -2.98097078e-02 -6.26446307e-02  8.05036724e-02  1.74701400e-02
  -3.45895216e-02 -8.19444433e-02  2.58138720e-02  1.78271476e-02
  -3.84924300e-02  1.25919208e-02  3.73406634e-02  2.63770875e-02
  -8.32997859e-02 -7.46918544e-02 -6.36000792e-03  6.22085296e-02
  -6.11771159e-02 -3.52951288e-02  4.09413986e-02 -6.07077517e-02
   3.35083343e-02 -9.95426178e-02 -1.15990965e-03 -1.38679326e-01
   1.67775005e-02 -5.39539419e-02 -2.45628841e-02  9.54167545e-03
  -1.34866061e-02 -2.39260923e-02 -2.51865610e-02 -8.14580172e-02
   5.95114306e-02 -6.73551485e-02 -1.67956054e-02  1.11403570e-01
  -3.62060294e-02  2.69437507e-02  1.49860012e-03  6.56181797e-02
  -4.53222468e-02 -1.04260994e-02  6.56366423e-02  1.05310991e-01
  -6.63149804e-02  4.60374653e-02 -1.11119159e-01 -1.36878386e-01
  -7.43500097e-03 -3.80960926e-02 -1.47144184e-01 -8.48674774e-03
   2.46206596e-02 -3.41384881e-03 -1.25992805e-01  6.32935315e-02
   2.06191503e-02  4.75656055e-02  1.02943614e-01 -2.04759371e-02
   1.34600282e-01 -5.17448597e-03 -1.92228630e-02 -1.49692148e-02
  -4.24414389e-02  7.23858476e-02 -3.98490429e-02 -8.78361464e-02
   8.47160146e-02  1.68984942e-02  8.69991630e-03 -2.86015924e-02
  -4.97118644e-02 -2.02413965e-02  1.77835617e-02  8.67674351e-02
   7.24848034e-03 -1.13418199e-01 -7.09613785e-03 -4.39735651e-02
   6.13894686e-02 -4.14136387e-02 -1.18019640e-01  1.21123590e-01
   8.56004953e-02  1.91705469e-02 -8.64574540e-05  4.97238152e-02
   5.90786897e-02 -4.85162586e-02  1.05489306e-01  4.52127941e-02
   3.38472449e-03  1.24486558e-01  8.74872357e-02 -1.01927444e-01]
 [ 8.17795172e-02  1.02079242e-01 -4.41240408e-02  8.86095092e-02
  -1.37705281e-01  5.51300012e-02  4.34491485e-02 -7.37548992e-02
   3.57821546e-02  3.85148712e-02 -4.60432656e-02  4.25204216e-03
   7.68123493e-02  6.44117966e-02  6.04780763e-03 -7.04463013e-03
  -1.40943319e-01 -7.55838975e-02  9.73785936e-04  2.13816036e-02
  -5.16065247e-02 -3.15335840e-02 -1.04221627e-01  4.74824570e-03
   6.71108253e-03 -6.67412346e-03 -3.14192921e-02  6.56366721e-02
  -2.47545131e-02  9.00107548e-02 -4.45773005e-02  1.47138713e-02
   2.68211160e-02  6.29460886e-02  6.15788549e-02 -7.88802728e-02
   3.94702032e-02 -3.01222387e-03  2.35121287e-02 -7.53247440e-02
   6.60080388e-02  6.27528504e-02  8.87833759e-02  8.66540298e-02
  -2.71602347e-02 -5.45923002e-02  1.45169422e-01  1.60710990e-01
   1.64765399e-03  9.25350487e-02  1.73004176e-02 -1.05760864e-03
   1.01053398e-02 -1.27032474e-01  2.58378368e-02 -1.37649044e-01
  -5.93089946e-02 -2.48427819e-02 -7.92867243e-02 -5.84134236e-02
  -4.92629670e-02 -6.93896487e-02 -6.32815212e-02  1.00809513e-02
   2.32478678e-02 -6.84191361e-02 -4.42813821e-02  1.38498425e-01
  -9.07640159e-02  2.67469920e-02  1.07983826e-02  4.56718765e-02
  -9.48301852e-02 -1.21273264e-01  9.92547348e-02  1.08897761e-02
  -1.23958752e-01 -2.56654620e-02 -1.38440970e-02 -1.19533896e-01
  -7.46087730e-02 -1.25620231e-01 -4.88899574e-02 -1.87442906e-03
  -9.77502465e-02 -3.56202908e-02 -1.01002291e-01 -2.27273814e-03
   5.50410710e-02 -4.98620495e-02  1.11974895e-01  7.79296458e-02
   8.86610672e-02  3.52427773e-02 -1.53753683e-01  1.07000042e-02
  -2.30235979e-02  4.23517590e-03  2.09922362e-02 -5.06793261e-02
   6.86007515e-02  1.05059668e-02 -2.27000006e-02  2.09426545e-02
   3.46483476e-02 -2.53781816e-03 -3.41090821e-02  1.51731193e-01
  -3.10724564e-02 -1.47932559e-01 -7.65078366e-02 -9.97888111e-03
   1.13625437e-01 -1.72202364e-02 -4.24294323e-02  1.38904870e-01
   3.01062129e-02 -8.31951350e-02 -6.54584989e-02  5.85944951e-03
  -4.77666967e-02 -8.61321855e-03  3.61811481e-02  6.48502484e-02
   1.43349364e-01  9.58423242e-02 -5.26357479e-02 -4.71741334e-02]
 [-6.54006749e-02  1.12345517e-01 -6.57450482e-02 -1.40678575e-02
  -2.88530085e-02  9.02351439e-02  1.17246881e-01 -3.47314440e-02
  -2.05297489e-02 -1.02402549e-02  3.11293565e-02  1.40894102e-02
   6.34922832e-02 -1.00834750e-01  1.26381824e-02 -4.58002500e-02
  -4.07388471e-02  6.27777129e-02  4.71400917e-02 -4.70620170e-02
  -3.55120897e-02  8.24865624e-02  1.64755695e-02  2.54909620e-02
   8.46472085e-02 -1.75297689e-02  2.44524255e-02  3.87141918e-04
  -1.05066873e-01  5.47071733e-03 -4.82989177e-02  1.34252816e-01
  -4.18148153e-02  1.22829244e-01  9.30109471e-02 -1.50427073e-02
  -1.91257615e-03  6.28269464e-02 -3.04496419e-02 -9.45272967e-02
  -4.71703596e-02  8.84002447e-03  5.32759838e-02  1.04728594e-01
  -1.27345651e-01  1.77871119e-02  8.59878510e-02  2.20017657e-02
  -6.88296184e-02  5.77468537e-02 -4.59905006e-02  2.46848501e-02
   4.49773930e-02 -4.10925830e-03 -3.87816280e-02 -1.29557550e-01
   7.12208152e-02 -5.88511005e-02 -1.23124998e-02 -1.64186060e-02
  -4.76473793e-02  1.53335473e-02  4.30805646e-02 -1.21987956e-02
   4.33446690e-02  3.92400511e-02  3.46896797e-02  9.72968787e-02
   2.11834349e-02 -4.40176576e-03  5.77697530e-02 -1.89005900e-02
  -9.55175981e-03 -1.03982240e-01  1.08341232e-01 -1.19161326e-02
  -4.96535972e-02  3.35478014e-03 -6.69256523e-02 -9.61054564e-02
  -7.50012770e-02 -5.40843932e-03  1.74476719e-03 -1.07321283e-03
  -2.23159064e-02 -1.22716829e-01  4.09481209e-03  6.82107508e-02
   1.73726492e-02 -5.58519140e-02  8.14136490e-02  1.45996734e-01
   3.42099555e-02  1.58280898e-02  1.08034564e-02  6.46668896e-02
   7.64311478e-02  3.55355740e-02  1.03648618e-01  2.55395868e-03
   6.53123809e-03  9.85128572e-04  7.18803257e-02 -2.83892006e-02
  -4.43748794e-02 -2.83396486e-02 -1.08570158e-01  1.62992068e-02
  -1.96530838e-02 -7.60022551e-02 -3.48685333e-03  1.54275801e-02
   1.24338694e-01  3.91100533e-02 -1.38960868e-01  3.08003910e-02
   6.23130836e-02 -1.09138554e-02 -8.61059502e-02 -2.36301813e-02
   7.07194395e-03  1.93803720e-02  6.94177076e-02  1.33401066e-01
   1.71044022e-02  1.46968281e-02  4.93556866e-03 -8.37811008e-02]
 [-3.72638963e-02  3.85835581e-02 -1.52137443e-01 -1.33712767e-02
   7.59445280e-02  6.05912544e-02  1.85503718e-02 -1.24462498e-02
  -3.37333158e-02  9.16176140e-02 -8.87648761e-03  8.05976391e-02
   5.88206872e-02 -2.67237760e-02  5.34694456e-02  7.89245442e-02
  -2.06206571e-02  4.29887027e-02  1.62292423e-03  2.90370975e-02
  -5.31922095e-02 -2.83420607e-02 -6.67511672e-02 -4.67158221e-02
   5.92220575e-03  1.24720950e-02 -4.10181321e-02  7.42152706e-02
   3.28429155e-02 -4.69454937e-02 -1.13255933e-01  1.07850209e-02
   3.15937703e-03  1.08786352e-01  7.43806660e-02  3.30394655e-02
  -3.06980647e-02 -2.28433069e-02 -5.14140837e-02 -1.95188932e-02
  -5.96371032e-02  6.52151257e-02  8.34561586e-02  1.40492901e-01
  -6.13791589e-03 -7.33918548e-02  5.62741682e-02  7.60649294e-02
  -9.60696563e-02  1.03767931e-01 -5.76549470e-02  5.02275582e-03
  -5.52218594e-03 -5.29878177e-02 -8.78867973e-03 -1.30247667e-01
  -9.13826600e-02 -6.03920706e-02 -7.90231228e-02 -1.01986155e-02
   1.23847285e-02  2.69702692e-02 -1.50246834e-02 -9.29826051e-02
  -5.16894981e-02 -5.94990179e-02 -6.14241660e-02  8.14177170e-02
  -5.94399758e-02 -7.83522576e-02  7.59983584e-02 -5.01620919e-02
  -4.85170819e-02 -9.57171842e-02  7.89888278e-02  1.07628338e-01
   6.90481812e-03  9.17242616e-02 -2.89089531e-02 -8.78484100e-02
   2.10329313e-02 -1.06160894e-01 -3.61002907e-02  1.30015919e-02
   3.98212997e-03 -2.34299675e-02 -1.19454879e-02  1.58323720e-02
   6.22517243e-02  7.35294148e-02 -4.00639661e-02  6.79730400e-02
   7.92085305e-02  6.74763024e-02 -1.32820711e-01 -4.26179767e-02
   1.35691222e-02  1.47198290e-01  5.25949448e-02 -8.95109177e-02
   7.73952231e-02  8.20240900e-02  6.81084916e-02  4.77458835e-02
   6.84781075e-02  1.49032082e-02 -6.56491667e-02  6.96588308e-02
  -2.82380506e-02 -4.27439883e-02 -8.56828615e-02 -4.97606676e-03
   1.01790503e-01 -2.92725563e-02 -1.36282146e-01  1.28706932e-01
   5.26743233e-02  1.16705336e-02  4.45067324e-02 -2.27643456e-02
   1.05143808e-01 -6.35413080e-03 -1.70516241e-02  7.44145811e-02
   2.42652395e-03  7.60025531e-02  1.02231681e-01 -7.59803355e-02]
 [ 9.28882286e-02  2.05257460e-01 -2.33587138e-02 -1.44387484e-02
   1.25612363e-01 -5.18353023e-02  4.49924394e-02 -7.16984868e-02
   3.57761383e-02  1.29255457e-02 -3.72364931e-03  1.60094768e-01
  -4.01638784e-02  4.53847572e-02  1.95772618e-01  4.98603173e-02
  -7.07334578e-02 -7.52039701e-02 -4.44976874e-02 -4.06668447e-02
   4.40765284e-02 -7.51620233e-02 -6.16717078e-02 -5.47842868e-02
   1.04231322e-02  1.98937040e-02  3.53100128e-03  6.69507757e-02
  -6.09311797e-02  8.07989687e-02 -1.66435942e-01  4.30176407e-03
  -9.18756053e-02  8.80714878e-03 -1.37738464e-02  2.95660943e-02
   1.08720779e-01 -1.22682244e-01 -5.03253192e-02 -1.31401405e-01
   4.92377132e-02  1.10966772e-01  1.11711852e-01 -1.58962440e-02
  -4.64246348e-02 -6.68387569e-04  9.34340581e-02  1.33297741e-01
  -4.99793366e-02  6.29007742e-02  2.67100781e-02 -5.72460927e-02
   3.75519171e-02 -2.46831663e-02  2.43459884e-02 -1.24870360e-01
   6.79518934e-03  9.70957987e-03 -6.79393336e-02  6.51208386e-02
   4.90042828e-02  2.68968642e-02 -4.00659144e-02 -6.82364479e-02
  -9.13205072e-02  3.69380675e-02 -5.15019000e-02  1.20567329e-01
  -1.89844728e-01 -8.63663778e-02  1.28278911e-01 -6.02243356e-02
   1.19967004e-02 -1.46290824e-01  1.27012864e-01 -5.09655941e-03
  -3.89017276e-02 -8.00892804e-03  6.13094959e-03 -2.83826776e-02
   4.93692048e-02 -1.07340161e-02  3.67114469e-02 -7.71068968e-03
  -5.68343567e-05  4.14539389e-02 -8.93645287e-02  1.96076538e-02
   1.04540043e-01 -3.29248793e-02 -1.08257243e-02  9.98947211e-03
   9.95692313e-02 -2.79211607e-02 -5.84512651e-02  8.68077502e-02
  -6.44526351e-03  1.64263193e-02  8.93339142e-02  3.33996257e-03
   1.08561046e-01  8.10184702e-02 -8.39295518e-03 -8.22767094e-02
  -5.62857687e-02 -5.83379576e-03 -1.14144370e-01  7.85575658e-02
  -1.08706027e-01 -4.14914377e-02 -8.69240388e-02 -4.57824543e-02
   6.56086430e-02 -8.10685009e-02 -1.34044945e-01  3.74203324e-02
   9.77388695e-02 -8.69249478e-02  3.19657400e-02 -1.29363403e-01
   6.33864384e-03 -1.59368232e-01  7.75304288e-02  1.07879192e-01
  -5.89613542e-02  6.21608496e-02  3.66644226e-02 -6.28939196e-02]
 [ 1.05978414e-01  7.16033950e-02 -1.03518255e-02 -9.35960095e-03
   1.27761245e-01  7.98677132e-02  3.71817648e-02 -8.75723064e-02
   2.16447096e-02  4.31411453e-02 -8.00596997e-02  3.40377539e-02
   2.04208940e-02  3.28928195e-02  1.96556579e-02  8.25344846e-02
  -7.39696845e-02 -2.70075761e-02 -1.70894470e-02 -5.04184663e-02
  -8.44347998e-02 -1.48744811e-03  4.81049605e-02  2.03622337e-02
   9.37484354e-02  3.23404931e-02 -1.10238204e-02 -2.45122071e-02
  -2.36067064e-02 -1.67498533e-02 -8.75946581e-02  2.82889642e-02
  -9.46846008e-02  2.75197662e-02 -4.76216432e-03 -7.20832646e-02
   5.38714342e-02 -2.10626069e-02 -1.17081046e-01  5.66701128e-05
  -2.60093063e-02  8.57233070e-03  1.93172172e-01  3.64343449e-02
  -6.61509410e-02 -1.18167371e-01  1.05047099e-01  1.33445084e-01
  -6.53015748e-02  1.15485646e-01  1.00179270e-01 -7.48691931e-02
   5.77553585e-02  3.39427032e-02 -3.75938974e-02 -1.49285018e-01
  -5.76575994e-02 -8.13279599e-02  5.03712392e-04 -1.63896531e-02
   5.23945987e-02 -1.28190488e-01 -3.95410834e-03 -5.55801997e-03
   5.94991334e-02  3.15076970e-02  5.77871501e-02  6.12340085e-02
  -1.97038054e-01  6.38087541e-02  2.54166014e-02  6.57161092e-03
   9.08291936e-02 -7.97974169e-02 -1.96157414e-02  1.07643887e-01
  -1.35348082e-01  3.77335586e-02 -1.02133140e-01 -1.43915834e-02
   6.95116296e-02 -3.04305069e-02  7.84157068e-02  3.94050404e-03
  -6.36456162e-02  3.19276825e-02 -8.90887305e-02  3.93616743e-02
   8.23637247e-02  8.64486694e-02  1.95465703e-02  2.26710774e-02
   6.53225183e-02  1.26005083e-01 -4.05272692e-02 -3.88584845e-02
   3.50511111e-02 -4.08456586e-02  2.02843407e-03 -1.02081567e-01
  -1.06014553e-02  7.95557052e-02  1.72803160e-02  6.09372975e-03
  -4.81998324e-02  1.48708358e-01 -1.40986830e-01  5.81857190e-02
  -2.67292690e-02  1.99973378e-02  1.43031338e-02 -1.15897663e-01
   1.85408480e-02  2.21859626e-02 -1.68582290e-01  4.57813665e-02
   1.29258394e-01 -8.20063129e-02  1.23419408e-02  1.01186626e-03
   3.16647515e-02  1.50211342e-02  2.19488200e-02  4.70906543e-03
   5.03656678e-02  7.99501874e-03  1.57804266e-02 -5.53051494e-02]
 [ 3.59130614e-02  1.20586291e-01 -5.92425838e-02  1.31825693e-02
  -5.50488383e-02 -4.35826629e-02  6.70648068e-02 -1.60678178e-01
  -1.02309473e-01  1.19664490e-01  2.49462090e-02  1.83740154e-01
   2.01752670e-02 -3.77829699e-03  9.03291535e-03 -1.08480724e-02
  -6.82588965e-02  1.70444846e-02  6.75979406e-02 -2.27794982e-02
   4.93232207e-03  7.03104865e-03  7.06738457e-02 -5.97127005e-02
   7.95949530e-03 -5.96845932e-02 -7.39844590e-02 -4.37137745e-02
   2.63946457e-03  1.11834854e-01 -1.50697619e-01  1.10592797e-01
  -5.26647307e-02  1.44132391e-01 -9.86450538e-02  3.00664697e-02
  -4.91765290e-02  2.10850388e-02 -1.05520012e-02 -3.77356559e-02
   5.43956161e-02  3.63644585e-02  7.02811182e-02  1.48319185e-01
  -1.75924271e-01 -1.13401249e-01  4.30457070e-02  6.28973022e-02
  -6.54404461e-02  3.17281559e-02 -4.20357212e-02 -9.03861895e-02
   9.27202031e-02  7.08135264e-03 -1.50337100e-01 -3.67976464e-02
   2.48976448e-03 -6.51674867e-02 -4.19699661e-02  1.19117722e-02
   6.06080070e-02 -2.30314732e-02 -6.22558594e-02  2.59327516e-02
  -6.48889318e-02 -2.70263618e-03  1.38443075e-02  3.70372646e-02
  -1.55589089e-01 -4.23840946e-03  9.84525084e-02  3.37525867e-02
   1.20252587e-01 -1.28079608e-01  1.07295878e-01  6.74115494e-02
  -1.70041218e-01 -5.44707067e-02 -5.97347273e-03 -4.38096151e-02
   9.53505114e-02 -1.00525748e-02  1.77318268e-02 -8.86411443e-02
  -2.85178218e-02 -6.58248365e-02 -5.26066236e-02  5.30712157e-02
  -1.90971829e-02  1.10417493e-01  1.93928815e-02  1.18883759e-01
   1.24209628e-01  1.40877292e-01 -1.02452494e-01  1.09713301e-01
   5.72152734e-02  7.38679096e-02 -3.14381458e-02 -8.69792700e-02
   1.15001097e-01  2.02044815e-01  3.93731780e-02 -1.93978511e-02
   5.80386780e-02  1.10243820e-01 -9.35326144e-02  7.12211430e-02
  -2.21489966e-02  5.50074093e-02 -4.61478047e-02 -6.74878713e-03
   1.18855484e-01 -1.14031672e-01 -1.00263298e-01  1.27202079e-01
   2.65688151e-02 -1.31493919e-02 -8.90000314e-02  1.38898483e-02
   1.27960462e-02 -5.71165234e-02  7.64497295e-02 -6.77039102e-02
   7.07680068e-04  1.26811922e-01  2.94830631e-02 -1.15125053e-01]
 [ 5.03109060e-02  1.38913155e-01 -1.55762091e-01 -5.47310784e-02
  -5.30739827e-03 -3.46412919e-02  1.66195795e-01 -1.71458483e-01
  -5.24916463e-02  1.59291178e-01 -5.39764808e-03  1.85894966e-01
  -3.76055241e-02 -9.94123891e-02 -4.26114118e-03  4.45763916e-02
   5.19509055e-03  5.29171079e-02 -3.57178599e-02 -8.11982676e-02
   3.78818922e-02  1.24946691e-01  1.98520496e-02 -3.11717880e-03
   4.89502028e-02  3.24696563e-02 -1.14674836e-01  6.82973340e-02
  -7.68924654e-02  9.68357399e-02 -1.27633289e-01 -4.03041486e-03
  -6.95820432e-03  1.34509057e-01 -3.77874635e-02 -2.03682408e-02
   3.95927578e-02 -1.32330939e-01 -3.48328054e-02 -1.43780634e-01
   7.09350184e-02 -3.11980583e-02  1.85050160e-01  1.36416256e-01
  -1.14850663e-01 -1.40631706e-01  1.61512718e-01  8.28662664e-02
  -1.76372379e-01  9.39477161e-02  3.36890966e-02 -3.28260101e-03
   5.65619580e-02 -1.00810014e-01 -1.94935501e-02 -1.74543917e-01
  -5.91280237e-02  4.53673117e-02 -7.29442462e-02  6.38763607e-03
  -2.36529298e-02  2.22450197e-02 -5.09173498e-02 -4.37759906e-02
   1.35463253e-02  7.08006471e-02 -2.41018515e-02  1.02483928e-01
  -1.43093675e-01 -6.40093163e-02  1.57497581e-02  3.37497406e-02
   2.02279091e-02 -1.18339859e-01  3.33838984e-02  4.09735069e-02
  -3.45751569e-02  3.84576917e-02 -3.21266353e-02 -5.83125874e-02
   3.99177484e-02 -2.79703550e-02 -3.32105756e-02 -6.92294538e-02
  -7.14049265e-02 -2.89596803e-02 -3.23186442e-02 -4.84214611e-02
   1.22607082e-01  4.42416184e-02 -2.12092008e-02 -2.44991425e-02
  -6.72762003e-03  1.13568276e-01 -1.57724917e-01 -1.35789094e-02
   2.41112355e-02  5.74943945e-02 -5.79476496e-03 -3.48048732e-02
   1.32065862e-01  7.69764334e-02  4.58599478e-02 -8.00350755e-02
   8.43838323e-03  1.49317354e-01 -7.35895783e-02  2.47947704e-02
   1.23356180e-02  3.78054790e-02 -7.98532069e-02  5.45197129e-02
   1.34718239e-01 -1.72026843e-01 -6.53856844e-02  4.78640944e-02
   8.67954940e-02 -8.49582031e-02  6.84462711e-02 -4.22583334e-02
   4.22565155e-02 -3.46589163e-02  8.80390331e-02 -8.75291452e-02
   5.51543832e-02  1.36430725e-01  1.93904534e-01 -7.02073947e-02]
 [-1.22043483e-01  1.72390282e-01 -7.04261139e-02  4.61169370e-02
  -9.30110738e-02 -1.46295847e-02 -1.28076915e-02 -1.32980511e-01
   4.18504663e-02 -1.43948104e-02  2.67679412e-02  1.14777111e-01
   3.80674340e-02  6.53586239e-02 -6.75307140e-02 -2.29868721e-02
  -3.62672918e-02 -9.70071182e-04 -1.02895789e-01 -1.04395851e-01
   1.09961003e-01  1.44374937e-01  9.77977961e-02 -4.83327620e-02
   3.74875404e-02  4.51094657e-02  5.13955532e-03  2.72221155e-02
   3.89199145e-02  5.65555505e-02 -2.42473744e-02 -6.51494637e-02
   4.00429778e-02  1.34545326e-01  1.23746082e-01  1.68909468e-02
  -8.62928554e-02 -4.54591811e-02  1.24115780e-01 -1.32886231e-01
  -2.10136212e-02  5.95545163e-03  4.28552590e-02  1.91517562e-01
   3.90107110e-02  9.58818123e-02  7.47773796e-03 -1.88658740e-02
  -3.53096873e-02  4.20758128e-02 -6.75672963e-02  2.10655741e-02
  -4.69816774e-02  5.45913503e-02 -3.37773189e-02  2.72926558e-02
   4.24340218e-02  4.28765416e-02 -1.30520742e-02  1.89161077e-02
  -1.28424987e-01  8.87882933e-02  1.17745385e-01 -2.04859357e-02
   5.91274686e-02  6.22560345e-02  6.25949204e-02 -5.77512607e-02
  -1.96373034e-02  2.11532693e-03 -1.66494399e-02  1.82815548e-02
  -9.52937528e-02 -1.05503779e-02  6.03146888e-02 -1.54457903e-02
  -8.32314417e-03  2.70522553e-02  8.87459293e-02  3.05569954e-02
  -8.03505704e-02 -4.70794104e-02  2.29272768e-02 -6.47370592e-02
   1.43524483e-01  1.68476421e-02  2.23205406e-02  4.63805124e-02
   2.77220849e-02  7.83648342e-02  6.03397749e-02 -5.95442019e-03
  -1.31658226e-01  1.19927965e-01 -1.09322824e-01  4.56400439e-02
   6.35402091e-03 -3.57208624e-02 -5.12446910e-02  1.05814874e-01
  -9.59236249e-02  3.15926108e-03 -1.93404146e-02  6.09138869e-02
   1.55396625e-01 -5.07458113e-02  4.92533669e-03 -1.41981751e-01
  -1.39522672e-01  2.24318169e-02  7.81151205e-02  1.25878021e-01
  -1.32850379e-01 -1.26583248e-01  6.16261959e-02 -8.14641714e-02
  -8.31950381e-02 -4.57305573e-02 -1.23610524e-02 -1.39868855e-01
   5.41222580e-02  1.14122957e-01  2.56678127e-02  1.36319935e-01
   5.41206915e-03 -5.40932193e-02  4.16936129e-02 -4.56217043e-02]
 [-1.26340508e-01  2.14480877e-01 -1.61336899e-01  8.60862061e-02
  -9.26267356e-02 -4.83659953e-02 -2.76012323e-03 -2.38992218e-02
   6.12210892e-02  6.29615858e-02  4.25098501e-02  1.13764340e-02
   1.13656977e-02 -5.46314791e-02  2.07446292e-02  1.01774849e-01
   8.02913215e-03  5.93267903e-02 -4.57214937e-02 -1.13873675e-01
   6.87643737e-02 -2.35767048e-02 -3.39049608e-01 -4.54938002e-02
  -7.00873807e-02  9.14490893e-02 -1.35284498e-01 -3.32732163e-02
   5.27394295e-04 -1.04038501e-02 -6.61051795e-02  7.58431107e-02
  -4.51129451e-02  1.63417518e-01  1.21072214e-02 -1.61889885e-02
  -9.00004134e-02  9.05840024e-02 -3.18526141e-02 -1.86471894e-01
   8.90160650e-02 -3.72731201e-02  2.00371161e-01  1.51675701e-01
  -1.97012708e-01  3.20775248e-02  1.17390528e-01  1.29114941e-01
  -6.75796494e-02 -1.88379269e-02  5.50379753e-02 -1.34742811e-01
   8.80687088e-02  5.86628355e-02 -2.80974526e-02 -1.62870720e-01
   4.98065688e-02  5.26448227e-02  1.99693814e-02  8.03587809e-02
  -1.19047724e-02 -2.65896711e-02 -3.54250185e-02 -1.62710752e-02
  -5.52818179e-03  1.44046536e-02  1.28857836e-01  2.49540098e-02
  -6.53935410e-03 -2.49273237e-02  1.24865435e-01  1.15949504e-01
   5.07798195e-02 -1.16185602e-02  9.74552557e-02 -4.90955152e-02
  -8.89182985e-02  4.36047539e-02 -1.02452882e-01 -6.42245933e-02
  -5.59818074e-02 -5.19383103e-02 -2.45733093e-02 -5.45940027e-02
   1.59402341e-01 -5.34794806e-03  2.45205294e-02 -9.32674296e-03
  -7.15173781e-02  8.46601501e-02  4.66719363e-03  4.99320216e-02
   1.12274751e-01  1.27357140e-01 -8.11379403e-02 -7.36469999e-02
   3.36335450e-02 -7.41955191e-02  1.17578670e-01 -5.38083585e-03
  -6.38620183e-02 -5.30896224e-02 -8.14397186e-02  4.91900630e-02
   1.98408127e-01  1.71322329e-03 -9.36420709e-02 -6.31431639e-02
  -7.52996504e-02 -7.11691082e-02 -7.30443820e-02 -6.72698691e-02
  -6.06638491e-02 -1.61065221e-01 -6.31802082e-02 -6.35454757e-03
   7.55694462e-03 -5.74229099e-02 -8.44698325e-02 -8.98276269e-02
   4.08335514e-02  6.05683252e-02 -4.58209962e-03  1.38602510e-01
  -7.16970861e-02  1.93859950e-01 -2.32758261e-02 -1.48553982e-01]
 [-5.80834076e-02  5.67051135e-02 -1.15188457e-01  9.08924565e-02
  -2.05859512e-01 -1.07257970e-01  1.45267278e-01 -1.43109830e-02
   4.27839048e-02  6.41217977e-02  4.81023220e-03  2.83005554e-02
   5.91209978e-02 -2.28032291e-01 -1.16129003e-01  1.63600311e-01
   5.97537542e-03  7.47710913e-02  9.64205414e-02  2.99916677e-02
   6.78904951e-02 -5.53260259e-02 -3.06769341e-01 -2.64742021e-02
   9.19070542e-02 -6.53747097e-03 -5.15768491e-02  5.31602800e-02
  -1.32782727e-01  3.60777155e-02  5.88947150e-04 -9.57433507e-02
   1.39248446e-01  1.73656344e-01 -3.13584469e-02 -8.46360996e-02
   6.82650059e-02 -7.76630733e-03 -4.82501313e-02 -1.28581733e-01
  -3.60154659e-02 -9.00535882e-02  2.02565849e-01  1.77438423e-01
  -1.02999486e-01 -1.65989757e-01  1.10231951e-01  5.61936349e-02
  -8.77546445e-02 -1.38324559e-01  1.06269224e-02  4.82542068e-02
   1.40204383e-02 -7.10178986e-02  3.04503888e-02 -6.39016777e-02
  -2.56232191e-02  3.96461822e-02 -4.81101461e-02 -6.29364029e-02
   8.10285136e-02  1.34159938e-01  1.06885083e-01 -4.58644256e-02
  -3.02207675e-02 -3.09017226e-02 -8.31068158e-02  7.50133991e-02
   1.58533826e-01  4.02531438e-02  3.95041406e-02  5.48947835e-03
  -8.71643238e-03  1.17567860e-01 -8.26493800e-02  2.61546802e-02
  -9.97117609e-02  1.34732783e-01 -1.35463655e-01  3.90187353e-02
   2.10010353e-02 -5.33117615e-02  6.53481558e-02 -1.28585741e-01
   9.41073615e-03 -3.72400209e-02 -9.05345529e-02 -1.05827977e-03
  -2.11613113e-03  7.26222247e-02 -1.19095743e-02  7.14772269e-02
   2.61502285e-02  1.75159231e-01 -1.00088969e-01 -5.09035820e-03
  -2.99402047e-02  2.86340620e-02 -1.12258084e-02 -6.81692660e-02
   1.30418375e-01  4.68795374e-02  6.32717609e-02  5.82891405e-02
   7.49632064e-03  2.19073087e-01 -1.89151824e-01  1.40559599e-02
  -1.68154746e-01  2.85530500e-02 -1.84423283e-01 -7.51228705e-02
   7.87400901e-02 -3.54313813e-02 -1.60633996e-01  9.86667052e-02
   1.64368510e-01  3.75714563e-02 -5.70949987e-02 -3.45590301e-02
   1.22007309e-02  9.26595628e-02  5.68565503e-02  4.34690416e-02
   1.26710027e-01  1.82703093e-01  1.10639311e-01 -1.17433466e-01]
 [-1.03180975e-01  5.84755652e-02 -7.05265179e-02  4.68508415e-02
  -1.08345911e-01 -3.68059799e-02  2.20231026e-01 -5.19600883e-02
  -2.89889742e-02  1.56641945e-01  2.30148379e-02  4.37956862e-02
  -4.10124399e-02 -1.77130163e-01 -9.78974327e-02  8.70360211e-02
   9.44059789e-02  2.95869932e-02  5.00498265e-02  9.84748602e-02
  -4.78174910e-02 -8.07539150e-02 -3.18193793e-01  4.05690856e-02
   2.42982693e-02  5.32519445e-02 -3.48095521e-02  1.46950468e-01
  -3.40271130e-04 -6.48613833e-03  1.50447094e-03  2.85513676e-03
   5.93622066e-02  1.54155076e-01 -5.14043160e-02 -4.78660762e-02
  -2.33863425e-02 -4.08083536e-02 -1.21193044e-02 -2.75677461e-02
  -9.27400962e-02  2.00171862e-02  1.46663770e-01  7.74680898e-02
  -1.12119459e-01 -9.89039615e-02  1.36718392e-01  1.18023179e-01
  -1.10478416e-01 -1.52705640e-01  8.55836719e-02 -3.07248794e-02
   6.86916113e-02  4.12398996e-03 -1.00964464e-01 -1.11506395e-01
  -4.54775915e-02  8.88276473e-02  1.42079443e-02 -1.03904903e-02
   1.32055050e-02  4.07270715e-02  5.36907874e-02 -4.74086069e-02
   1.73380412e-03 -5.64651787e-02 -3.26604862e-03  3.01362202e-02
   4.06101383e-02 -5.64206317e-02 -5.05530974e-03  3.97590213e-02
   5.35647720e-02 -2.42427681e-02  3.00889201e-02 -5.28518297e-03
   2.23321803e-02  1.48810580e-01 -1.41575947e-01 -6.46008253e-02
  -1.70395500e-03  9.53012798e-03  2.46446636e-02 -1.52151644e-01
   3.50087285e-02 -1.97848445e-03  6.70362338e-02  6.89293966e-02
  -5.47485687e-02 -4.21413146e-02 -3.64316031e-02  8.00805818e-03
   1.42614231e-01  1.84739530e-01 -1.37609407e-01 -1.27261914e-02
  -3.19129340e-02 -6.79599214e-03  9.40841213e-02 -1.50357943e-03
   1.00741863e-01 -3.99112180e-02  9.09606814e-02  5.86461648e-02
   1.59843471e-02  1.37819543e-01 -1.61754563e-01  1.02618866e-01
  -2.20007580e-02  7.45179653e-02 -4.74804044e-02  1.48533108e-02
  -5.35253342e-03 -9.55151990e-02 -7.22644478e-02  1.02195770e-01
   1.73485979e-01  1.19569469e-02 -7.07221329e-02 -2.70980801e-02
   1.94991473e-02  1.37052208e-01  1.06303014e-01  9.26946551e-02
   1.53921098e-01  1.66322812e-01  5.69813065e-02 -5.47873043e-02]
 [ 1.39299765e-01  1.66534826e-01 -3.59225599e-03 -6.91356212e-02
  -8.98486823e-02  6.75961897e-02  5.70449047e-02  5.13033345e-02
  -1.36356398e-01  3.08768786e-02 -3.08713019e-02  1.05298311e-01
  -6.01737723e-02 -2.25997977e-02  2.64973380e-02  5.78526072e-02
  -1.20872550e-01  2.63177752e-02  2.46507954e-03 -5.36723547e-02
  -3.59368511e-02 -1.01979643e-01 -2.13443965e-01 -9.11882073e-02
   1.03831343e-01 -1.90097559e-02 -2.11135810e-03  1.98342605e-03
  -3.06542236e-02  1.09608389e-01 -7.16877803e-02  1.09281637e-01
  -1.76708058e-01  2.01258361e-01 -1.42688543e-01  5.84100699e-03
  -5.34213670e-02 -4.70802523e-02 -5.61700985e-02 -2.85207611e-02
  -1.48095861e-02  1.33675605e-01  4.59854901e-02  1.13255277e-01
  -1.13604881e-01  9.55016688e-02  1.00686111e-01  1.37853205e-01
  -6.78867623e-02  8.26371089e-02 -6.86303899e-02 -4.11589593e-02
   2.05786183e-01  5.02568297e-03 -7.83806369e-02 -5.04972860e-02
   1.49524406e-01 -4.49842075e-03 -3.13177817e-02 -2.56919377e-02
   1.31275013e-01 -1.67212442e-01 -1.47642732e-01 -7.57230520e-02
  -3.75614576e-02  3.14416885e-02 -4.93692607e-02  3.73531580e-02
  -1.32747263e-01 -9.99997258e-02  1.39837533e-01 -1.57830808e-02
   2.24781364e-01 -6.52610064e-02  1.63017094e-01  5.83209619e-02
  -8.47931355e-02 -1.46667704e-01  3.55773754e-02 -2.24763125e-01
   4.67542745e-02 -7.79026896e-02 -9.67223011e-03  2.26061679e-02
  -1.46936402e-02  3.46460044e-02 -7.47485980e-02  6.99421167e-02
   5.53338230e-02  7.65723586e-02  5.01252301e-02  3.42884138e-02
   1.19894825e-01  1.51394889e-01 -1.00313805e-01  8.02003592e-02
   3.64774317e-02 -1.69459414e-02  7.27173015e-02  1.23574339e-01
   6.70626536e-02  1.10654972e-01  9.54264998e-02 -3.12956572e-02
   3.93164195e-02 -9.81055945e-03 -1.62205502e-01  1.74340323e-01
   2.88772117e-02 -2.18113717e-02 -1.63374469e-01 -1.00344427e-01
   1.38035551e-01 -4.62799780e-02 -1.60149649e-01  1.29663140e-01
   1.46504954e-01 -2.62753665e-02  5.21773323e-02 -7.30531067e-02
   3.96290980e-02 -7.41423965e-02  1.74384937e-02 -3.93074416e-02
  -1.15265138e-02  2.01705411e-01 -4.31298055e-02 -8.89137462e-02]
 [ 1.29429787e-01  1.59203917e-01 -9.70575735e-02 -5.19341081e-02
   1.41174570e-02  1.45453632e-01  3.04843169e-02 -8.68779048e-02
  -1.12036318e-01  9.00186151e-02 -9.58340243e-02 -2.30352534e-03
   6.44356059e-03  6.36471286e-02  1.30691975e-01  4.95050959e-02
  -1.56465292e-01  1.88197091e-03 -6.62710741e-02 -1.64350435e-01
  -6.51384965e-02  3.62164974e-02 -1.46163344e-01 -8.00266936e-02
  -5.56188636e-02  7.41459355e-02 -5.49140684e-02 -6.98530748e-02
   9.36537310e-02  1.35041624e-01 -1.26991421e-01  1.50585458e-01
  -5.31504340e-02  1.39438599e-01 -1.01276733e-01  4.40266728e-02
